0.000234
-0.349195
-0.598424
-0.011530
-0.060569
0.925461
-0.478924
0.013238
0.155700
0.208230
0.764108
-0.890779
-0.576141
-0.036074
0.066723
0.489111
-0.620347
-0.879418
-0.819357
0.018502
0.703342
-1.055034
-0.941966
-0.299451
-0.075105
0.235791
0.000804
0.036627
-0.762922
-0.475752
-0.756909
-0.205819
-0.118372
-0.757349
-0.794675
0.051494
-0.775636
-0.337591
-0.099113
-0.026642
-0.642434
-0.038369
-0.742597
-0.199759
-0.388959
0.013887
-0.163301
-0.752734
-0.845360
-0.343485
0.114337
0.629052
0.000479
0.386544
-0.064302
-0.524529
-0.273600
0.321264
0.239733
-0.318302
-0.400709
-0.640446
-0.607736
-0.626975
-0.529283
-0.478157
-0.612982
-0.442207
0.112235
-0.759044
-0.458626
-0.596495
-0.039301
-0.248099
-0.815748
-0.475207
-0.419696
-0.301919
-0.000696
-0.454593
0.151389
-0.363285
-0.109356
-0.035893
-0.560386
0.466654
0.272200
0.173728
0.591925
0.118144
0.644617
0.107391
0.583851
-0.045002
0.137862
-0.164190
0.322866
0.601132
0.300446
0.089677
0.586439
0.674166
0.555342
0.379999
0.000598
0.171641
-0.623020
0.199084
-0.475789
-0.136895
-0.411970
-0.680221
-0.021649
-0.054209
-0.195179
0.040125
-0.147166
-0.578009
-0.503013
-0.265226
0.003622
-0.542911
-0.864833
-0.238565
-0.435232
-0.335573
-0.147882
-0.866178
-0.621050
-0.673732
0.000190
-0.469630
-0.523615
-0.400009
0.151232
-0.055732
-0.757149
0.067785
-0.285910
-0.517519
-0.368239
-0.020725
-0.405802
-0.539310
-0.147861
-0.733546
-0.668634
-0.357003
-0.354303
-0.199112
-0.673168
-0.457379
-0.781002
-0.608565
-0.751702
-0.206591
0.253012
0.329290
0.096640
-0.436363
-0.404068
-0.388474
-0.282111
-0.267049
-0.116171
-0.454114
0.335722
-0.064523
0.422351
-0.153450
0.223067
-0.132352
-0.274382
0.135689
0.426890
0.801072
0.276000
-0.005684
-0.905250
0.117952
0.203638
0.572522
-0.183737
-0.192783
-0.077428
-1.572042
0.081620
-0.152756
-1.808136
2.216437
2.561675
-2.320008
1.570823
-1.414143
-1.455947
2.844709
1.624846
-1.501957
1.574143
-0.699336
-2.131471
-0.135152
-1.076158
0.221057
0.615358
0.989996
0.134614
0.142833
0.103109
-0.104065
0.311110
0.057201
0.754209
0.204300
-0.406485
-0.237672
0.758148
1.047944
0.245295
-0.492176
-0.777133
-1.062138
0.077434
-0.785898
-1.060256
1.381704
-0.168711
-2.028069
0.133690
-2.370699
1.411363
3.160352
-0.741155
-0.372381
-0.067730
-1.391568
0.080824
0.247857
-0.797998
0.021393
0.103705
-1.466912
-1.029987
-0.706646
0.505333
-0.009267
0.383800
0.708615
0.581761
-0.768668
-0.634043
-0.144104
0.853399
0.496337
-0.608218
-1.212814
-1.177433
-0.272920
-0.253436
-1.570354
0.629869
3.282656
-1.279994
-1.550907
-0.341074
-2.313478
2.235778
3.346802
-1.197085
-0.146277
-0.200434
-2.424991
-0.034106
-0.717535
-0.730394
0.605733
0.148131
-0.929980
-0.754309
-0.306930
0.464862
0.872191
0.313017
0.141106
0.513526
0.692612
1.094637
0.423925
0.602466
0.587765
0.575282
1.227162
1.743394
0.867409
0.069207
1.681122
0.442691
-2.123813
1.041383
1.524974
1.348806
2.319670
-1.470816
-0.996620
1.315502
0.170794
0.669974
2.212783
0.911613
1.302453
1.216268
-0.278910
0.607969
0.530852
0.550614
0.152608
0.314860
-0.142290
0.746191
0.490588
0.346858
-0.346603
-0.648924
0.154621
0.442998
0.001045
-0.084541
-0.250254
-1.312013
0.200058
-0.150345
-1.603192
0.962675
2.557324
-0.743967
-1.289262
-0.221779
-1.877951
2.068092
1.894078
-1.551699
-0.262735
-0.473789
-1.447433
-0.791949
0.088846
-0.736940
0.420879
0.679760
-0.518016
-0.683081
0.138254
-0.266071
0.384514
0.028516
0.602907
0.534783
-1.271513
-1.326718
-0.129450
0.052549
0.226956
-0.482307
-0.227463
-1.646114
-0.954485
0.314788
-2.000729
-0.521062
2.396453
-0.726447
-2.427184
-1.320451
-2.077480
0.955720
2.984676
-0.725326
-1.621083
-1.212217
-2.338533
-0.720315
-0.339966
-1.188782
-0.117105
0.499284
-0.517079
-1.325555
-0.268683
0.079222
0.025046
-1.349171
-0.441178
-0.418181
0.623929
0.288374
-0.119139
-0.297082
-0.840597
-1.121229
2.247666
0.393435
0.431859
0.864155
-1.218245
-1.091455
4.458614
-2.804401
1.422571
0.086650
-0.923600
-1.045050
2.696527
-2.904551
2.555454
-0.154716
-1.082817
0.015587
0.286227
-1.264658
1.813969
-0.043896
-0.946654
-0.366142
-0.855133
-0.655622
0.369264
-0.848554
-0.358515
-0.816018
-0.100575
-0.111130
-0.865877
-0.674595
-0.089870
0.176752
2.612599
-0.123601
0.040793
0.468563
-0.258628
1.050573
2.276850
-2.428356
2.290050
0.713271
-0.702059
1.142369
0.068908
-0.809661
2.459381
0.238554
0.211259
1.496329
-1.502641
1.498679
1.056578
0.381171
0.160694
0.152756
-0.670986
0.191291
-0.312900
-0.406088
-0.617680
0.297020
-0.119776
-0.348942
-0.474110
-0.806851
-0.052895
1.251491
2.662204
-0.788421
1.660707
-0.149262
-0.537707
2.406987
0.643490
-1.594383
2.692523
-0.343441
0.350272
1.854985
-1.199994
0.820050
1.972607
-0.558568
-0.346872
0.720768
-0.654606
2.041085
1.004277
0.191217
-0.068536
0.272059
0.350792
0.615307
-0.510233
-0.508146
-0.299826
-0.614948
-1.018608
-0.858440
-1.030338
-0.876474
-0.784756
-2.168091
-2.583693
-0.187361
-1.984594
-1.018374
-0.344790
-2.243368
-0.912415
-0.817145
-2.454411
-0.390750
-1.224808
-2.105177
0.484660
-2.516336
-1.699740
-1.056781
-1.528447
-1.237677
-0.831720
-1.820005
-1.408241
-1.076247
-0.718011
-1.041071
-1.392066
-1.087112
-0.385541
-0.883691
-0.276444
-0.133379
0.425007
0.085256
-0.990476
-0.678975
-0.294073
1.837591
1.987253
-1.081808
0.726054
-0.003895
-0.773231
1.579180
0.134836
-0.249904
1.777571
-0.470809
-0.477529
1.530893
-0.634733
0.542230
1.776745
-0.266635
-0.166518
0.113774
-0.357101
1.206255
0.960681
-0.031376
-0.280780
-0.317526
-0.632676
-0.232147
-0.412423
-0.865973
-0.618420
0.108692
0.103372
-0.540198
-0.212940
-0.579980
0.134463
2.189179
2.666448
-0.994559
1.529300
0.175599
-0.333058
2.936248
1.216671
-1.443040
2.141288
0.238721
0.303282
2.215078
-1.017073
-0.007010
3.734276
0.416755
0.135683
0.936935
-0.514089
1.098590
2.580819
0.576979
-0.217681
-0.255303
-0.102549
0.602420
0.307334
-0.413321
0.685941
-0.048938
-0.148216
-0.886929
-1.306565
-0.787791
0.149448
0.639370
-0.338648
0.779451
2.085200
-0.411565
-0.040729
0.189707
-0.641954
1.886027
1.520449
-0.209171
0.874189
0.330174
-1.150896
-1.717251
-2.087620
-0.414623
-0.661868
1.570398
-0.760864
-1.682170
0.726157
-0.440180
-1.399870
0.447610
-0.898117
0.271925
1.389706
0.575673
0.180649
0.241323
-0.352423
-1.680858
-1.014592
-0.547490
-0.241961
0.143132
-1.496232
0.042248
-0.436023
-0.445263
-0.011359
0.531221
1.317921
3.551240
0.664233
0.043455
0.640270
0.068726
0.405511
-0.922116
-0.974858
-0.195172
-0.969881
-0.585282
-1.943162
-1.710796
0.102155
-0.978900
-2.001029
-0.138609
-0.445263
1.530107
1.597996
-0.232885
-0.120146
0.281995
-0.721851
-1.631086
-1.328833
-0.158286
-0.134926
-0.059343
-0.254041
0.977615
0.111731
0.132720
0.953147
-0.101200
2.025890
2.936997
-0.040401
-0.196751
0.564635
-0.556271
-0.555279
-2.213139
-0.363510
-0.036935
-0.470245
-1.091961
-2.703643
-1.355013
0.607741
-1.613474
-0.772079
0.057662
0.503861
2.416332
1.152344
-0.014172
-0.406557
0.168202
0.945936
1.472416
1.283473
-0.040922
0.084295
0.515847
-0.476628
-1.064674
-0.348785
0.223821
0.160524
0.000612
-1.519341
-1.222272
0.345208
-0.186942
-0.338868
0.714487
1.775626
1.919839
0.810875
0.832149
0.459031
1.086584
1.517002
0.503130
-0.631371
1.521120
0.971391
-0.187044
-0.724081
-1.421115
-0.248870
0.731953
-0.006023
-0.383083
-0.779696
-1.475272
-0.671874
0.117353
0.446848
-0.095169
0.114796
0.981212
-0.360816
0.274160
0.308818
0.256068
1.979623
1.901958
0.529827
-0.408794
-0.044681
-0.167603
-1.229898
-1.540554
-0.161076
-0.162117
-0.846152
-0.933937
-1.383515
-0.606577
0.459201
-1.383156
-1.340638
-0.399844
0.291566
1.663038
1.325134
-0.507771
-0.390082
-0.328449
-0.845287
-1.929660
-1.462803
-0.093705
0.013368
0.111307
-0.403474
1.411463
0.537561
-0.040248
0.703658
1.007688
2.879292
3.048285
0.526748
-0.113145
0.975079
-0.425026
-0.915901
-1.179132
-0.245647
-0.046673
-1.095684
-0.984941
-2.147022
-0.715842
0.062637
-1.700666
-1.248040
0.186308
0.118735
1.971657
1.626504
0.142798
-0.640675
0.251927
0.293510
-0.154896
-1.648340
-1.342951
-1.021397
0.550711
0.452685
1.176029
0.817081
0.752969
-1.056567
0.281120
-0.023003
0.209326
2.202782
-2.221019
-0.775371
0.707040
-0.586757
0.348774
2.869422
2.749568
-1.234115
0.777629
0.325123
-3.002290
-1.018886
0.755142
-1.863345
0.300829
1.351829
0.163242
-0.190504
-0.025950
-0.425059
-0.155680
0.626479
0.259145
-1.413153
-1.402640
-0.356866
0.125437
-0.278423
-1.381802
-0.673903
-0.967172
-0.533647
0.976685
0.152305
1.967639
0.699923
-1.983453
-0.019168
0.931689
-0.004832
1.414074
0.404407
-0.102454
-1.186017
0.724882
-0.752487
-0.502194
1.393584
-0.879756
-1.475434
0.415214
-1.205360
-2.204562
-1.448004
-1.013623
-0.262132
0.697223
0.334548
-0.626375
-2.104576
-1.138241
-0.079072
0.565775
-0.276710
-0.800793
-0.122437
-0.763418
-0.442190
0.577919
0.093833
2.066409
-1.044070
-2.008134
1.030366
1.083040
0.185089
2.332002
2.005414
0.049586
-0.665295
0.067790
-1.411255
-1.312019
0.647013
-0.952648
-1.078909
0.218732
-0.409075
-2.317036
-0.846743
-0.801484
0.417509
0.459715
0.675638
1.429787
2.123951
1.198626
0.844563
0.087557
0.601460
0.469324
0.397991
1.657996
0.436310
0.111277
-0.072381
-0.710606
1.437045
1.745007
0.030766
0.012408
0.229815
-1.098095
-1.161863
0.696470
0.741098
-0.254554
0.976706
0.732802
-0.075150
0.963825
0.392107
0.538292
0.888888
1.573570
1.178869
0.372963
0.041635
0.232761
-0.411498
-1.158409
-1.887389
-0.461864
-0.644601
0.513058
0.353476
0.317918
0.303640
-0.941194
0.283174
0.582042
0.270513
1.529051
-0.496084
-0.875182
0.012627
1.326349
-0.265370
1.509568
1.490626
-0.688870
-0.966706
0.226519
-1.596892
-0.630467
-0.006481
-1.249298
-0.848415
0.258833
-0.328771
-1.229292
-0.770293
0.040187
0.039038
0.391214
0.094360
-1.064488
-2.282228
-1.664114
-0.207987
-0.144232
-0.013280
-0.729911
-0.112750
-1.019108
-0.961953
0.621519
0.496970
1.626511
-0.335183
-1.514958
-0.074351
1.332110
0.280303
2.205671
2.207734
-0.232513
-0.961615
0.193684
-2.060238
-1.359040
0.873583
-0.330990
-2.017809
-0.208530
-0.830239
-1.879559
-1.587246
-0.600615
0.072870
-0.070717
-0.096653
-0.262557
-0.423905
-0.746397
2.105456
1.012995
-0.595853
-0.613930
-0.368525
-1.529018
3.160728
1.257553
-0.183121
-0.415641
-0.813726
-2.783289
1.766936
-1.359386
-0.215899
0.789987
0.403210
-2.126819
-0.891890
-0.886992
-0.264270
-0.450305
0.181286
2.382574
0.701705
-0.062431
0.444024
-0.147476
-0.580391
1.800154
0.234981
-0.485184
-0.448291
-0.041818
-0.228394
-0.130835
1.989651
1.428906
-0.591048
0.025847
0.338938
0.220384
3.094380
0.039668
-0.646973
-0.052543
-1.353237
-0.406849
1.012564
-0.951592
-0.014946
-0.575649
-2.812339
-1.201377
-1.525064
-1.058433
-0.284291
0.534494
0.342332
1.471102
0.634803
0.258840
-0.383973
-0.174690
1.884997
1.540942
0.061883
-0.300145
-0.336774
-0.404743
-0.299666
0.462778
2.257626
0.120285
-0.388756
-0.150516
-0.704327
2.168515
3.188611
-0.680960
-0.438905
-0.075855
-2.416416
-0.273505
0.526990
-0.980335
0.247042
-0.159208
-2.961939
-1.340565
-1.507031
-0.819188
-0.274690
0.753866
1.967524
2.741655
0.013259
0.278816
0.060283
0.000282
1.288223
1.669316
-0.399706
-0.400561
-0.290861
-0.219106
-0.497552
-1.138662
-2.244773
-0.065995
0.557860
0.069523
-0.007809
-1.987825
-2.359477
0.242204
-0.157322
0.572957
1.304077
0.251123
0.463079
0.673447
0.092721
-0.520761
1.108208
0.266067
1.247871
-0.234656
-0.706518
-0.626626
-2.559001
-2.055773
-0.579415
-0.404292
-0.644251
0.109198
-1.243622
-0.984103
-0.085748
0.005196
0.151023
-0.438323
-0.449675
0.914366
2.054372
-0.441015
-0.205856
0.144364
-0.555237
1.253878
2.353744
-1.112352
-0.779933
-0.652713
-2.510656
0.056287
-0.033403
-1.099687
-0.273054
-0.026103
-1.557784
-1.394088
-1.358062
-0.588708
-0.417252
0.145529
1.355759
1.324960
-0.059080
0.287518
0.349390
-0.296878
1.144360
1.635303
-0.090520
0.118359
-0.379633
-0.288042
0.168503
0.899060
2.761958
0.285273
-0.613880
-0.107795
0.080271
1.659710
2.821625
-0.403673
-0.391146
-0.636636
-2.633155
-0.686045
0.662856
-0.957446
-0.115627
-0.157969
-2.290413
-1.651012
-1.295465
-0.311132
0.461619
0.282047
1.936577
1.841105
0.808570
0.671669
0.160698
-0.123472
1.163176
1.582128
0.323430
-0.329258
-0.073900
-0.021988
-0.176372
0.086392
-0.493501
0.079223
-0.195130
-0.563742
-0.300493
-0.012920
-0.538846
-1.524237
1.564125
-0.513899
-0.467330
0.862091
-1.313092
-2.181802
1.335924
0.691528
-0.382438
0.136822
0.875987
1.602840
-0.235852
-0.229686
0.537054
-1.450006
-1.617224
0.414216
-0.374898
0.144542
0.500302
0.021478
-0.142487
0.318282
-0.002770
-0.004632
0.408778
0.553266
0.418948
-0.054034
-0.162095
-0.542015
0.549217
-0.408499
-0.296744
-0.489115
-0.242296
-1.088661
0.139742
-0.048367
-2.135485
-0.465119
1.945965
0.162308
0.000079
-0.607766
-0.205922
0.770354
0.389949
0.234074
-0.308780
-0.357167
0.763056
0.289848
-0.753787
0.134417
-0.268351
-0.879023
-0.194973
-0.864654
-0.178899
0.266188
0.501806
0.151028
0.421837
0.193801
0.187890
-1.225267
0.274264
-0.034177
-0.099466
0.381347
0.154748
-1.253668
0.706479
-0.082377
-2.547821
0.542242
2.067659
0.792697
-0.137565
0.425912
1.107027
0.383693
-0.402285
-0.198447
0.002245
-1.414327
0.491087
-0.495763
-0.469456
-0.080231
-0.035742
-0.177342
-0.585942
-0.753994
0.332234
-0.326716
-0.103600
0.215850
0.184890
-0.688436
0.269437
0.591971
0.288610
-0.009196
0.489791
0.078052
0.066232
1.024382
0.327134
0.182316
1.535073
-0.655303
-1.665257
0.298267
0.370345
-0.727454
-1.164651
-0.421604
0.734031
0.179537
-0.114071
0.796604
-0.017694
0.440555
0.586610
0.027398
-0.051257
0.499081
-0.406568
-0.255938
-0.428639
-0.059029
0.090439
0.316257
0.368452
0.985861
-0.185133
-0.498628
0.413779
0.160222
-0.162908
0.277487
-0.124154
-1.648420
0.051128
-0.771775
-1.508051
0.244985
2.346541
0.059005
0.134811
0.050207
1.074126
0.133995
-0.044822
0.704836
-0.193318
-1.128515
0.516182
-0.235317
-0.448970
0.315611
-0.380554
-0.465682
0.029965
-0.023049
-0.499570
0.058405
0.145256
-0.427679
-0.043061
0.682842
-0.235731
-0.800777
0.324659
0.216487
0.007507
-0.200947
0.370238
-1.359973
0.102926
-0.725341
-1.273442
0.721901
2.361322
0.341816
0.473168
-0.084335
1.300552
0.863701
0.494711
0.471353
-0.415559
-1.265751
0.637561
-0.289322
-0.908931
-0.459203
0.395627
-0.606252
-0.451924
-0.745811
-0.260983
0.198875
0.246672
-0.107339
0.078181
1.248176
-0.147167
-1.224790
0.473607
-0.718491
0.223133
1.055087
-1.327193
2.298889
1.520540
-0.017188
0.578531
-1.614388
-1.295335
0.796267
0.326265
-0.784398
2.140772
-2.752945
-1.252371
-1.445252
-1.200535
-0.974122
3.250104
-0.255956
-1.043858
-1.395502
-0.355466
-0.737085
-0.726062
0.961899
0.390162
0.381140
-0.425048
0.141840
0.201752
0.407710
-1.971890
-0.796215
0.853286
0.259511
0.649763
0.476451
-0.331236
3.827979
0.962280
-0.389176
1.261622
-1.658797
1.905049
0.946447
-0.202166
-0.403622
-0.282179
-1.761216
-0.743286
-1.616210
-0.975573
0.505896
-1.357434
-2.265236
-1.364293
-1.700175
0.610268
0.179941
1.902297
1.285559
0.367652
0.052212
-0.082756
-0.425787
0.644708
0.086743
-2.503784
-0.880338
0.539529
0.320381
0.730953
0.249676
2.020041
4.059141
1.208826
0.030197
-0.391519
-1.558053
1.643565
0.366336
-0.693206
0.898104
-1.622339
-2.062329
-1.501750
-2.493665
-0.195170
0.370865
0.152468
-2.266227
-1.270866
-1.377847
0.465448
-0.081104
1.553235
2.138298
0.632835
0.530796
0.281081
0.198219
-0.454935
-0.420919
1.199120
-0.664837
-0.655732
-0.316963
-0.731906
-0.015009
-1.489774
-3.030440
-0.930807
0.228717
0.096409
0.566618
-1.032429
0.145331
0.529209
-0.245525
1.161398
1.799969
0.583073
1.352234
-0.615688
-1.099353
-0.229319
0.767480
0.838878
0.234752
0.194127
-0.138107
-0.968331
-1.524783
-0.712500
-0.756793
-0.038781
0.322927
0.194368
-0.769652
-2.084786
-0.391098
0.159309
-0.080201
0.576911
0.095780
1.461591
3.036708
0.449828
0.098788
-0.597182
-1.484244
0.301720
0.560363
-0.057202
0.323917
-1.185845
-2.180932
-0.721539
-1.692740
-0.026154
0.770336
0.110919
-1.614819
-1.376924
-0.556339
-0.259896
0.177158
1.301239
1.603938
0.890632
0.639443
0.445034
-0.338407
-0.037407
-0.696071
-2.953059
-0.579173
0.601509
0.272683
0.844543
-0.481343
1.028412
3.901982
1.845382
-0.308671
0.031610
-1.107769
0.035294
1.091902
-0.163010
0.736243
-1.883505
-2.157911
-0.492774
-2.318220
-1.074708
0.436099
0.259534
-1.318793
-0.782716
-1.613483
0.253406
0.479948
2.006574
1.801127
0.684732
0.592119
0.472878
-0.052692
-0.382065
-0.690255
-0.463065
2.001958
1.854018
0.951797
0.363253
-1.147223
-2.522722
-1.966768
-2.259480
0.451412
0.389723
-0.347512
0.279729
2.985299
-1.807444
-0.508422
-0.421032
-0.542916
1.856801
0.864087
-0.305404
-0.153942
-1.259776
0.430524
1.882254
-1.385456
1.233675
-0.014247
-0.920174
0.144514
-1.238196
-1.603496
0.657117
-0.441776
-0.680345
0.014028
0.507865
1.532857
1.462245
0.125332
-0.233866
-1.176829
-0.739815
0.084606
-1.445475
0.098792
-1.342893
-1.805929
-0.427945
-0.465012
-2.134540
-0.504157
-0.284012
1.484782
4.206716
-0.042368
-0.176373
-0.065903
0.506529
2.359518
0.856872
-0.762578
1.945156
0.598846
-0.151125
0.981822
-0.580384
-0.098464
0.532761
-0.155074
-0.341510
-0.533049
0.710059
1.991120
1.731930
-0.194991
-0.536444
-2.085342
-1.273889
-1.061515
-1.322393
-0.239213
-1.284646
-0.661033
1.769408
-0.326204
-1.845236
-0.471513
-0.167029
2.235728
3.541480
-1.323340
0.395961
0.072583
0.182526
2.705595
0.162190
0.818283
2.112494
0.320664
-0.372364
-0.866792
-1.279032
-0.130299
0.054168
-0.105591
-0.342922
-0.742869
-1.332054
-2.184037
-1.749378
-0.204811
0.105738
1.052329
0.782514
1.402028
0.037386
0.073933
0.544700
-0.908264
-2.641076
0.325404
0.553217
-0.289003
-0.884990
-2.184227
-2.325762
0.549490
-1.192137
-0.038334
-0.878109
-1.809802
-0.703273
-1.316556
-1.050478
-0.472401
0.148451
0.191122
0.902515
-0.247721
-0.267477
-0.133892
-0.539315
0.417812
1.562095
2.205431
1.438908
0.339626
-0.685474
-1.971526
-1.780490
-0.978102
-0.680537
0.144915
-0.578123
0.263048
1.823130
-0.775317
-1.601597
-0.544231
0.286883
2.372822
2.206194
-0.739907
-0.344783
0.075493
0.789137
2.276215
0.439598
0.225508
1.109997
0.030259
0.198036
-0.736150
-1.453002
0.152722
0.206670
-0.391071
-0.187836
-0.436007
1.056674
2.671599
1.338481
0.579798
-0.600969
-2.650563
-1.513526
-0.787652
-1.388149
0.834419
-0.352999
-0.357038
1.542261
-0.322426
-2.386683
-0.037884
0.303773
2.248817
3.300014
-0.537998
-0.407823
-0.156617
1.115716
2.532179
0.752361
-0.120340
1.443276
-0.012797
-0.089142
-0.532959
-2.076167
-0.114742
0.533240
-0.376700
0.237972
-0.104117
0.535361
0.617217
-1.382762
-0.324815
0.277265
-0.374324
0.736995
-0.397748
0.203577
-0.228355
-1.638216
-0.194663
1.505833
0.448220
-1.724013
-0.634699
-0.521384
-0.234737
1.523506
-0.866182
-2.039773
1.415670
0.686679
0.015051
1.558321
-2.424955
-0.530803
0.826859
0.652261
0.447042
0.705034
-0.815270
-0.936567
-0.507631
-0.172787
0.051039
0.026591
0.494408
0.141404
0.032909
-0.340475
0.170372
0.021747
-1.422179
-0.628310
-0.714769
-1.430475
0.591546
-0.066340
-1.077380
-1.521437
-1.454331
0.119197
0.223771
2.071841
-1.774874
-0.845636
1.677137
0.589616
0.329316
-0.450988
-1.845075
-0.130053
1.153600
0.512197
0.057413
-1.440805
-1.464775
-0.521016
-0.089035
0.250302
-0.182971
0.576044
0.022188
-1.118195
-0.749140
-0.176900
0.215171
-0.185911
-1.366005
-0.517735
-2.049523
-1.166863
0.088411
1.082448
-1.997234
-1.072240
-1.163257
0.325138
0.268574
0.896779
-2.765617
-0.417590
2.200496
0.154730
1.009050
-0.972059
-1.336753
0.181769
0.880783
0.436788
0.677005
-0.822542
-2.239180
-0.755253
0.696056
-0.003373
0.405621
-0.270320
0.498341
0.658628
0.775491
0.391477
0.324456
0.669124
0.810608
0.602127
1.700334
0.603185
0.043708
-0.517720
1.495404
1.357475
0.862741
0.589407
-0.058265
0.470113
2.597484
0.615563
-1.303998
0.126683
-0.065443
1.319824
0.937580
0.441650
0.303762
-0.136069
0.544651
0.845479
1.223235
0.362633
0.297385
-0.266237
0.570876
0.315388
-0.032630
-0.432939
-0.707159
0.005078
0.760500
0.083888
-0.569498
-0.303924
-1.875264
-0.325752
0.253740
1.550770
-1.017414
-0.923394
-0.130642
-0.678774
1.019048
-0.102344
-1.844491
-0.389816
1.883236
0.125226
0.387381
-1.210170
-0.844015
0.449346
1.071762
0.207057
0.656022
-0.445535
-1.067287
-0.419270
0.022090
0.488738
-0.085091
0.395922
-0.434123
-1.206294
-0.243210
-0.112488
0.856384
-0.346894
-1.500547
-0.128731
-1.687481
-1.068871
0.843415
0.855246
-1.496079
-1.198260
-0.868151
-0.328770
0.750384
0.912800
-1.881593
-0.168638
1.828749
0.684909
0.278660
-1.538115
-1.002976
0.286198
0.752361
0.408162
0.292260
-1.084463
-1.712989
-0.699472
-0.045262
0.141621
-0.672380
-0.371505
-0.344017
0.289301
-0.127005
1.327672
0.346456
-0.801107
0.128728
-1.264403
-1.202644
-1.702397
0.682962
-0.003821
0.726536
-2.860541
0.572934
-2.429434
0.869390
0.039759
1.809756
0.245228
-0.281997
-1.125537
1.256405
-1.183534
0.305232
2.557659
-0.296770
1.068524
0.558388
-0.647239
-0.856903
-0.206058
0.109858
-0.555515
-0.062209
-0.571227
-0.151634
0.688822
0.606616
1.267435
0.410401
0.284606
1.135748
-0.925403
-0.873645
-0.472866
0.771850
-0.130757
-1.326735
-1.935601
-0.644304
-1.990942
0.350402
-0.876241
-1.368908
-0.925144
-1.625525
0.384018
0.742523
-0.030675
1.550136
1.799001
-0.440818
1.811584
-0.207596
0.679350
1.040504
0.808451
-0.416883
-0.071659
-0.272323
0.270792
0.514370
0.798646
0.827454
1.204766
0.316272
0.327898
0.582500
-1.259106
-1.881115
0.338725
1.066245
-0.131633
-1.806022
-1.237228
-1.141303
-1.331859
-0.162582
0.438057
-0.413164
-1.635642
-1.672067
1.694418
0.102393
0.935881
3.282383
1.454734
-0.008489
1.249953
-0.412376
0.406853
0.308672
0.145394
-1.405389
-0.657618
-0.629013
-0.098288
-1.009614
-0.650032
-0.962832
-1.494797
-0.177473
-0.419930
0.054917
1.071846
0.796708
-0.799435
-1.043983
0.167683
1.702376
0.198339
0.185523
0.257691
-0.605721
-0.864533
-0.900807
-0.256948
0.668869
-1.528698
-0.607852
-0.634739
-2.416840
-1.320915
-0.473829
-1.013701
-0.536030
0.051303
-0.572108
0.106383
0.917957
0.472549
0.113156
0.091876
0.412638
1.047913
0.899511
1.140006
0.443733
0.183304
-0.375768
-1.100498
-1.131024
0.410005
0.442819
0.109810
-1.645380
-0.781804
-1.710211
-0.937272
0.009632
0.353996
-0.137694
-0.610650
-1.291444
1.020664
0.197546
0.648371
2.634458
1.261027
-0.503694
1.194488
0.162467
0.279773
0.178384
-0.472104
-0.659906
-0.812667
-0.095785
-0.160750
0.633829
0.906333
1.099549
1.203189
0.656696
0.468393
0.413034
-1.540389
-1.051082
0.493068
1.540209
0.107803
-2.315228
-1.766947
-0.921641
-1.054011
0.111331
0.700294
0.007817
-0.716672
-0.994016
0.165919
0.966484
0.742136
3.147005
1.113803
-0.090448
0.888633
0.033930
-0.296011
0.594291
0.308269
-1.063387
-0.850534
0.069990
