-2.400399
-0.123686
-0.329089
0.297250
0.961710
0.324634
0.411101
0.647698
0.770519
0.758818
1.267340
-0.095909
-0.115897
0.747022
0.867524
1.252897
-0.654359
0.359371
0.263900
0.853769
0.968697
-0.758166
-0.644829
0.105336
0.065473
0.793067
-0.621642
1.282329
0.983736
0.721778
0.903973
0.321252
0.694228
0.441663
0.334551
0.520521
0.534645
-0.113048
-0.034498
-0.076603
-0.603129
-0.316931
-1.008159
-0.964996
-0.918544
-0.375338
-0.315586
-1.123161
-0.879234
-0.967013
-1.219214
-1.220032
1.024731
-0.256875
0.204424
0.264529
-0.580615
-0.384001
-0.144114
-0.199475
-0.144484
-0.524984
-0.193605
-0.433470
-0.843580
-0.486546
-0.668153
-0.235907
-0.989943
-0.854442
-0.375905
-1.000891
-0.608912
-0.203884
-0.657584
-0.274006
-0.622982
-0.784912
1.191403
-1.004847
-0.413957
-0.765059
-0.747078
-0.891242
-0.735871
-0.985322
-0.774738
-0.528572
-0.758543
-0.112255
-0.755787
-0.766030
-0.635668
-0.892408
0.063537
-0.234340
-0.177136
-0.577203
-0.150837
0.309292
-0.019976
-0.225598
0.420755
0.788109
1.857338
-0.267113
0.198185
-0.175775
-0.244816
0.183103
-0.489401
-0.121440
-0.086004
-0.395976
-0.973821
-0.867340
-0.595777
-0.892737
-0.365196
-1.309902
-1.042365
-0.230338
-0.964996
-0.634396
-1.244326
-0.108617
-1.055025
-0.412600
-0.961362
-0.634897
0.510059
-0.354990
-0.176233
-0.756889
-0.357581
-0.038119
-0.792467
-0.758996
-0.874732
-0.372480
0.240374
-0.572834
-0.533566
-0.023091
-0.795600
-0.059417
-0.700479
-0.250385
-0.095331
-0.712616
0.244317
-0.852497
-0.839116
0.066915
-0.060972
-0.167655
0.434423
0.144544
0.380834
-0.396170
-0.307753
-0.276911
0.129282
0.398608
-0.183111
-0.416991
0.036286
0.003510
-0.248660
0.075846
-0.468094
-0.256218
-0.451949
0.466482
-0.124329
-0.426800
0.168146
0.324429
0.027801
-0.299324
0.057040
-0.246243
0.683501
2.463751
1.206047
-0.305232
-0.088908
1.280920
-0.649836
-0.032005
4.034539
-0.069812
0.930663
1.777592
-4.124562
-1.833314
1.543505
-0.287086
0.788810
3.083608
-0.970891
-0.442529
-0.912270
0.276387
-0.043327
0.650872
1.998295
0.698327
0.241303
0.576609
0.675662
0.829381
0.168741
-0.764777
-0.815730
0.242103
0.776233
-0.184493
-1.979284
-0.612575
-1.818421
-0.650697
0.142293
-2.276576
1.352051
5.331143
-1.210654
-0.593961
-0.544316
-2.786167
2.392165
-0.632895
-2.380782
1.450291
0.310073
-1.159918
-1.781631
-2.089881
0.772689
1.062754
0.190743
0.587636
2.284006
1.736334
1.032268
0.334223
0.691764
1.171508
-0.038621
-0.421415
-0.590819
0.532039
0.979070
1.416533
-0.974614
-1.217005
-1.663090
-0.691276
-0.301666
-1.987079
-0.458277
3.279381
-1.354242
-2.143263
-0.431798
-3.011020
2.120134
3.384431
-1.478971
-1.208992
-0.131902
-1.802434
-1.416386
-0.453048
-0.413762
0.068229
-0.038525
0.070754
-0.256055
-0.016854
0.886189
0.781362
0.672564
0.649618
0.960358
-0.251349
0.661697
0.227859
0.381152
1.959916
-0.265906
-1.811190
-0.929591
0.706099
0.813886
-0.848754
-1.027642
0.904077
-2.021225
-0.947880
-0.454818
-2.762238
2.059109
5.566090
-1.588351
-1.379785
-0.164758
-3.404632
0.656007
0.877084
-0.893154
0.033500
0.303141
-1.288041
-2.082493
-0.847782
0.457096
0.921799
0.773363
1.431771
0.698644
-1.488497
-0.351142
0.773489
1.214583
0.537779
-0.594659
-1.335552
-2.341834
-0.240138
-0.039063
-2.745130
-0.031305
3.414340
-2.066466
-2.279377
-1.809778
-3.560290
2.970065
4.375248
-1.968130
-1.251479
-0.707130
-3.115562
-0.661556
-0.782908
0.322901
0.444979
0.104421
-0.200355
-0.994146
-0.372103
0.967715
0.632972
0.793291
0.932035
0.823086
0.116958
-0.156761
0.133222
0.430647
0.626630
0.053461
-0.606582
-1.336653
-0.787227
0.023528
-0.443094
-0.733137
1.555592
-0.411255
-1.739251
0.091963
-2.259642
0.120431
4.251891
0.237724
-1.511043
0.174687
-1.517313
-0.416105
0.554239
-0.053579
0.775799
0.285447
0.153326
-0.944198
-0.960665
0.808146
0.272182
-1.619822
-1.009424
-1.374600
-0.372743
-0.783549
-0.290155
-0.333726
-1.292731
-3.652260
-1.537949
-2.008846
-2.531903
-1.208246
-1.629157
-4.259752
1.000678
-2.286593
-2.487476
-0.761036
-1.212128
-3.427675
1.209007
-6.063830
-0.810356
-0.729592
-1.765342
-2.056147
-0.326615
-4.019658
-1.208418
-0.805866
-1.586479
-2.073170
-1.421707
-0.818405
-1.205997
-0.414240
-0.540167
0.417067
-0.139450
-1.401325
-1.187093
-0.397379
-0.876376
1.119087
-0.251202
-4.274729
1.564849
0.110281
-0.303983
1.762964
-2.047672
-1.431852
1.020785
-1.565330
-0.258367
0.925475
-4.977823
2.329710
-0.339652
-1.188074
-0.737926
-0.822099
-1.445965
0.459448
-2.246505
-0.971630
-1.246657
-1.432478
0.036539
-1.101236
-2.123111
-1.475697
-1.279984
-0.027039
0.482063
-0.681843
-0.596006
-0.237808
-0.954154
2.348213
3.270117
-0.789641
1.472980
0.330657
-0.940313
2.802201
1.449130
-2.009271
2.935892
-0.125574
-0.196514
2.456417
-0.714882
0.726208
3.541143
-0.390902
0.056415
1.506602
-0.960383
1.327120
1.591799
-0.189588
-0.553945
-0.386306
-0.119708
-0.370594
-0.345968
-1.286462
-1.152829
-0.750071
-0.223216
-0.621539
-1.291984
-0.571210
-0.876152
0.922914
2.465091
-0.677715
0.803097
0.179742
-0.681855
2.353168
1.848814
-2.856439
2.899474
0.589528
-0.639660
3.742958
-0.293672
-0.186545
3.388324
-0.275951
-0.181897
2.358869
-1.998824
1.651947
2.818134
-0.584265
-0.587824
0.020037
-0.076415
-0.077807
0.554367
-0.364778
-0.369795
0.591074
0.021828
-0.597626
-0.573345
-0.434217
0.211447
3.206975
3.273745
-1.180259
2.737748
0.891445
-0.053289
4.898648
0.471057
-1.581995
3.909660
0.655522
0.223679
4.203692
-1.696128
0.925244
4.171772
0.391379
0.186761
1.660755
-0.986493
2.593587
3.146258
0.316680
-0.432555
0.422760
0.897099
0.248236
0.323667
-0.554818
-0.896222
-0.063232
-0.478853
-0.137216
-0.251532
-0.718703
-1.096840
0.962965
2.330013
0.194992
1.500910
1.243136
-0.828720
1.067752
3.017545
-2.995720
3.059038
0.868984
-0.277837
1.641940
1.160585
-1.847109
3.962339
0.481691
-0.989192
1.040628
-0.326572
0.947146
2.011165
-0.194546
-0.651981
0.028666
-0.151424
0.036730
-0.392486
-0.996287
-0.143483
0.069690
1.590124
1.250677
0.207356
0.028952
-0.016802
0.102031
0.636910
1.000081
1.376146
-0.417783
0.237154
-1.182463
-4.064853
-2.860599
0.553599
-0.431377
-0.554613
0.468050
-0.281498
1.252922
-0.394560
-1.515057
0.091969
1.572851
3.089240
2.075441
1.899267
2.428088
0.687990
0.746350
-0.417554
-2.873369
-0.816915
1.217304
0.723472
0.253241
-1.560365
-1.882406
-0.739087
-0.541364
0.026428
0.598888
2.307730
4.101133
1.925226
-1.372069
-0.148023
0.241428
3.248672
1.490507
-0.821778
0.486283
0.702688
-1.040646
-2.745298
-4.730097
-2.162011
-0.016591
-1.003361
-0.431191
-0.407633
2.549362
3.516884
-0.224694
0.087993
0.261581
1.398784
1.250635
-0.466835
0.582504
1.478603
-0.450700
-1.584619
-2.410816
-1.344645
-0.120998
0.363362
0.132205
-0.168138
0.389678
0.211329
-0.275100
0.597297
0.528552
3.877187
4.004468
0.036690
0.083800
0.554579
0.036904
-0.777950
-2.570944
-0.847431
0.378459
-0.099160
-1.407093
-2.450187
-1.209647
0.365968
-1.617358
-1.760223
-0.197495
0.119003
2.972285
2.043162
-0.275717
-0.481791
0.159761
-0.885399
-1.602643
-0.288374
-0.024028
-0.166869
-0.528477
-1.930266
-2.086864
-1.281071
-0.046385
0.465455
0.270772
3.514439
4.376523
0.505940
-0.915550
0.897740
0.516424
1.300015
0.241134
-0.623108
1.208368
0.851102
-1.764723
-3.561915
-3.372567
-1.384191
-1.444477
-2.046229
-0.606917
0.325862
2.575680
2.660161
-0.684142
-0.855027
0.129324
-1.550748
-3.199196
-1.352265
-0.094587
0.063760
-0.365408
-0.010535
1.137230
-0.453609
-0.229069
1.004529
1.024478
5.850387
5.442653
0.745888
0.349320
1.436404
-0.418350
-1.448206
-3.325615
-1.258707
0.541337
-0.404651
-1.803071
-3.506531
-1.424350
-0.439375
-2.260175
-1.811081
0.056407
1.354196
3.762582
2.147171
-0.117251
-0.727187
0.142704
-0.243712
-1.734809
-1.621879
-0.094776
-0.041998
-0.346907
-0.182965
-0.840230
-0.782391
-0.328118
0.784314
0.763972
1.753344
2.897259
0.480530
0.236960
0.650904
-0.169833
-0.234998
-1.143996
-0.811341
0.123980
-0.602217
-0.192580
-2.189209
-1.430473
-0.391052
-1.449680
-2.324195
0.292019
-0.511702
1.614817
1.998846
-0.401955
-0.255317
0.195944
0.428468
0.551472
0.418610
-0.469297
-0.218929
-0.059712
0.785517
0.270388
2.127867
2.337634
-0.475632
0.122400
-0.217575
-3.019780
1.862575
2.610317
-1.280690
-0.199275
-0.478484
-3.047561
-0.248519
3.171070
-0.163971
-0.188175
2.868677
-1.968441
-3.541118
1.018071
-0.130615
-0.045841
1.723864
3.040497
1.592420
0.730294
0.191368
-0.406444
-0.022735
-0.918019
-2.239542
-1.421391
-0.334311
0.034379
-0.158132
2.830123
5.118415
-1.238122
-0.960815
0.102929
0.560614
1.587650
-3.006242
-1.943763
2.424798
0.889436
0.233780
1.772391
6.137771
3.714278
-1.707460
-0.162326
-0.768137
-1.572159
-1.394107
-2.680024
0.144871
-0.160851
0.802892
1.739790
0.483202
1.385714
0.940842
0.151185
-0.437940
-1.456661
-2.745270
-0.856486
0.401405
0.241123
0.023141
-0.255944
0.964448
-1.820457
-0.654660
0.946495
1.010949
2.367692
-1.213967
-2.338463
0.601663
1.249881
-0.032206
1.945188
1.898374
-0.300445
-1.461442
0.311846
-1.964153
-0.953584
0.877675
-0.736051
-0.770230
0.245843
-1.243817
-2.240612
-1.455367
-0.594955
0.604779
0.074492
0.094328
0.228185
-0.786083
-0.259360
0.883480
0.669579
-0.415776
-2.094016
-2.035145
-2.056941
-0.654561
0.988884
0.530363
3.698668
1.518461
-2.959034
0.309021
1.169623
1.145490
1.637680
-0.421184
-1.662840
0.130398
0.980989
-1.540577
1.460026
5.306235
-0.119338
-2.210930
0.544810
-1.645097
-2.709009
-2.160284
-1.964736
-0.846693
0.018435
0.021709
-2.399108
-3.647964
-1.669093
0.220438
0.359009
-0.295948
0.652832
1.275331
-2.074234
-0.453115
1.032050
0.828262
3.629225
-1.637325
-2.739202
0.882326
1.975982
0.588866
3.826605
3.263371
-0.924518
-2.299748
0.931249
-2.602563
-0.766438
2.185874
-1.290221
-1.344486
0.638005
-1.292396
-2.974572
-2.049497
-0.549476
0.171023
-0.235970
0.295652
-0.473030
-2.014141
-0.942551
-0.218781
0.675561
-0.383586
-0.545906
-0.901958
-1.501752
-0.214806
1.225390
0.738525
1.934542
1.104401
-1.653250
-0.967845
0.798936
0.048424
2.119425
1.246197
-0.705345
-1.765154
0.683916
-0.898722
-0.734624
1.222714
0.481496
-1.626223
-0.005895
-0.305988
-2.427736
-1.636902
-0.876560
0.276987
-0.178834
-0.343106
-0.411680
-0.294433
-1.516126
-0.448305
0.813378
-0.270949
-0.660602
-1.150115
-5.464883
-2.602340
0.772258
-0.176804
-0.258997
1.721889
-4.006598
0.836680
-2.038184
-0.247111
0.754050
3.878663
2.618439
1.989357
-0.593919
-0.492755
-1.698597
-3.656347
0.047559
0.000528
-2.474406
-0.915324
-0.708480
-2.402685
-1.158339
-0.687070
-0.086973
0.302150
-0.126234
-0.040738
1.320239
1.244841
-1.675844
-1.545388
0.008164
-0.096188
-0.859010
-1.696464
-1.449242
0.681398
-0.786404
-3.996707
-2.904445
-3.944294
-1.519949
-0.466603
-0.518617
0.556769
0.602805
-2.142806
2.050129
0.151330
0.143419
3.350307
2.469411
1.777035
-0.186148
-1.447534
0.081859
-0.956312
-0.994000
0.423869
0.069683
0.265450
0.056838
0.041703
1.683273
2.909741
-0.815054
-1.052482
-0.250905
0.528484
2.385701
3.485562
-1.419993
-0.488619
0.051393
-2.222344
-1.251152
0.328149
-0.629044
0.609924
-0.123076
-2.943789
-2.374802
-2.234220
0.055285
0.303580
0.254297
2.920089
2.091223
-0.280425
1.324161
-0.061858
-0.168531
1.516995
1.823656
0.694964
-0.242475
-0.239273
-0.205352
-0.368779
0.177011
1.516576
0.328313
-0.456493
0.204389
-0.218177
2.932048
4.563480
-2.203108
-1.162118
0.863153
-1.362169
-0.477760
1.115643
-0.979135
-0.184896
-0.926650
-4.067332
-2.731115
-2.423760
-1.960531
-0.063385
0.167102
1.420452
0.786078
-1.083977
1.629830
1.122147
0.603295
2.795508
1.354646
0.072800
-0.520036
0.198793
-0.347843
-0.748934
1.958680
3.572566
-1.288494
-1.196156
-0.056350
-0.235828
3.510520
4.120167
-1.554429
-0.415067
-0.366995
-3.831796
-0.660785
-1.010057
-1.210459
0.678058
-1.433760
-3.763614
-2.903380
-3.099888
-0.012861
0.274547
1.513847
4.729334
2.792257
0.408924
1.806615
0.992417
0.532735
1.781215
2.374430
0.054039
0.226747
-0.596564
-0.248279
0.016518
0.178720
2.581131
-0.155559
-0.888116
0.193732
-0.062485
1.189824
4.349568
0.093022
-0.455761
-0.445407
-0.616596
-1.512992
0.881371
-0.661643
0.284071
-0.481172
-2.300267
-3.187032
-1.183191
-1.399913
0.517717
0.486016
1.088995
2.141561
0.057189
1.171535
0.438094
0.249469
1.693760
1.433486
0.649377
0.026929
-0.572759
-0.290570
-0.263642
-0.251412
-0.557815
-1.132772
0.473113
-0.188205
-0.075299
0.067805
-1.067482
-1.974510
2.181121
2.925503
-0.971943
2.540499
2.361947
-3.213569
-3.644304
0.147528
-0.913819
-1.911201
-0.750386
-0.514471
-0.935948
-0.477084
0.397824
0.314165
-2.735709
-0.329711
-0.192006
-0.070504
-0.001852
0.694797
0.086967
1.115538
0.366903
0.123186
-0.064673
-0.200713
0.059533
1.277724
-0.727611
-1.985158
-0.368144
-1.015543
-1.470884
1.875826
4.356945
2.527068
-0.309199
-1.634492
-2.673872
2.348341
1.264620
1.592858
0.295288
2.392706
6.484038
0.959204
-2.560704
-1.354668
0.131457
-0.904723
-1.496679
-1.630172
-1.052330
0.024300
-0.235570
1.160039
1.097617
0.607396
0.946789
0.256297
0.282428
0.084759
1.111046
1.700534
-0.513117
-2.057102
0.192100
-0.088314
-0.504663
0.916389
0.673831
-2.950170
0.543634
-1.545238
-2.881316
0.535848
4.048959
1.659798
0.871357
1.012621
1.163871
1.035047
-0.036012
0.505078
-0.627138
-1.724861
-0.212887
0.196985
-1.053757
-0.032117
-0.418821
-0.789722
-0.382179
-0.806075
-0.854353
-0.691924
-0.190743
-0.021075
0.313023
1.368002
-0.071672
-0.890053
-0.110369
0.556178
0.817528
1.595366
-1.683299
-4.554276
-0.112521
-1.660384
-3.110750
1.956178
5.491779
0.451187
1.145677
0.516648
-1.109228
1.296479
2.240877
1.526159
-0.476915
0.552042
3.386763
1.468434
-0.555852
0.202834
-0.624822
-1.703088
-0.886049
-0.741001
-1.264001
-0.139572
0.243961
0.038094
1.186213
1.941377
-0.725485
-2.654329
0.503438
0.199850
-0.878323
1.044380
-0.003869
-3.343223
0.395214
-2.784443
-3.571148
1.863930
6.032885
2.162745
0.574135
1.561365
2.158432
1.013457
0.199223
0.472907
-1.246972
-3.075921
0.475711
0.337159
-1.267110
-0.146904
-0.086633
-0.956418
-0.656048
-0.902637
-0.368544
0.210510
-0.337313
-0.125813
0.582765
1.026926
0.619140
-1.764494
-0.012096
0.035246
-0.074390
-0.230897
-0.944043
-3.402787
0.367858
-0.663717
-2.787456
-1.315998
2.743296
1.093538
-0.111042
0.830412
-0.518006
1.052423
0.421730
1.154372
0.089969
-1.173358
-0.467365
0.168971
-1.085241
0.100330
-0.297724
-0.864960
-1.169068
-1.105625
-1.177446
-0.486535
-0.441089
-0.267031
-0.000365
0.843397
2.578859
0.921335
-0.331026
-0.514023
-1.666937
-0.659448
-3.926651
-1.803684
0.212458
-0.043764
0.852525
1.339916
-2.659602
-1.210532
0.116200
-1.266424
2.170502
-0.940770
-0.026254
1.255761
-0.557368
-1.883479
2.061085
4.402530
1.655224
0.463371
-0.017595
-1.087948
-2.483840
-1.761234
-0.858524
-1.264614
-0.200865
0.315076
0.402683
0.183893
-1.009143
1.248017
0.704193
0.337198
0.277465
-2.143556
3.473519
4.547535
0.089019
0.105675
-1.431202
-2.473706
0.475829
-3.535249
-1.763317
1.079965
-2.385789
-3.338710
-1.088539
-1.862180
0.297804
0.179695
0.867170
1.410977
0.136246
1.886108
1.170005
-0.255839
-1.139400
0.798332
0.824805
-0.395439
-0.560949
0.298434
0.080290
-0.353563
-2.889849
-0.744664
0.195053
0.075519
1.261221
-0.345061
2.550660
5.073408
1.047563
0.298884
-0.824555
-1.698798
0.670192
0.828840
-0.942233
0.321226
-1.842400
-1.804744
-0.458819
-2.631752
-1.279572
1.556188
0.247748
-2.142560
-1.770288
-0.178703
-0.157657
0.571725
1.404470
1.172208
2.097906
1.061092
-0.278842
-0.172859
-0.560698
-0.419739
-3.607938
-2.915104
-0.583237
0.395008
1.670661
0.887951
0.761951
3.017700
0.911474
-0.363498
-0.026046
-2.008077
1.779420
3.076379
0.704153
0.122308
-1.166606
-2.361847
-1.309701
-2.388134
-1.725112
0.843434
-1.482583
-3.871778
-2.003577
-1.854559
-0.187960
0.579095
2.186184
1.772243
0.998380
0.408183
0.539708
-0.184489
0.759402
-0.427987
-3.000748
-1.413528
0.254830
0.223433
1.680614
0.182452
3.866931
6.160392
2.137794
0.245272
-0.923526
-1.958972
1.287879
1.357411
-1.022519
0.633085
-3.315949
-3.196938
-0.783846
-2.949612
-1.920231
1.930125
-0.533815
-3.669764
-2.307642
-0.457569
0.120747
0.878002
2.229647
2.546150
2.123055
0.662708
0.217945
-0.557192
0.093500
-0.251474
-0.913003
-1.667332
0.188716
0.345556
1.199473
1.005159
0.907846
4.137963
1.494912
0.337626
0.400566
-1.340495
0.780221
1.626045
-0.255336
0.762571
-0.438398
-1.958291
-0.758709
-1.663116
-1.346515
0.968823
0.794219
-2.543361
-1.984066
-1.266810
0.507252
0.150514
1.767762
1.058419
1.233243
1.085430
0.445926
-0.879542
-0.280357
-0.655670
-1.564548
-1.191927
-0.008569
-0.387120
0.416141
0.491030
-1.155568
-1.274140
-2.385848
-0.713801
0.269293
-0.428162
-0.969131
4.032149
-0.274911
-0.303029
-0.661584
-3.153414
-3.481935
0.544495
-0.702169
-0.293923
-1.877963
-2.589588
0.953432
-1.195454
-1.033616
-0.419034
-0.891794
0.223910
-1.303530
-1.293543
-0.837748
-0.295991
0.121004
-0.465757
1.214648
2.791716
1.299859
0.025034
-1.631245
-2.338603
-1.567814
-4.173329
-3.630051
-0.442665
-0.549123
3.859731
7.181948
2.398391
0.133608
0.371977
0.584391
1.181772
-1.381767
-3.626940
1.921805
0.618326
0.757837
0.908977
-1.090171
2.250254
0.793610
-0.828969
-0.594221
-3.251880
-3.256016
-2.562175
-1.575227
-0.592177
0.048294
-0.156238
1.576632
3.369657
2.021150
-0.106594
-1.245248
-2.573533
-1.205817
-1.944170
-1.694767
-0.380806
-1.627679
-0.348638
2.560658
-1.135570
-1.780925
0.055909
0.393547
2.535609
2.902595
-1.012018
-0.022985
0.227911
0.730972
1.964155
0.699896
1.072829
2.218092
0.712874
-0.069936
-0.813962
-1.699060
-0.696799
0.180004
0.151397
0.102721
-0.384613
0.679126
1.518883
0.491933
-0.778825
-0.368903
-1.344405
0.828749
1.699376
1.298905
1.087538
-1.997990
-1.903450
-0.038935
-1.987386
-3.028976
-0.657010
-0.386454
2.728809
5.701969
-0.585594
-1.315581
-0.501629
0.373254
2.529468
0.467914
-0.649227
2.085683
0.293866
0.123329
0.862819
-0.171886
1.023415
1.506588
-0.173194
-0.834169
0.317247
2.331758
3.749156
1.687338
0.421896
-2.544912
-3.984384
-1.935387
-1.613350
-1.472248
0.282241
-1.885892
1.091385
3.390300
-1.446862
-2.871838
-0.233862
0.628432
3.482408
4.267328
-0.721022
0.005298
0.381219
1.020972
2.986764
0.126591
1.421858
2.984348
0.168727
-0.537069
-2.149920
-1.799968
-1.186881
0.289480
0.115707
-0.856453
-0.152951
0.539868
1.908005
1.269026
0.218181
-0.413173
-2.127286
-1.731557
-1.074001
-1.290239
-0.042583
-0.509728
-0.879033
0.746412
-0.089995
-1.960599
-0.357685
-0.294825
1.459217
3.695499
0.299357
-0.790758
0.169818
-0.224841
2.125207
1.291379
0.163747
1.307554
0.878821
-0.045251
-0.379730
-0.491291
0.264795
0.776544
0.250850
0.760260
0.343156
0.057739
0.983187
0.143204
-0.231570
0.005603
0.479710
2.426302
1.519522
1.400896
2.021148
0.119573
0.960720
0.734291
3.606175
-1.209836
2.566597
1.497514
-0.974982
0.667002
4.815329
0.143118
-1.094545
0.361242
-0.421523
4.462969
0.117144
0.371462
-0.713751
0.335173
-0.082840
0.893452
4.316684
3.307220
1.356343
0.467021
0.738311
0.465985
-1.267396
-1.121024
-0.439763
0.083064
0.213027
-1.208804
-1.271294
2.961749
-0.474431
-1.309375
0.770880
1.960434
-2.579454
-3.105602
2.671055
2.878981
0.991586
-1.126735
-4.119636
2.584073
1.381745
-0.046170
0.641715
-1.902475
-0.262310
-1.650120
-2.758834
-0.729237
-0.236425
0.185041
1.340889
0.597713
1.975346
0.332369
0.745865
0.407497
-1.063417
-1.748466
0.143214
0.234123
0.362389
-1.125606
-1.880972
0.078286
-1.595470
-1.672608
0.092858
0.820662
-2.195024
-1.475060
-0.583600
-0.321735
1.619040
-0.000506
-3.914591
-0.539021
2.425235
1.270801
1.892473
-1.340871
-1.567621
-0.348308
-0.157630
0.422436
1.057288
0.109504
-1.581863
-2.652247
-0.549502
0.285966
0.249635
0.487376
1.116285
0.613430
0.729552
0.310755
0.270027
-0.449363
-2.732908
-1.333866
-1.832624
-0.447483
0.486669
-0.964337
-2.583399
-0.788917
-2.514231
-1.064861
1.183222
2.974580
-3.893838
-1.597068
3.063410
1.172221
1.420456
-2.191189
-2.862221
0.730710
1.453915
1.154663
0.372509
-0.759719
-2.520698
-2.657861
-1.246028
0.037666
0.204743
1.256531
-1.025580
-1.592309
-0.296734
0.713305
0.171938
-2.106729
-2.935323
0.055653
-2.311287
-1.939304
0.534136
0.846450
-3.549697
-2.449607
-0.610273
-0.505603
2.109638
0.901166
-5.286288
-1.113151
3.111964
1.743488
1.448124
-3.018741
-1.726514
0.045904
-0.352986
0.765708
1.214170
-0.345444
-2.867695
-2.907429
-1.331080
0.707581
0.185532
0.569728
-0.291961
-0.736221
0.228958
0.530438
0.613855
-0.253563
-1.395610
-0.853353
-1.075614
-1.246528
0.560423
0.936500
-1.927461
-0.847108
-1.499617
-0.239204
0.563051
1.757483
-2.058586
-1.322871
1.297728
0.894719
0.810637
-0.055229
-2.258548
0.315139
0.439654
1.129017
0.538644
0.892083
-2.073184
-2.342495
-1.115877
0.006888
-0.651668
-0.629633
-0.824477
-0.744991
-2.113914
-0.364764
-0.366931
-0.854820
-0.672717
2.809451
3.189926
-2.462918
-0.900498
-0.018209
2.676130
-0.915782
1.769721
-0.316480
0.185629
-0.175288
1.178353
1.481979
2.147287
-1.660860
-0.500058
-1.177321
-2.759449
-0.835750
-1.399905
-1.335483
-0.252480
-0.500299
-0.383323
-1.745502
-1.357220
-0.149344
0.185397
-0.217890
1.400624
0.978252
0.577751
1.512466
1.067204
0.736409
-1.360643
-2.487856
1.133605
-1.620630
-1.072801
-0.776983
-3.504096
-0.294554
-2.347576
-1.923913
-0.339733
-0.005679
1.679571
2.393549
0.634035
3.952865
0.101477
0.804158
2.081307
1.247464
2.347316
-1.316564
-1.400591
0.029524
-2.319103
-4.082428
-3.114737
-1.828317
-0.281330
-0.097457
1.285063
0.600058
1.391161
2.279328
0.305034
0.343305
0.121218
-2.640314
-3.205705
-1.241259
0.991528
0.137780
-3.335146
-1.564233
-1.077478
-2.491700
0.528647
0.040228
-0.640487
-1.310724
-1.529899
0.958291
1.394575
0.961359
2.495192
1.493594
1.471247
1.656619
0.729145
0.239135
-0.092915
-0.025833
-0.158106
-2.041956
-0.611682
-0.047897
-0.327534
1.435709
1.888133
1.047534
0.175936
0.952515
2.155476
-2.088160
-4.080861
1.099479
1.752260
-0.156215
-2.832107
-2.317379
-0.835086
-1.966063
0.383671
-0.511438
-2.869303
-1.947751
-2.545565
-0.709624
1.208446
0.833804
2.595230
1.039058
-0.448434
2.333684
0.400045
0.623541
1.721759
0.925060
0.690386
-0.806679
0.182255
0.485827
1.795357
1.545266
1.794405
2.318510
0.703158
1.032774
0.485660
-4.029374
-4.068816
-0.009298
1.874157
0.050966
-5.139202
-1.679598
-1.751195
-2.549704
0.676578
0.570708
-1.375411
-2.399359
-1.523913
0.985857
1.698940
1.889777
4.181027
2.309705
1.111025
1.564629
0.432724
-0.232360
-0.269111
-0.779663
-0.891909
-2.093640
-0.399533
0.136614
0.362714
1.202476
0.443741
1.451461
0.922607
0.001188
1.339715
-0.754856
-3.238933
-0.775345
1.554725
-0.018733
-1.548354
-1.543150
-0.544799
-2.880456
0.304659
-0.186949
-0.272914
-1.954801
-1.422442
-0.536102
0.956697
-0.197692
1.739211
1.916177
0.374664
1.762931
0.718884
-0.432634
0.510937
0.256620
1.311624
-0.320231
-0.024578
