0.000024
-0.147124
-0.621354
-0.528084
-0.773955
-0.344982
-0.552210
0.107097
-0.120020
-0.331128
-0.431779
-0.511429
-0.438807
-0.649215
-0.405779
-0.204907
-0.044852
-0.337916
-0.405235
0.387475
0.324732
0.097033
0.039980
-0.388139
0.434012
0.541456
0.000322
0.275915
-0.040066
-0.006214
0.158591
-0.145037
-0.410981
-0.718655
0.023698
-0.323509
-0.193805
-0.761697
-0.461593
-0.626643
-0.285232
-0.095625
-0.409727
-0.015352
-0.107508
-0.069943
-0.486673
-0.475704
-0.770749
-0.337073
-0.413170
0.212607
-0.001106
0.658869
0.761665
-0.227220
0.492605
0.165696
0.662937
0.162182
-0.093768
0.233214
0.290397
0.221246
0.307853
0.116153
0.333836
-0.551494
0.153989
-0.287522
-0.343168
-0.666234
-0.015806
0.083324
0.180241
-0.257821
-0.513170
-0.926555
0.000140
-0.447017
-0.350866
-0.690344
-0.600689
-0.208454
-0.742070
-0.572617
-0.173479
0.093724
0.093271
-0.156877
-0.388429
-0.608119
-0.420237
-0.431136
0.073699
0.360852
0.227605
0.087535
-0.366840
-0.043699
0.399693
-0.026510
0.100920
0.307550
0.001095
-0.184133
-0.382595
-0.153405
-0.202615
-0.576838
0.225355
0.243519
-0.437713
-0.553952
-0.171127
-0.393860
-0.357389
-0.501232
-0.495328
-0.530176
0.047632
-0.173469
-0.377029
-0.690025
0.012285
-0.667402
-0.687529
-0.128766
-0.048262
-0.521459
0.000445
0.033143
0.083720
0.081867
-0.182724
0.276032
-0.593414
-0.006072
-0.295487
-0.084875
0.150920
-0.476260
-0.195176
-0.643744
-0.287114
-0.591312
-0.403661
0.031212
-0.437752
-0.151728
-0.713238
-0.723749
-0.633284
-0.421277
-0.650435
0.187031
-0.093019
-0.334918
0.040796
-0.389624
-0.126196
0.140333
0.243691
-0.433625
-0.174050
-0.340789
0.433546
-0.046914
0.374104
-0.154459
-0.426049
0.221155
0.174175
0.503453
0.506857
-0.093262
0.712113
0.274334
0.528800
-0.195377
0.699012
0.132190
-0.030586
-1.329135
-0.907773
-0.261033
0.087341
0.316284
-0.906014
0.505915
0.147734
-0.455198
0.032787
-1.263176
0.035474
2.749932
-0.055380
-0.326048
0.233641
-1.202192
0.388458
0.400208
-0.710030
0.419365
0.125064
-1.370289
-1.291035
-0.284425
0.036990
-0.161862
0.428670
0.273996
-0.162043
0.178749
-0.635689
-0.003235
0.205997
0.379168
-0.353791
-0.019608
-1.270269
-0.898907
0.611736
-1.110729
-0.028069
2.060381
0.445158
-1.112105
0.213841
-1.419217
0.600343
1.841061
-0.026432
-0.322950
-0.554540
-1.461167
-1.139228
-0.442707
-1.056768
0.314950
-0.034178
0.112776
-0.493745
0.050466
0.417271
0.466454
-0.228192
-0.182214
-0.279983
-0.559125
-0.497191
0.131347
0.410094
0.322568
0.000306
1.047880
0.770596
0.523228
-0.166787
-0.211531
1.120273
1.548930
-0.247887
1.573726
0.098487
0.989470
1.224999
-1.676301
-0.835294
1.185906
0.456892
0.397138
-0.348856
-0.193139
1.019014
1.013853
0.548223
1.479983
0.820876
1.211361
0.271661
-0.191328
-0.055740
0.633709
0.734309
0.761608
0.568689
0.547668
-0.017519
-0.092898
0.204318
-0.739939
-0.374598
-0.059013
0.064971
0.427360
-0.740459
0.150764
-0.195086
-0.674839
-0.255253
-0.630954
0.469413
1.805746
0.238802
-0.648983
-0.223554
-1.562891
0.831261
1.213576
-0.621181
0.239016
0.179954
-0.782310
-0.616534
-0.314991
-0.295123
0.122256
0.154117
0.352692
0.022297
-0.060809
-0.318637
-0.130993
0.121985
-0.008224
-0.560260
-0.680249
-0.632788
-0.962298
0.390313
-1.277357
0.241317
1.825284
-0.813856
-1.209867
-0.823528
-1.967144
1.734174
2.619705
-0.910233
-0.081585
-0.379993
-2.018574
-0.402030
-0.082048
-0.175584
0.257996
-0.519538
-1.099423
-0.898053
-0.095352
-0.220887
-0.219421
0.594157
0.185538
-0.166516
-0.953728
-0.471017
-0.389335
-0.066066
0.278927
-0.479732
0.015139
-1.251182
-1.087809
-0.286341
-1.265774
-0.369103
2.236316
-0.331069
-1.794689
-0.170170
-2.152420
0.457648
2.435922
-0.225976
-0.997885
0.012787
-1.365607
-1.053569
0.002203
-0.751182
0.141069
0.603606
-0.306638
0.456422
-0.246492
-0.249555
0.437324
-0.991791
-0.831807
-0.875835
-0.438989
0.207176
-0.661693
-0.162954
-0.983812
-0.111818
0.674165
0.246063
-0.454655
-0.360209
-0.449723
-0.033447
1.666805
-1.984287
1.502131
0.314184
-0.860840
1.174420
-0.162961
-0.421765
1.793269
0.148513
0.047855
1.236973
-1.279621
0.810778
1.336342
-0.398481
0.307943
0.214780
-0.003281
0.380870
0.278043
-0.033202
-0.603095
0.040186
0.220170
-0.049846
-0.243729
-0.024474
-0.306633
0.007918
1.964600
-0.870067
0.601306
0.704128
-0.145875
1.050423
0.974325
-1.336915
1.641837
-0.105629
-0.405147
0.872188
0.054638
-0.230760
1.491207
0.289398
-0.457816
-0.012491
-0.374057
0.805628
0.968232
-0.251887
-0.377947
0.232242
-0.228262
-0.426786
-0.383965
0.037860
-0.079898
0.287261
-0.453666
-0.277521
0.139005
-0.248853
-0.338423
0.303806
-1.061412
-0.955327
-0.020007
-0.316583
-0.021979
0.095676
-2.397434
0.782416
-0.609568
-1.304736
-0.463620
-0.518412
-2.243680
1.428949
-1.843758
-1.403180
-0.606672
-0.897160
0.384171
-0.072514
-1.296911
-0.886656
-0.551637
-0.405547
-0.701825
-0.854976
-0.921307
-0.693359
-0.621224
-0.094256
-0.128471
-0.287260
-0.314918
-0.693569
-0.195033
-0.198086
0.652016
-0.297763
-0.904947
-0.240729
-0.445663
0.195223
0.327647
-0.837099
-0.027561
0.148974
-0.014615
0.378514
0.074711
-0.646778
1.489385
-0.443964
-0.523638
0.327527
-0.689567
-0.126068
0.484264
-0.427771
0.055855
-0.321515
-0.629932
0.507658
-0.461341
-0.173882
-0.859678
0.053068
-0.182384
-0.534625
-0.069818
-0.542471
-0.196241
0.572739
1.601889
-0.131361
1.446680
0.447718
-0.283864
1.895143
0.090076
-0.835992
1.987797
0.589477
0.169331
1.902506
-1.114936
0.480254
1.480567
-0.160687
0.332639
0.245556
-0.407788
1.434434
1.003214
-0.017105
-0.310992
0.261343
0.266224
0.140669
0.216597
-0.624173
-0.283082
-0.275735
0.135195
-0.377732
-0.633127
-0.339947
0.048345
0.692399
1.166551
-0.285038
0.278384
0.564990
0.092680
1.274869
0.556362
-1.549480
1.092633
0.317560
-0.134311
1.179923
-0.719406
-0.589603
1.547299
-0.093434
0.374730
0.276310
-0.703906
0.512085
1.207961
0.306357
-0.202051
-0.089250
-0.126144
-0.421801
0.030474
-0.178779
0.224702
0.360595
-0.013441
0.083094
-0.072051
-0.234231
-0.107532
-0.068616
-1.095552
-0.659602
-0.225992
-0.903842
-0.278888
-0.360361
0.941693
2.030223
0.557704
-0.802820
0.450149
0.339643
1.027088
0.632703
0.203961
0.304143
0.405415
-0.480353
-1.769918
-1.798231
-0.309180
-1.030133
-1.033544
-0.721532
-0.107632
0.641889
0.999822
-0.396613
0.200758
-0.369719
-0.012840
-0.234188
-0.611897
-0.641000
-0.235051
0.175514
-0.155732
0.124643
0.061217
-0.157296
-0.141473
0.594823
0.676498
2.185087
0.842302
0.121369
0.154718
0.063280
-0.845321
-0.846228
-0.115205
0.122409
-0.105013
-0.136065
-0.936359
-0.793598
-0.181873
-0.293489
-0.362343
0.493623
0.528423
0.968994
1.267511
0.028118
0.357746
-0.415311
-0.565156
-0.322126
-0.439303
-0.091300
-0.049673
-0.016067
0.516033
1.156591
0.092401
1.036604
0.070865
0.432131
0.554696
-0.609080
-0.728568
0.376092
0.054948
-0.851782
-1.131474
-0.983301
0.011442
-0.059876
-0.489571
-0.327857
0.921499
1.873857
0.886124
0.159739
0.346886
0.309250
0.651787
-0.094865
-0.020570
0.385941
0.446119
-0.318555
-0.376869
0.395539
0.081933
-0.067362
0.452492
0.324374
0.127997
-0.757612
-0.689411
-0.638220
0.408950
0.448391
0.403151
1.146633
0.332288
-0.072031
0.213204
-0.128346
0.304869
0.372342
-0.209314
0.376299
0.419037
-0.589703
-1.436846
-1.817687
-0.429976
-0.771518
-0.255455
-0.355585
-0.728107
0.704824
0.378480
0.033539
0.326079
0.473213
-0.418566
-0.435784
-0.901582
-0.107002
-0.224700
-0.423858
-0.074457
0.401287
-0.338639
-0.208595
0.196234
-0.318526
0.917682
1.764189
-0.128937
-0.525031
0.053091
0.006239
-0.539770
-0.809200
-0.065984
-0.718730
-0.421038
-1.179956
-1.603610
-0.523132
0.422484
-1.070577
-0.767125
0.180420
0.027087
1.267497
0.869377
0.094737
0.053366
-0.467898
0.136385
-1.044282
-0.721315
-0.673708
-0.340274
-0.504116
-0.082211
0.638814
0.439170
-0.562031
-0.092792
0.499238
0.839262
1.805228
0.183312
0.084824
0.364683
-0.057944
-1.414444
-0.733252
-0.679350
-0.686493
-0.488528
-0.644782
-1.680465
-0.061851
-0.088369
-0.077044
-0.420239
0.311287
0.725680
0.966307
1.191598
0.110574
0.453807
0.687461
0.156831
0.158070
-0.189124
0.668496
0.346942
-0.004590
0.206403
-0.450853
-0.646218
-0.124594
-0.539608
0.167131
0.171231
0.922169
1.017032
-0.461612
0.281404
-0.159712
0.033485
0.663417
-0.088453
-0.281572
-0.207725
0.092439
-0.243308
0.717723
2.456077
0.514055
-1.337958
0.471842
-0.263346
-1.198835
-1.117237
-1.109309
-0.071468
0.549635
-0.041349
-0.525659
-0.406858
-0.726592
-0.833397
0.002051
0.486594
-0.089498
-0.405593
-0.186968
-0.570791
-0.442062
0.288233
1.033047
0.464313
-1.111067
-0.408215
0.507382
0.400625
0.434799
0.905622
0.755142
-1.164908
-0.241670
-0.403293
-0.980445
0.578375
-0.363451
-1.192905
0.611075
-0.185793
-0.772097
-1.006480
-0.373073
0.563589
-0.170344
0.288801
-0.028280
-0.045007
0.170154
-0.197011
-0.000184
0.652669
1.172946
0.849314
0.836188
0.559203
0.170875
0.157724
-0.375558
-0.933982
0.113489
0.957780
0.379987
0.263266
0.356116
1.598907
-0.018057
0.931690
-0.280587
-0.688124
-0.399978
-1.182338
-0.825481
1.214555
0.189381
0.538181
0.993271
0.443424
0.750882
0.345760
0.152987
0.345829
0.098456
0.281895
0.682795
0.101773
0.408767
-0.373075
-0.348327
-0.729037
-0.498938
-0.962345
-0.005071
0.123754
0.736051
1.049385
-0.203700
-0.339588
0.482372
0.309411
0.539059
-0.443812
-1.000644
0.290274
-0.187227
-0.005781
0.884099
1.814055
0.982659
-0.431173
0.531106
-0.574027
-1.040226
-0.742374
-0.363353
-0.299560
0.242782
0.029114
-0.434834
-1.100529
-0.880026
-0.868181
-0.081257
0.183209
-0.568039
-0.622199
-0.425734
-0.003009
0.129582
0.078875
0.733267
0.082279
-0.825546
0.197636
0.577563
0.292986
0.565600
0.420451
-0.802329
-1.167637
-0.337327
-1.246601
-0.346010
0.683744
-0.927181
-0.978433
0.569467
-1.272857
-1.192696
-0.961429
-0.525784
0.343628
-0.028712
0.172843
-0.352150
-0.526665
-0.307088
-0.949953
0.299147
-0.231506
-0.206131
0.111964
-0.649401
-0.108518
0.431773
0.573629
0.662221
-0.687503
-1.412920
-0.067290
-0.012424
-0.366271
0.997998
1.696850
0.515089
-1.342124
0.046088
-0.786325
-1.155121
0.602825
-0.400485
-0.873748
0.229093
-0.538929
-0.215194
-0.873168
0.325204
0.409186
-0.277952
-0.192856
0.274966
-0.271488
-0.261792
-0.557486
0.131558
-0.059505
0.141737
0.050244
0.267683
2.550041
0.101925
-0.239178
0.378464
-0.110370
-0.585888
1.309557
-0.353082
-0.084310
-0.176147
-1.434413
-0.911932
-0.602793
-0.812711
-0.339816
-0.026870
-0.268989
0.153848
-0.077943
0.599708
-0.210205
-0.325341
1.448862
1.196798
0.326054
-0.106253
0.236062
-0.172411
0.025488
0.022739
0.888944
0.847183
-0.099289
-0.602786
-0.324093
0.277707
1.854747
0.368411
-0.687830
-0.743333
-0.938974
-1.014029
0.609898
-0.856567
0.013360
-0.017388
-1.725864
-0.682783
-1.128582
-0.462986
0.357105
0.128523
1.342491
1.703506
0.234546
0.020136
-0.138622
-0.377638
0.832957
0.244748
0.168764
-0.824627
0.069766
-0.099557
-0.400629
0.062628
0.217338
-0.414639
-0.638877
-0.112645
-0.094589
0.655066
-0.679090
-1.466650
-0.135418
-0.324948
-1.105473
0.146511
-1.418679
-0.195001
0.388015
-0.146733
0.968887
0.524677
0.185356
0.046905
0.165095
0.105452
0.333145
0.361821
-0.024636
-0.848303
-0.762937
-0.278677
-0.657236
-1.292776
-0.308725
0.220991
0.370553
0.203935
-0.304451
-0.022528
-0.042854
-0.316946
0.370276
-0.595015
0.321413
-0.051760
1.297334
0.511205
-0.496381
-0.328095
0.021628
-0.103677
1.321435
-0.137349
-0.438750
-0.152808
-1.789946
-0.868456
-0.091262
-0.208138
0.097153
0.240108
0.105717
-0.213055
-0.800248
-0.133508
-0.356223
0.471526
0.464439
1.030990
0.209166
0.001945
0.112291
-0.093386
-0.694226
0.454726
1.610632
0.494076
-0.569372
-0.514335
0.123448
0.463651
2.168452
-0.145201
-0.109224
0.003213
-1.325704
-0.453704
0.497159
-0.957417
-0.495449
-0.835298
-1.280508
-0.688480
-0.684373
0.244624
0.458464
0.629643
1.656836
0.651774
-0.001371
0.008970
0.331650
-0.146207
0.809386
1.240172
-0.654976
-0.056926
-0.209332
-0.338451
-0.599678
-0.114936
1.375503
0.828720
-0.803243
-0.335614
-0.223654
0.437177
1.790739
-0.537031
-0.144895
-0.185465
-1.488900
-0.452772
0.091787
-0.964812
0.150721
-0.480182
-1.501063
-0.626026
-0.790393
-0.420119
-0.087618
0.213657
1.664784
1.554184
0.324917
0.037195
-0.251575
0.216283
0.676181
0.404939
-0.371194
-0.488691
-0.571297
-0.260893
0.241504
0.225865
-0.532106
-0.142816
0.600372
0.272793
-0.481522
-0.249510
0.364014
-0.216368
-0.005233
-0.405280
0.200027
0.253270
-0.964760
-0.541459
0.786343
0.504719
0.204264
-0.016287
-0.503516
0.033251
-0.122030
0.222120
0.168638
-0.328691
0.606659
-0.042805
-0.496270
-0.330286
-0.149813
-0.369431
-0.548099
-0.321599
0.042210
-0.535337
-0.079994
-0.595676
-0.117365
-0.174878
-0.163549
-0.807053
0.432500
-0.402852
0.308346
-0.136912
0.377466
-0.712050
-0.294066
-0.531776
-0.545588
-0.204215
0.659750
0.189237
-0.319779
0.494018
0.999365
0.741757
-0.934604
-0.275372
0.143957
-0.673424
0.389061
0.339424
-1.326902
0.191619
-0.539713
0.050801
0.594389
0.007728
0.131324
-0.204389
0.212376
0.173581
-0.003146
0.139360
-0.689908
-0.557703
0.285110
-0.082172
-0.663430
0.585912
-0.189945
-0.182457
0.472311
-0.421648
-0.454447
0.488374
-0.353454
-0.687031
0.222661
0.572250
1.110031
-0.024342
-0.318355
0.180640
0.293765
-0.100757
-0.934854
-0.682373
0.040072
-0.164327
-0.367614
0.739803
-0.234462
0.308344
0.508928
-0.185417
0.209547
0.021121
0.299517
0.346178
-0.193040
0.414509
-0.551147
-0.382851
-0.443037
-0.319615
-0.072189
-1.109705
-0.230236
0.127491
-0.192960
-0.367214
1.456717
0.022164
0.438964
0.413225
-0.821742
-0.108026
0.249417
-0.133446
-0.166889
-0.103755
0.833228
0.686876
-0.808365
0.260674
0.421182
-0.682901
-0.199543
0.044274
-0.013947
0.245378
0.136849
0.326452
-0.497127
0.451584
-0.696239
0.029173
0.372358
-0.295334
0.196586
0.080696
0.067257
-0.278069
0.425642
-0.324166
-1.299038
0.534405
1.084563
0.260996
-0.462756
-0.181205
0.296587
0.190712
-0.014702
-0.057259
-0.568539
-0.278924
0.328637
0.080608
-0.475055
-0.040278
0.194123
-0.300081
0.027549
0.064840
-0.427576
0.033555
0.382727
-0.410740
0.344214
0.330759
0.115633
-0.593410
-0.168042
0.076809
0.108032
0.172501
0.784254
-0.203849
-0.202376
0.135490
-0.580778
-0.050182
0.748331
0.711992
-0.552089
0.377697
1.490251
0.862966
-0.499677
-0.129221
-0.394573
-0.974774
0.361001
0.185074
-1.016385
-0.409006
-0.006339
-0.124230
0.257574
-0.018911
-0.713083
-0.270665
0.593962
-0.041942
-0.454181
0.480216
-1.575908
-0.797447
-0.075506
-0.100815
0.413305
-0.146964
-0.132415
1.638827
0.178965
0.579115
0.476286
-0.524848
1.494213
1.761895
0.099548
-0.333571
-0.375794
-0.711033
0.296927
-1.164739
-0.308308
0.163336
-0.751129
-2.115782
-0.425587
-0.536154
-0.031028
0.722124
0.589904
0.713072
0.612871
0.000718
-0.280856
-0.366819
0.194272
0.031463
-1.474363
-0.670307
0.053518
-0.093314
0.310362
-0.005564
-0.097079
1.943568
0.865699
-0.004427
-0.409670
-0.692395
0.613239
-0.421992
-0.457024
-0.055338
-0.390506
-1.677546
-0.743875
-1.307055
-0.092866
0.550638
0.032807
-1.225436
-0.887575
-0.809288
0.003030
0.006171
0.506821
1.630330
1.166803
0.275395
-0.125282
-0.349349
0.407455
-0.078854
0.436893
1.275229
0.294932
0.617801
-0.346406
0.071626
1.575873
0.333214
-0.010599
0.552644
-1.069270
0.493668
-0.846263
-1.671928
-0.653621
0.671544
-1.058286
0.330303
-0.631162
0.370421
0.824866
0.176450
0.810772
1.713215
0.666828
0.892389
0.012866
0.068154
-0.217891
0.213164
-0.432380
-0.433138
0.228555
0.356289
-0.430583
0.135180
-0.605143
-0.630352
0.004832
0.064712
0.399212
0.220492
0.045134
0.761819
0.908043
0.554128
0.256494
-0.684021
0.443723
2.124381
0.474663
-0.323063
-0.694427
-0.030858
0.516972
-0.851237
-0.522771
-0.115198
-0.199507
-1.298692
-1.241446
-1.321410
0.351678
0.493947
1.159227
1.231496
0.390319
0.116833
0.245207
-0.280152
0.538072
-0.513830
-1.174340
0.236512
0.753823
0.294738
0.752635
-0.216144
1.183189
1.919261
0.341631
-0.291134
-0.573320
-0.768608
0.330446
-0.611158
0.052467
0.219762
-1.430461
-0.652034
-0.820151
-1.861273
0.105678
0.213151
-0.182024
-0.809702
-1.102874
-0.345463
-0.338807
0.655111
1.253640
1.309861
0.869375
0.052766
0.205656
0.411380
0.608364
-0.377892
-1.502530
-0.220090
0.241111
0.124145
0.524920
-0.220865
0.930851
2.390090
0.926388
0.152430
-0.811595
-0.601627
-0.041629
-0.483995
0.152176
-0.227311
-0.724269
-1.048574
-0.456415
-1.129999
-0.631015
0.544456
0.187439
-0.095180
-0.309354
-0.431108
-0.152962
-0.195417
0.495283
0.883470
0.662952
0.228272
0.303828
0.035114
0.264168
-0.432840
-0.501557
0.242088
0.594334
0.266877
-0.259469
0.151704
0.031674
0.760341
0.225730
0.183427
-0.665032
-1.723437
-1.002929
-0.939655
-1.370904
-0.148276
-0.055435
0.810043
2.463006
-0.184772
-0.880195
0.237121
0.122872
1.191651
1.087212
-0.048841
0.891833
0.056327
0.421826
0.984235
-0.063718
0.393820
-0.034298
-0.032578
0.041336
-0.185144
0.212066
0.816902
1.564952
0.360734
-0.349435
-1.476524
-1.539014
-0.765272
-0.779038
0.132507
-0.707835
-0.789355
0.811731
0.730762
-0.981003
-0.401455
-0.017566
0.745760
1.801538
-0.484687
0.292592
-0.193395
0.532153
1.472020
0.650980
-0.092034
0.842426
0.432651
-0.527155
-0.915329
-1.488905
-0.736047
-0.376703
-0.474633
0.329375
0.078880
0.395029
0.161235
-0.010249
0.200269
-0.294249
-0.807831
-1.000375
-1.331414
-1.343109
-0.285648
-0.247509
1.500828
1.790491
0.194816
1.230318
0.122140
0.557867
0.266937
-1.994912
-1.016716
0.120694
-0.352064
-0.128952
-0.819230
-1.174501
0.555815
-0.461497
-0.249514
-0.159877
-1.226980
-0.895829
-0.521264
-0.307870
-0.063225
-0.475925
-0.189638
-0.331266
-0.362682
-0.507756
-0.248596
-0.667205
-0.216466
-0.104693
1.274044
1.053736
-0.059543
-0.619222
-0.732069
-0.765205
-1.234804
-1.295637
-0.014314
0.224049
0.552073
1.865857
0.342591
-0.891885
-0.034130
0.622141
0.558362
0.220810
-0.817155
0.305140
0.330577
0.330899
0.593900
-0.474356
-0.391594
0.630540
-0.144341
-0.113985
0.233064
0.981603
1.538902
1.203940
-0.184567
-0.336154
-1.224094
-0.525472
-0.996933
-0.726612
-0.066292
-1.110740
-1.288746
0.576599
-0.937526
-1.030559
-0.005531
0.256341
1.379796
2.127994
-0.440135
0.177486
0.532232
0.582795
1.600397
0.288227
0.350234
0.544789
-0.254835
0.565022
0.197656
-1.371220
0.149054
0.001731
-0.032909
0.252591
-0.451570
0.474242
1.773641
1.288987
0.549361
-0.704125
-1.532095
-1.095995
-1.277364
-0.757139
-0.329656
0.094015
-0.378405
1.480315
0.525037
-0.772118
0.050846
0.262443
0.837215
1.871818
0.123533
0.109204
-0.158188
0.116782
1.420381
0.675724
-0.131190
0.611188
-0.052062
0.127800
-1.212015
-1.426175
-0.986904
-0.522500
0.364085
-0.407342
-0.172337
0.107121
0.607996
0.503476
-0.155954
0.447372
0.299031
0.176084
-0.579649
-0.795191
-0.012597
-0.085043
0.228816
0.540487
0.131649
-0.530928
-0.813121
-0.744486
0.505759
1.952998
-1.480150
-1.135273
0.875395
0.278681
-0.065118
-0.085258
-0.843799
-0.177956
0.565378
0.639675
0.081201
-0.505813
-1.040407
-0.455000
0.275434
0.212866
-0.341996
-0.041383
0.497318
-0.498777
-0.293803
0.185391
-0.164306
0.053879
-0.080823
-0.706491
-0.294324
-1.087136
-0.306989
0.928462
-0.566867
-1.524493
-0.636226
0.109572
0.245745
0.335298
-0.754239
-0.773959
1.506809
0.387199
0.059016
-0.849485
-1.348890
0.182605
0.202378
0.448505
-0.038961
-0.400950
-0.352879
-0.593225
0.358667
-0.001661
-0.372525
0.524471
-0.135431
-0.078517
0.199982
-0.006550
-0.388529
-0.580898
-0.381737
0.318009
-0.360018
0.206087
0.439061
0.629137
-0.809081
0.742866
0.487213
0.145438
-0.204798
-0.973425
-0.595280
1.203202
-0.544462
-0.199669
0.500964
-0.544130
1.414638
0.891493
-0.034073
-0.014239
-0.121017
0.622872
0.752707
0.806014
0.037869
-0.095905
-0.070303
0.181239
0.066974
0.456608
0.864387
0.264369
-0.343541
0.435650
-0.272010
-0.435945
-0.646919
-0.289850
0.332050
0.198526
-0.240258
-0.552635
-0.518361
-0.984424
0.237866
0.918968
-0.031443
-0.770067
1.047931
0.287918
-0.113592
-0.455665
-1.266210
-0.041899
1.091739
0.642360
-0.229039
-0.656725
-0.885276
-0.136213
-0.308673
0.103768
-0.168017
-0.187307
-0.235067
-0.342639
-0.205348
-0.034199
0.648183
0.287842
-0.895964
-0.116673
-0.997781
-0.245667
0.483980
1.145201
-0.656422
-1.015740
-0.041648
-0.053388
0.797397
0.814865
-1.555197
-0.489314
1.122641
0.190796
-0.065912
-0.798684
-0.693126
0.189820
0.215040
0.410353
-0.291416
-0.916579
-0.622055
-0.182694
0.666870
-0.046702
0.428021
0.606254
0.314516
0.060062
-0.273867
-0.537636
0.499608
0.169701
-0.899922
-0.133236
-0.481015
-0.759109
0.488443
0.970071
-0.803871
-1.296792
0.457137
0.281299
0.404767
0.730334
-1.606703
-0.696146
1.181544
0.356614
-0.288511
-0.640355
-0.624960
0.121387
0.582946
0.419384
-0.253947
-0.105244
-0.653046
0.117592
0.185976
-0.324381
0.187836
-0.354168
-0.421414
-0.503955
0.463516
-0.164351
-0.009361
0.080068
0.936774
0.558117
-0.731610
0.332529
0.286465
0.109437
-0.219355
-0.851095
0.517879
-0.023924
-0.237570
0.110388
-0.875885
-0.558328
-0.833134
-0.374811
0.268819
0.442513
1.117053
0.405623
-0.098240
0.644250
-0.202339
0.420372
1.107146
0.316288
-0.068013
-0.020882
0.016248
-0.295363
-0.224249
0.509626
0.144886
0.454422
-0.147770
0.104002
0.657619
-0.367484
-0.831120
0.205914
0.687257
-0.254287
-0.290958
-1.435035
-0.611034
-0.594184
0.155315
0.069443
0.256018
-0.608078
-0.521588
0.100704
0.436791
0.413209
0.790910
0.782900
-0.317890
1.049153
0.244905
0.382732
-0.193507
-0.009780
-0.844410
-0.543789
-0.552930
0.063500
-0.315823
-0.370435
-0.061094
-0.097390
0.238080
-0.523021
-0.356777
-0.453893
-0.769898
0.190826
-0.616812
-0.193790
-0.585601
0.925780
-0.709955
0.063859
-0.819399
-0.329602
0.974452
0.185198
-0.215640
0.329233
-0.888294
0.213893
-0.441312
-0.917927
-0.011060
-0.373229
-0.329115
-0.054755
-0.997766
-0.609428
0.015730
-0.023507
-0.422140
0.214776
0.183951
-0.560431
0.343314
-0.600492
-0.716626
-0.403747
0.289893
0.524781
-0.463051
0.438796
0.508788
-0.110277
-0.434088
-0.331913
0.251343
-0.276901
-0.215638
0.321329
-0.872432
-1.134406
-0.859971
-0.157263
-0.352174
-0.260892
0.954383
0.378986
-0.764913
0.608421
0.054949
-0.110182
0.602997
0.136121
-0.334879
-0.166723
-0.373275
-0.135240
0.119887
1.000080
0.191611
0.824600
-0.136192
0.526267
-0.005829
-0.460760
-0.188123
0.662221
-0.009647
0.427059
-0.551539
-0.884191
-0.900694
-0.381207
0.033101
-0.123574
-0.186120
-0.004218
-0.601397
0.849958
0.453662
0.035696
2.080801
0.414459
-0.328203
0.760972
-0.099073
0.082974
1.053324
0.117088
-0.741718
-0.616559
-0.134685
-0.027228
-0.335566
0.872103
0.282038
1.109764
0.416889
-0.114908
0.430874
-0.682777
-0.343523
-0.518154
0.975741
-0.548544
-0.937139
-0.945020
-0.987935
-0.916143
-0.166972
0.200825
0.220408
0.448897
-0.344589
0.268509
0.425849
-0.146798
1.686965
0.892243
-0.598225
0.219887
0.040727
-0.112214
0.136053
-0.565255
-1.096031
-0.860649
-0.314599
