1.176190
-0.558096
0.084697
-0.466531
-0.198752
-0.543003
-0.708747
-0.342560
-0.296775
-0.649423
-0.878668
-0.968518
-0.145004
-0.901167
-0.659849
-0.940308
-0.216342
-0.773996
-0.587288
-0.516462
-0.243653
0.212046
-0.089570
-0.545080
-0.450293
-0.210898
2.075836
-0.262697
-0.102533
-0.352734
-0.578459
0.226502
-0.611056
-1.051294
-0.693360
-0.884508
-0.713944
-0.660755
-0.320639
-0.994072
-0.241068
-1.174526
-1.031805
-0.358406
-1.036603
-0.751945
-0.264406
-0.266415
-0.498831
-0.889357
-0.854734
-0.543818
-1.196759
-0.007226
-0.315242
-0.390233
-0.493689
-0.437415
-0.877565
-0.770995
-0.032937
-0.684123
-0.745749
-0.279110
-0.463571
-0.331702
-0.091956
0.042369
-0.375958
0.045679
0.320808
-0.406029
0.230013
0.782745
0.660106
0.537422
0.361440
0.709223
-0.796361
1.712772
1.299847
0.666603
0.102125
-0.346522
0.878828
0.891704
0.300262
-0.531907
-0.322536
0.645684
-0.180430
-0.272654
-0.820152
-0.631274
0.486106
-0.313461
-0.014212
-0.378776
-1.001326
-0.638925
-0.668188
-0.065498
-1.018495
-0.371121
2.184807
0.375478
-0.034104
-0.058941
0.203658
0.552566
-0.760871
-0.476705
-0.425283
-0.279888
-0.217213
-1.284656
-0.585443
-0.818300
-1.039686
-1.058980
-1.272060
-0.833498
-0.668858
-1.154390
-0.444391
-0.782716
-0.759609
-0.601378
-1.140965
-0.409913
-1.282790
-0.751682
-0.586336
-0.464903
-1.139170
-0.668273
-0.105027
-0.439246
-0.178342
-0.772594
-0.695807
-0.185791
0.240972
0.203143
0.157715
-0.344766
0.996859
0.386698
0.537520
-0.195344
0.168707
1.189559
0.730403
0.240343
0.898263
0.093940
0.096532
-0.097993
0.446643
0.140792
0.470665
0.120772
0.372427
-0.001791
-0.146555
0.390294
0.474618
0.474409
-0.154427
0.303633
-0.296737
0.172207
0.481209
1.057336
0.472396
1.218302
0.373260
-0.372856
0.248009
0.325368
0.971771
0.811810
-0.852925
-1.680223
-1.864819
0.000113
0.369312
-0.795684
-0.399531
1.854498
-2.195456
-1.561273
-1.082195
-2.772659
2.709048
3.988671
-1.513871
-0.665764
-0.388325
-2.468436
-0.001329
0.174373
-0.627568
0.589693
0.375088
-0.644069
-1.201845
0.180580
0.331480
0.869488
0.227118
1.547445
0.928932
-1.173126
-0.496133
0.224938
0.719437
1.476620
-0.401267
-1.393925
-2.866596
-0.304588
-0.108264
-2.407671
-0.351165
3.427804
-2.302252
-2.163633
-0.325538
-3.595966
2.521451
5.723272
-1.698416
-1.372964
-0.114517
-3.849614
-1.216227
0.081118
-1.045556
0.509576
0.756855
-0.940563
-1.757213
-0.364288
0.768938
0.474906
0.531784
0.564854
-0.113482
0.892655
0.739358
-0.173166
0.737157
0.970375
-0.044072
-0.822623
0.032664
0.641552
0.109678
0.744653
-0.889152
-0.716928
-0.847423
0.073903
0.345544
-0.432207
0.195760
1.947546
0.238581
-0.906817
-0.140376
-1.114944
0.552734
1.098795
-0.470334
0.711608
0.026631
0.067543
-0.240102
-0.253490
0.584990
0.362858
0.289999
0.743728
0.044135
-0.732008
0.051255
0.114928
0.337914
-0.012796
-1.676788
-0.894489
-0.133599
0.155718
0.280755
-1.450564
2.496625
3.932353
-1.320711
1.583727
-0.451715
0.346676
5.474914
-0.846374
-2.137123
2.302146
-1.021851
-0.801999
0.631263
-2.181750
0.860314
0.350962
-0.137495
-0.465984
1.315329
1.899247
0.294454
0.079359
0.937407
0.996559
0.666500
-1.486173
0.013371
0.108602
0.402496
1.391631
-1.169211
-1.362113
-3.068990
-0.542453
0.195305
-2.928312
-0.660121
5.367251
-1.635436
-3.371916
-0.844206
-5.045464
1.773001
6.081203
-1.665915
-1.128065
-0.130972
-3.576717
-1.896962
-0.611285
-0.998234
0.892281
0.144840
0.604263
-1.211165
0.068708
0.388890
1.019150
0.517000
-0.160514
0.047388
0.593999
0.589018
0.663419
0.838441
0.372064
-0.493800
-0.028326
0.974219
0.991637
0.064338
-0.329689
-0.027686
-1.906909
-1.647916
1.240739
-0.233145
-0.903578
1.190475
0.507009
-0.452590
-0.587326
-0.031750
-0.929109
2.274658
1.857828
-0.440551
-0.013189
0.707929
-1.210600
-0.555743
-0.283167
-0.048399
0.786956
-1.722393
-1.379232
-0.250434
-0.008142
-0.208257
-1.343567
-1.365987
-0.982861
1.584517
2.938570
-0.918039
1.127720
0.510918
-0.423218
2.591667
0.349573
-1.093217
2.880784
0.110864
0.063172
3.272202
-0.710416
0.895003
2.600658
-0.311274
0.504073
1.293466
-1.548369
1.712977
2.276160
-0.585864
-0.965127
-0.002710
0.268119
0.304936
-0.255753
-1.228165
-1.506310
0.066284
0.416213
0.195720
-0.943051
-0.713799
-0.356415
2.551017
4.844020
0.035578
2.549109
1.330327
-0.678064
3.525029
2.313319
-2.414230
4.359327
0.356579
-0.861755
3.493690
-0.203673
0.628686
5.111611
-0.367434
0.084843
2.606213
-0.657601
2.958428
3.548731
-0.422335
-0.656114
0.649976
0.898241
-0.237470
0.272506
-0.923000
-0.761844
-1.085167
-1.005683
-1.072017
-1.041018
-1.488984
-0.886108
-1.090577
-0.621384
-1.266697
-1.191850
-0.514867
-0.690232
-0.158814
-0.017417
-2.253827
0.145512
-0.438632
-0.669224
0.080411
-0.752956
-1.153230
0.724293
-0.957023
-0.348363
0.014887
-2.262699
-0.208085
0.425435
-1.203998
-1.024173
-0.768593
-0.680240
-0.898681
-0.959914
-1.224972
-1.047645
-0.099407
-0.516453
-0.284512
-0.843653
-0.504200
-0.429060
1.116815
-0.543552
-0.578518
1.117982
-1.469784
-0.767101
2.137040
-3.979964
2.864692
-0.075542
-2.447473
-0.517149
1.486356
-5.476328
6.109896
-3.197987
-1.252179
0.055493
-0.462274
-1.681629
3.279646
-3.220234
-1.738815
-0.658666
-1.518515
-0.546742
-0.827174
-1.633199
-1.700819
-1.020737
0.138379
0.952398
-0.052786
-1.295536
-1.304635
-1.129399
2.723507
5.024547
-1.068379
3.161932
1.487095
-0.954890
2.827868
3.006787
-3.615661
5.034055
0.729552
-0.536914
2.994733
-0.985236
0.120719
5.625960
0.525144
-0.284180
2.263651
-0.552600
2.556797
3.581805
0.255061
-1.392654
-0.153224
0.522271
-0.605015
-0.695722
-0.570164
-1.495577
-1.348960
-1.338755
-0.951992
-1.373287
-1.336426
-1.058432
-0.484958
-1.981853
-1.035318
-1.652236
-2.385143
-0.414595
0.277167
-2.870672
-0.437997
-1.854803
-0.686152
-0.324745
0.325349
-2.073022
0.456018
-1.272073
-1.298221
-0.396763
-0.481952
-2.143754
-0.376153
-0.123324
-0.620504
-1.090289
-0.510102
-1.482900
-0.219941
-0.272241
-1.210292
-0.013921
-0.545528
-1.192606
-2.099344
-1.311169
0.618978
0.611285
0.146016
-0.564212
-1.046851
-0.206468
-0.391755
0.880675
1.207233
4.118532
4.092198
0.562195
-0.209871
1.002446
-0.108497
0.435693
-1.278612
-0.744425
0.577197
0.078602
-1.364004
-2.829360
-1.903349
-0.744279
-2.472391
-1.600415
0.010119
0.144065
2.785406
2.147698
-0.809200
0.022517
-0.296121
-2.391565
-3.150402
-1.949578
-0.070439
-0.037631
-0.531561
-0.125707
0.479234
-0.523843
-0.185430
0.645214
0.876504
5.393607
5.238071
0.902855
0.080950
1.516707
-0.631773
-1.547733
-2.847306
-1.027981
0.263072
-0.628195
-1.410272
-3.686112
-2.308079
-0.743721
-2.525814
-2.932774
-0.346093
0.356517
3.686054
2.792336
-0.405126
-0.436605
-0.078272
0.568450
0.305751
-0.198853
-0.055250
-0.287040
-0.191275
-0.527649
-1.463397
-0.412915
-0.074992
0.096883
0.110381
1.814624
2.509536
0.521533
-0.168737
0.033113
0.059987
2.095672
1.389748
-0.007363
0.686970
1.444161
-0.064846
-1.495673
-2.436134
-0.868370
0.145776
-0.179299
-0.618900
0.358447
1.266400
1.023799
0.260808
0.246209
0.064185
-1.309922
-1.704969
-0.697579
0.197579
-0.182505
-0.392663
0.179069
1.701618
1.204453
-0.021202
-0.045292
0.494959
2.006502
0.474843
-1.435679
1.830522
0.536296
0.297160
-1.880765
-4.166407
-1.540378
0.407699
-1.530968
-0.834823
-0.016749
1.793487
2.125321
-1.865879
0.849824
-0.393615
2.320096
2.458945
-1.328974
-0.011177
1.440739
-0.521591
-1.472118
-4.250947
-2.590033
0.582538
0.056819
-0.206939
0.076302
1.250941
-0.132967
-0.988886
1.107173
0.573762
5.518349
6.190692
0.445546
-0.075422
1.791791
-1.260835
-2.114180
-3.528770
-2.194805
0.609057
-1.039649
-1.954989
-3.971755
-2.243681
0.951455
-2.579900
-2.812742
0.181384
0.639252
3.872246
3.346091
0.035165
0.010797
0.371912
0.523109
0.684397
0.996191
0.744560
0.063864
0.179383
-0.247491
-0.815221
-0.166694
0.168089
-0.139445
0.629468
0.679099
1.132345
-0.328235
-0.348099
-0.304028
0.586042
2.361943
2.861262
1.817657
1.004485
0.890115
-0.769698
-1.934402
-2.440536
-1.550670
1.033625
0.825653
-0.706805
-0.238198
0.360080
0.182112
-0.268687
-0.508438
0.417070
-0.303225
-1.261205
-1.648103
-0.615993
0.759973
0.084244
-0.202625
-0.923925
-0.246740
-1.551548
-0.547900
0.791757
0.533188
2.902180
-0.453062
-2.879308
0.765516
1.385929
0.517026
2.597468
1.376469
-0.754282
-0.691671
1.104425
-1.624341
-0.263003
2.500895
0.031942
-1.374454
0.260309
-1.488088
-2.633259
-2.130599
-1.284318
-0.620551
-0.232981
-0.573896
-2.277849
-2.918241
-1.651993
0.639475
0.312826
-0.395450
-0.186985
-0.402467
-2.458013
-0.341428
1.556028
1.415000
3.985493
-0.786054
-3.234896
0.370366
1.641966
0.107183
3.252998
2.279839
-1.167754
-2.032537
1.572599
-2.630999
-0.879252
3.145569
-1.185012
-1.543403
0.956972
-1.604244
-4.415825
-2.863982
-1.875584
-0.575920
0.245078
-0.114603
0.880100
0.663225
0.538022
-0.096480
-0.258725
-0.279744
-0.580296
-1.162271
-0.912403
-0.138136
0.394005
0.193442
1.428945
2.909760
-0.728941
0.358310
0.147969
0.920347
0.568710
-0.339335
-0.195662
0.282386
0.649080
0.053273
2.000756
3.742160
0.717244
-0.326668
0.534634
-0.125831
-1.355511
-0.338335
-0.772294
-0.006177
0.488877
-0.354745
-0.733294
-1.376021
-0.705714
0.350775
0.259628
-0.315283
0.690265
2.063102
-1.528981
0.428624
0.282891
0.795153
1.373787
-5.024942
-1.134872
3.600997
-0.428633
0.072037
0.256168
1.574869
1.298363
0.562882
-0.940001
-0.954257
-0.044552
-2.084874
-4.209421
2.007513
0.568332
-1.080928
-0.353193
0.042223
0.898768
1.537283
0.119300
-0.053751
-1.981439
-3.142954
-1.718799
0.654886
0.447426
-0.025673
0.503882
1.934906
-2.185456
-1.414784
0.642081
1.435915
4.686185
-1.067037
-4.491790
0.971552
1.917709
0.004300
4.095354
5.482768
0.817115
-2.890535
1.070720
-2.809227
-1.936608
2.645992
-0.403329
-1.979944
0.573443
-0.759910
-3.082559
-3.214474
-1.127414
0.487573
0.677510
0.152372
0.880706
1.310529
1.639250
0.363495
-0.431911
0.186616
-1.029221
-2.520108
-1.015328
0.793502
-0.478406
0.399386
0.905128
2.162641
0.555214
0.221410
-0.505974
0.491885
0.690639
-1.410457
-1.460444
1.857224
0.838272
0.223225
3.644170
3.660382
0.813747
-0.761250
-0.211952
-0.682902
-0.742262
0.562497
-0.156279
-0.685683
0.065475
-0.930586
-0.757930
-0.032505
1.267113
2.276291
-1.036210
-1.025602
0.335893
0.131100
3.048649
3.985867
-1.822482
-1.272121
0.045069
-2.033732
-0.398579
-0.078037
-0.431252
0.979147
-1.603676
-3.753695
-3.149277
-2.094069
-0.910660
0.137553
0.344989
3.363335
1.382690
-0.432464
1.526449
0.922225
0.018159
1.923829
1.529990
-0.114563
-0.028347
-0.069778
-0.169625
-0.197832
1.974478
4.492931
-0.297606
-1.451594
-0.430061
0.425941
4.266573
5.906837
-1.226442
-1.115446
-0.310964
-3.486109
-0.826749
0.247111
-0.924677
0.457813
-0.467563
-4.890103
-4.174652
-3.115082
-1.101903
0.487995
0.531152
4.234332
3.155063
0.204322
3.022747
0.392562
-0.072121
2.654939
2.700032
0.380489
-0.230876
-0.113914
-0.084519
-0.192856
-0.800705
-1.102991
0.297324
-0.402287
-0.266511
-1.059021
-0.266375
0.594783
-0.799935
-0.493086
0.077891
0.323224
0.622675
0.486966
-0.934346
-0.222795
-0.973768
-2.318921
-1.386252
-0.966752
-0.616365
-0.191351
0.207765
0.080717
-0.468298
-0.704982
0.935512
0.287005
-0.172162
0.679950
-0.005334
-0.364164
-0.159539
-0.766437
-0.064057
-0.313541
0.772946
1.619973
-0.819981
-1.054222
0.337696
0.439536
3.326362
-0.407145
-0.883621
0.682009
-0.822630
-2.697897
0.528627
-3.212511
0.462232
-0.952147
-1.354480
-2.257084
0.697390
-2.712098
2.861686
-0.227653
0.066067
2.222525
1.171191
1.415148
-0.005616
-1.297106
0.049461
0.290336
-2.066020
-0.998855
-0.659786
0.173792
-0.127596
-0.630468
2.182874
4.753993
-0.938679
-1.163520
0.145768
-0.120826
2.593205
5.165908
-1.358748
-0.900225
-0.407497
-4.006258
-2.924331
-0.906946
-1.646248
0.381006
-0.784477
-3.488619
-4.313858
-3.477380
-0.902170
1.093505
0.444141
5.242270
4.033938
0.132019
2.102760
0.417422
-0.502891
1.067983
2.108787
0.874627
0.006314
-0.214904
-0.229129
-0.284613
0.117903
-1.656237
-0.669269
0.562401
-0.679817
-0.635071
1.341558
-1.506549
-1.556807
-1.083464
0.003631
-0.061145
2.815739
-0.131736
0.313117
-0.410060
-0.792521
-2.051348
-0.491498
-0.055669
-0.131663
-0.760944
0.276923
-1.029074
-2.045649
-1.770640
0.299366
-0.337353
-0.393359
0.855650
0.278538
-0.185257
-0.853758
-0.102006
-0.235120
-0.171681
0.003544
0.633650
1.037083
-1.040439
-1.093582
0.553672
-0.111801
-0.269545
0.726223
-1.176446
-3.980296
-0.194232
-1.952428
-2.644691
1.628079
4.656087
1.492884
0.495831
0.103364
0.913360
1.212752
1.874960
0.714611
-0.305615
-1.783259
1.168553
0.515091
-1.059341
-0.597447
-0.577455
-1.250172
-0.910903
-0.879046
-0.594304
-0.149936
-0.327250
0.101134
1.548394
1.979410
-1.403581
-2.224065
0.007930
-0.283391
-0.783156
0.138912
-1.299543
-5.491673
0.425016
-2.373935
-4.423120
1.271104
6.525919
1.899216
0.804056
1.727811
1.150019
1.121091
1.068824
1.587934
-0.889473
-2.896649
0.662142
0.493268
-0.880802
-0.621337
-0.159430
-0.930852
-1.279368
-1.505433
-1.025668
-0.169146
0.290367
-0.186434
0.073966
-0.519095
0.497685
0.462178
-0.228845
-0.404990
0.508987
1.721313
0.401261
-1.121812
-0.365852
-0.838472
-1.493465
1.563546
2.083807
0.483259
0.366388
-0.089403
-0.030386
0.244790
0.123922
0.636855
-0.102526
0.997341
2.569545
0.329653
-0.108235
-0.638726
0.001148
-0.494623
-0.381310
-0.475335
-0.149530
-0.636168
0.212692
0.558049
0.213138
0.425248
-0.778595
-0.706335
0.354880
-0.830644
-1.239774
0.570821
0.230720
1.177840
0.075823
-2.124114
-1.147423
2.454858
-0.771717
-0.483763
-0.029385
-0.766690
3.866915
-0.037434
-1.878070
-2.137048
-0.308421
-1.951727
-1.553708
-3.031939
-0.416204
-0.210224
-0.377219
-0.960861
0.163060
-0.077223
0.670634
-0.099720
-0.013625
-0.222663
0.964999
2.600754
-0.062900
-3.183169
-0.184348
-0.196791
-0.550308
1.616887
1.444034
-3.936906
0.552081
-2.467252
-5.357369
1.166777
7.610752
3.288785
0.486837
3.497864
3.622814
2.054077
0.117532
0.555551
-0.498268
-2.986357
0.085083
0.626527
-1.785807
-0.314954
-0.444100
-0.257272
-0.429382
-1.042436
-0.622776
0.006951
-0.058519
-0.228144
-0.568110
-1.005332
-0.756097
1.746852
-0.274395
-0.726836
0.163049
1.368916
-1.936399
-1.317056
-0.409232
-0.881597
1.394674
2.835333
1.771145
-1.300854
0.736986
-0.938669
-2.052209
0.427219
2.265805
0.402697
0.243495
2.788197
3.468254
0.850375
0.100531
0.246123
-0.285693
-0.361296
-0.570828
-0.319956
-0.750948
-0.343231
-0.062003
0.077857
0.122647
-0.082593
-3.255508
-1.936175
-0.081368
0.038088
1.190112
0.647695
1.660332
4.070522
1.542975
-0.293345
-0.097772
-1.074984
1.032398
1.717291
-0.140833
0.262334
-2.019621
-1.716130
-0.497962
-1.710553
-1.636220
1.139251
-1.296720
-3.633390
-1.428983
-1.692878
0.020964
0.528310
2.289559
1.701203
1.539796
1.368975
0.418937
0.195749
0.898313
0.345177
-3.446676
-1.442448
0.138450
0.088950
1.347315
0.260660
2.493966
6.001622
2.012441
0.112978
-0.649051
-2.591536
1.707291
1.175458
-0.988214
0.432061
-2.237863
-2.671772
-1.455623
-3.073056
-1.273027
2.060905
0.147683
-4.250287
-1.912536
-1.096493
-0.024218
0.496351
3.033490
2.965353
2.542651
1.925239
-0.029635
0.343402
-0.669745
-1.286647
-1.966391
-1.822084
-0.446096
-0.488213
0.499073
0.655659
0.058086
1.498237
0.209139
0.036524
0.430121
-0.431025
1.388113
1.955691
0.117410
-0.367364
-1.203695
-0.978413
0.302710
-1.092928
-1.209256
-0.234323
-1.008141
-2.184967
-1.366080
-1.288127
0.125882
0.089406
0.327926
1.137718
0.874930
0.330937
-0.152644
0.471587
0.087593
-0.271354
0.158695
2.581607
0.798730
-0.115597
0.573205
-0.318206
4.383450
2.022006
-0.643014
-0.047398
-0.271558
-0.191176
1.710214
-4.608779
-2.216979
0.685888
-1.852728
0.104947
-1.439819
-1.880567
1.578039
0.785367
-2.783984
0.285650
-0.787957
1.911035
0.424738
0.439248
0.375646
0.391001
0.694074
-0.399142
-0.852115
-0.271520
0.662031
0.002188
-3.145069
-1.995009
-0.163558
0.384396
2.057371
0.459779
2.713658
7.726729
2.237732
0.069188
-1.303022
-3.653638
0.604454
1.210298
-0.877822
0.443430
-2.135550
-4.865746
-1.834955
-3.608078
-1.850415
1.195836
1.294019
-4.339266
-1.983428
-1.545653
0.944868
-0.272505
2.113270
4.168923
3.560024
1.206390
0.082620
0.060248
-0.089564
-1.515551
-1.684062
-0.847623
-0.296460
0.505544
0.238599
-0.281859
-1.035965
-1.472644
-0.538342
0.436448
-0.677138
-0.015479
1.931931
2.290612
1.311178
0.063601
-1.661980
-0.104580
0.541976
-0.522169
-0.523635
0.942499
-2.260576
-1.970651
-0.338981
-1.695414
-0.318760
0.856507
1.112013
0.240269
-0.316235
-0.128594
0.463753
-1.296096
-0.799761
-0.036586
1.772111
1.900719
1.047709
-0.399144
-2.046265
-2.558588
-0.231286
0.100739
0.421206
0.393354
-1.731326
-0.840631
1.572166
-1.811093
-2.038684
-0.079763
0.005536
3.596863
4.361434
-1.057509
-0.129308
-0.103661
0.483830
2.926923
-0.310559
0.341815
2.315404
-0.014970
-0.049550
-0.802025
-0.449623
-0.168549
0.505289
-0.366195
-0.353102
-0.230302
2.672192
3.728121
1.963438
0.163847
-1.832280
-3.606106
-1.393391
-1.654890
-0.655269
0.293627
-1.985963
0.375892
2.793648
-1.355999
-3.053266
-0.777865
0.051044
3.561977
5.741099
-0.658729
-0.187247
0.183237
1.398546
3.284180
0.564586
0.968800
2.934218
0.875716
-0.656296
-1.432998
-1.425465
-0.648100
0.826855
-0.206370
-0.336159
-0.691158
-0.735020
-1.012235
-0.604673
-0.304890
-0.393237
0.212640
1.362870
1.707527
1.087069
0.172328
-1.023463
-1.634631
-0.715310
-2.342835
-1.022221
-0.465695
-0.165671
1.090868
2.224792
-0.233630
-0.810455
0.017069
-0.405496
0.796490
-0.214302
-0.977770
0.526433
-0.329880
-0.506444
-0.045946
-0.369926
-0.048290
0.149715
-0.744372
-0.649466
-0.610743
1.462935
2.059592
0.520532
-0.182416
-1.328181
-2.821476
-2.057489
-4.160492
-2.782597
-1.222283
-1.514088
1.114603
3.476868
-0.628640
1.175044
0.170089
0.198779
2.514840
-0.768368
-3.785454
1.555998
-0.669295
0.957342
0.974159
-1.481776
2.381677
0.231779
-1.603203
-0.251211
-1.885601
-1.380720
-1.176507
-2.310040
-0.662000
-0.184969
0.289827
2.771561
4.413740
2.881695
-0.004833
-1.718649
-4.205198
-2.583231
-2.608004
-1.747051
0.478125
-1.624198
1.791140
5.349355
-0.062469
-3.341132
-0.404761
0.567951
2.958611
5.003067
-0.989888
-0.203525
0.543451
0.982754
4.045693
0.778301
1.055935
3.172237
1.071634
-0.316748
-1.714578
-2.407692
-1.455822
0.124863
-0.565567
-0.243255
-0.579530
-0.448004
-1.706175
-1.814907
-1.263491
-0.641257
1.053070
2.070543
3.163613
2.452755
-0.337033
-0.626602
-1.420772
-3.137503
-4.000548
-1.628272
-0.320904
-0.473173
1.022351
1.208241
-0.588975
-0.985752
-0.668814
-0.464816
-0.102588
-1.328063
-0.891545
-1.317172
-0.071482
-0.431622
0.582698
-0.183035
0.244406
0.509477
0.051072
0.767059
1.149575
1.093935
-0.417405
-0.836094
0.007535
0.874192
0.619897
-0.841191
-1.961141
-0.902636
-1.544025
-0.764435
0.365433
-0.525626
-3.065832
-0.737476
-1.096975
-0.794999
1.727870
1.127187
-3.661031
-0.879939
2.632494
1.023835
1.843331
-2.716089
-1.824771
0.415646
0.530556
0.754487
1.246012
-0.663778
-2.175182
-3.299833
-1.668346
1.047553
0.989052
0.954532
-0.727367
-1.711581
-0.349418
0.243464
0.438794
-1.068911
-3.435440
-0.778418
-2.689850
-1.900303
1.170378
1.119875
-3.573615
-2.059964
-2.207650
-1.317303
1.711650
1.773248
-5.165006
-1.153353
3.302856
2.028476
2.341256
-2.920889
-2.784368
0.298775
-0.182950
1.005201
1.373811
-0.772326
-3.274925
-4.204487
-1.287000
0.378940
0.526120
0.897275
0.939874
1.977447
0.700297
0.633547
0.376126
0.107831
-1.180496
-0.510128
-0.187555
0.567713
0.752409
-0.534116
-0.673751
0.336564
-0.886509
0.281946
1.061512
1.410024
-1.227257
-0.983838
1.074968
1.011959
1.220450
-0.242599
-1.027979
1.236355
0.603825
0.419464
1.035554
-0.076019
-1.294141
-0.290441
0.064327
0.164972
0.560475
1.083090
-0.634461
-0.764130
-0.341073
0.226847
0.357203
-0.884814
0.395913
2.139873
-0.773867
0.294948
0.783481
0.483375
-1.820459
-1.897017
1.294833
3.209990
1.513586
-0.584139
-4.125108
4.741668
1.056669
0.464836
1.253508
-2.427031
3.833290
-0.677497
-0.569762
0.122921
0.826556
-1.008308
-0.410046
1.192946
2.202799
0.224452
0.598574
0.922875
-0.757421
-2.335617
-0.239845
1.002397
0.684881
-1.700429
-3.970644
0.723106
-2.508113
-2.935450
0.896214
1.185959
-3.823997
-2.804305
-1.643226
-0.026550
1.568840
1.592351
-5.490289
-2.052289
3.251272
2.404246
1.798326
-2.407825
-3.418411
0.222833
-0.868562
0.781264
0.395488
0.025950
-2.445260
-3.641273
-1.507623
0.665278
0.556377
0.681561
0.797419
2.791613
1.966653
1.006746
1.138213
0.432912
0.069901
-1.357300
-0.081561
2.378513
0.355511
-0.300515
0.321239
2.696803
-0.646980
0.009517
0.451050
0.757505
-0.523576
0.027442
0.959108
0.612150
1.147588
-1.591876
-0.389790
0.882476
2.807401
1.223254
1.124435
-0.661734
-0.305506
-0.435887
-0.136231
0.457865
-0.103604
-0.338110
0.878425
0.999581
1.516118
1.680010
0.257023
0.544828
1.192756
-3.229146
-3.861397
0.279183
1.385281
0.078303
-3.165848
-1.674897
-0.978008
-2.331679
0.369749
0.166217
-2.149343
-2.505930
-2.094152
0.204885
0.769240
0.625014
3.647341
2.156584
0.458999
1.374553
0.297872
0.727077
0.951855
0.163126
0.115843
-1.356045
-0.574272
0.238333
1.003991
1.580892
1.527620
2.811463
0.907290
1.540753
1.311886
-4.168015
-4.319512
0.026537
1.789480
0.102356
-3.829430
-2.082001
-2.179517
-3.223150
0.104327
0.106835
-1.747028
-2.629163
-2.596679
0.905279
1.259025
1.254802
4.196390
3.025092
1.284044
2.402112
0.992969
-0.351992
0.433299
0.210950
0.559587
-2.104947
-0.938705
-0.691339
-0.926734
-0.066281
1.131146
-0.297874
-0.484493
-0.438102
0.862852
0.263597
-1.293447
0.338046
0.296560
0.434140
-1.389879
-0.527568
1.107850
-0.989459
-0.103175
-0.835640
-1.175193
-0.541135
-1.059159
-0.788567
-0.034218
0.387247
0.825729
0.333094
-0.750732
0.263509
0.307175
-0.103124
0.490583
0.713123
0.380611
-0.553438
0.082591
-0.339415
0.741393
0.825376
0.111381
0.267117
0.095297
0.120130
-0.410744
-3.242047
-0.140252
-0.579895
-1.102012
-0.637958
-3.295843
1.530540
-3.818789
1.144195
-0.409072
-0.132250
-0.672951
0.126169
-0.643132
4.938424
-1.185180
0.970924
1.160046
0.608366
1.587782
-0.300356
-1.023880
-0.073856
-0.835556
-1.602420
-2.092630
-1.211876
0.178709
-0.280098
1.426971
1.601812
1.643040
2.731155
0.964650
1.127755
1.246574
-4.016056
-4.701892
-0.937012
2.080773
0.029060
-4.847152
-3.263103
-1.059970
-3.506503
0.057721
0.105060
-0.108420
-2.002706
-2.247024
1.399747
1.652671
0.945544
5.168713
3.669064
1.937096
2.412901
-0.001625
0.113227
0.071943
-1.128048
-0.439164
-2.243930
-1.195008
-0.704705
-0.723748
-0.699918
0.468943
-0.548174
-0.735276
0.041434
-0.236100
0.415024
1.368382
2.040266
-0.406881
0.358291
-0.499211
-0.105082
-0.170615
1.537704
-0.623221
-0.482113
-2.118760
-0.903448
-2.008899
-1.380861
-0.381593
0.544663
0.505416
-0.830879
-1.040564
0.136500
0.132538
0.284261
1.006732
1.245279
0.121111
1.042549
0.138335
