0.806596
-1.162251
-1.182063
-0.940925
-1.437333
-2.244038
-1.464946
-1.302538
-1.029010
-1.072809
-1.449510
-1.504859
-1.324475
-1.128920
-0.705628
-1.043502
-0.512571
-0.849932
-0.680351
-0.533708
0.165333
-0.405125
-0.599809
0.686015
1.225199
2.209962
-1.558905
1.576054
1.579526
1.042392
1.677096
2.223370
0.690454
1.035974
0.336909
0.901039
0.349573
-0.545651
-0.577792
0.065701
-0.418631
-0.895993
-2.729387
-1.361483
-1.899696
-1.284518
-2.801563
-1.645837
-1.725915
-1.359482
-1.505435
-1.479726
-0.129009
0.267840
-0.484725
-1.400397
-1.339851
-1.149337
0.322560
-1.098572
-1.011751
-0.719434
-0.467612
-0.670015
-0.908076
-1.236853
-0.970931
0.771370
-1.077917
-1.394447
-1.053369
-0.040545
1.419523
-1.624446
-2.008647
-0.627104
0.182311
1.877929
-2.484768
0.806470
1.317519
1.338693
0.952707
2.488646
0.094263
1.430844
1.532660
1.322256
1.579282
-0.319674
-0.032656
0.613351
0.662763
0.539077
-2.888210
-1.974675
-1.791604
-1.963089
-1.811519
-3.101563
-2.292600
-2.174612
-1.988663
-2.205145
0.737752
0.360281
-0.253182
-0.109333
-0.651679
-0.694197
-1.430442
-1.111138
-0.908227
-0.975063
-0.938399
-1.445258
-1.329905
-0.503584
-0.462269
-1.725613
-0.859487
-1.258285
-1.236338
-1.094711
-1.435324
-0.465384
0.038691
-0.860383
-0.903096
-1.415586
-4.398822
-2.185274
-0.356623
0.263053
0.154709
-0.686840
0.114116
1.286651
1.410811
1.538569
0.249284
1.086567
1.374341
1.591726
1.743281
1.896157
0.737230
1.104135
1.748032
1.851150
1.535993
-1.147103
0.623810
1.022230
0.350167
-0.888265
-0.436558
0.053367
0.046146
0.047150
0.185914
0.307041
0.064122
0.090041
0.133411
-0.455343
0.379290
-0.161388
0.470368
0.363638
-0.202565
-0.283385
-0.421724
0.708634
0.914328
2.220336
2.107846
1.472799
2.903634
0.950325
1.432614
2.721053
1.109405
-4.440228
-3.903652
1.541106
0.080532
0.284858
-0.826213
1.384834
-5.631373
-2.867263
-2.228338
-5.947617
0.802983
11.507448
-2.432549
-1.111249
1.634440
-5.875935
-3.315258
1.663062
0.873808
1.387002
1.073688
-0.519408
-3.381961
-0.321535
1.813776
1.289782
0.499306
1.347793
0.525934
-2.057121
-0.195245
1.639493
0.974950
0.564392
-2.494339
-5.135547
-8.364444
-1.687270
-1.178931
-5.264262
-2.414186
5.616027
-5.071856
-3.892032
-0.688245
-8.369696
0.282862
-1.368700
-2.691366
0.628469
0.538238
-3.918750
-4.327422
-0.350872
2.211731
0.914052
0.376241
1.358248
5.049653
2.532234
1.473020
0.053448
1.034042
1.849520
1.278088
-0.045324
1.477157
1.067445
0.971923
2.442034
2.251089
-2.139130
-3.575335
1.172516
0.334901
1.344827
-0.566302
4.028186
-1.128347
-1.635796
0.120798
-0.790452
1.350653
10.752106
-0.401855
0.230157
1.442820
-1.959605
-2.874550
1.319430
1.593772
1.292970
0.586510
0.005251
-2.560850
0.194680
1.070421
0.980064
0.764974
0.710481
-0.432887
-1.965938
-0.524296
1.040768
0.093080
-2.679737
-3.733610
-2.993772
-4.513601
-2.703868
-0.618149
-5.451234
-5.592774
5.289166
-1.601574
-4.430014
-0.803328
-7.745311
-5.979854
-6.380924
-2.295650
0.949491
-1.674387
-1.747517
-4.404286
-1.620984
-0.495389
0.050931
0.678412
1.576706
6.726980
3.123156
0.699326
0.098334
1.366285
2.680068
0.771309
0.033847
2.659455
1.572122
0.637451
2.832358
0.576845
-2.642154
-3.618949
0.921353
-0.553392
-2.166230
-0.008519
5.488766
-3.525208
-3.233090
-0.308068
-4.885357
1.940647
6.932929
-2.895811
-0.295827
1.830907
-2.110061
-3.167033
1.088178
1.478936
1.126347
0.409502
1.415581
-0.337050
0.994340
1.798956
0.429605
0.388572
-1.944682
-0.984251
0.592493
-1.431247
-0.811843
-0.587264
-1.439863
0.847931
7.860447
6.149332
-0.432301
1.767956
3.256775
2.359623
-9.263541
3.180746
5.860949
2.698797
8.012123
-5.218771
-10.315468
1.345746
2.652938
-0.228702
4.522948
3.547062
-0.381685
-1.924060
1.008495
-0.214928
-1.455314
1.897284
0.736425
0.246900
0.391983
-1.332116
-1.296166
0.544014
0.357022
0.218279
1.226202
-1.682384
0.547151
5.642341
3.643172
3.282256
4.936223
1.639480
0.008848
6.021041
2.614610
-4.858223
7.284026
2.330835
-0.578714
8.939488
-0.743748
-3.134879
9.392186
0.545466
0.743949
5.312962
-0.305951
4.171674
5.214113
0.239550
-2.361099
-1.915299
3.329028
-0.587886
-1.731148
-0.214402
-0.024347
1.145287
-2.343396
-1.314427
-2.193278
-1.570864
0.168728
1.883629
-4.635356
-7.108010
1.488182
0.924377
-0.357989
5.520638
-3.785282
-6.983913
2.661153
-1.837312
0.667248
4.011791
-7.135054
1.563882
3.069965
-0.693221
-1.034944
-1.692917
-0.240638
0.790136
-3.036576
-0.257442
-0.474403
0.968547
5.203402
2.987857
-0.071385
-1.462249
-0.714056
0.511723
0.509132
0.052948
0.345829
-1.970326
-0.138057
3.701203
4.458031
3.047236
5.556545
1.519011
-0.681758
2.465110
3.811463
-5.225521
5.468973
1.594968
-0.293772
5.201898
2.296737
-1.925427
7.005328
0.101135
0.326167
3.535091
0.757178
2.396508
2.337098
0.105727
-1.793933
-1.454447
2.343013
-1.173063
-1.421998
-0.064448
-0.479293
-0.452793
-2.444136
-2.285811
-1.891598
-1.059528
-0.376339
-1.017016
-8.471707
-11.609344
-2.665286
-0.250647
-0.968013
1.630402
-1.415195
-7.134366
-0.959633
-1.791635
-0.193854
-0.962338
-7.455318
-3.080355
0.965863
-0.945503
-0.874624
-6.165657
-1.951018
-3.229379
-2.573534
-0.542256
0.232213
2.047923
3.373631
5.056352
0.204568
-0.860302
-0.592691
1.871612
-2.345756
-0.247261
-0.080885
-1.225166
0.551326
5.496476
5.076788
1.185090
5.541355
1.846058
-0.249246
6.248156
-0.018822
-4.869588
5.727239
0.389843
0.232481
7.215531
-0.650221
-1.596259
7.290525
0.330211
0.046226
2.957757
1.071590
4.890837
2.604615
0.579291
-1.698577
-0.649190
4.262084
-0.748987
-1.548354
-0.504552
-0.874975
-3.160605
0.183715
-3.350027
0.404602
-0.738878
-1.913755
-6.924420
-4.540421
-4.354432
-4.379119
-4.079972
-1.211805
-7.221040
-2.607628
6.072299
-7.655765
-2.292106
-1.598316
-7.505341
-0.905391
-1.782393
-9.154345
-1.667626
-1.229105
-2.491075
-3.717274
-6.248240
-3.356338
-1.315288
0.086235
-0.402248
-8.131137
-0.727477
-1.207849
-0.663976
-0.326232
-0.659561
-2.474335
-2.995932
-1.443283
1.194510
0.489296
-0.137573
0.564001
-1.725690
-2.923977
-1.578203
1.438827
2.781058
7.703430
7.647679
-0.177382
-1.025399
2.906985
1.894680
1.757233
-1.836366
-0.995875
3.994168
0.194143
-4.492645
-5.288331
-4.508298
-2.571581
-3.005487
-7.105985
-0.769741
0.574864
6.331720
3.778033
-4.202851
-2.694252
-0.304918
-1.348994
-2.067029
-2.181209
-0.436110
0.314837
-0.256460
3.128415
5.419456
-0.796300
-6.162291
-1.067190
3.310752
12.299974
9.280694
-0.031592
-1.635134
1.906664
-2.098473
-0.674798
-6.555008
-3.450409
6.650788
1.447234
-2.364507
-5.400364
0.496857
3.397506
0.694040
-2.021461
0.268891
3.420354
3.276217
1.807521
1.782788
1.447591
-0.583907
-0.784341
-2.179491
-3.282480
-0.068548
0.468596
-0.513578
0.892351
-2.867283
-3.545010
-1.713550
0.912963
0.733311
2.214994
0.889119
0.746388
2.025439
2.667880
1.756492
1.412759
-1.289058
-1.218629
2.129052
-1.944899
-2.378660
-1.172856
-0.972075
-2.465710
-6.609394
-7.466206
-0.324042
0.234372
3.307870
1.331197
-2.857886
-1.625957
0.002421
0.015880
0.258807
-0.906488
-1.336475
-0.566712
-1.009770
4.359707
8.037474
5.324707
-3.117708
-1.778660
3.294281
13.205840
8.834158
0.224167
-4.450038
0.009915
-4.034477
-2.215899
-4.788122
-5.991884
3.952368
3.290259
-0.573905
-4.649321
1.770770
6.306778
5.731906
3.408548
-1.010290
2.320909
1.714404
1.152005
3.186899
2.099561
-0.401796
-0.441795
-2.604088
0.295364
1.972182
0.622317
1.019614
1.348555
1.021778
-1.175823
-2.426479
0.115711
1.827937
3.089137
6.144582
0.533439
-0.097918
1.382623
-1.968448
-2.947042
-5.475907
-2.613688
2.794460
-1.798853
-2.108069
-3.300661
-1.165856
-0.696050
-3.682199
-6.446052
1.100765
3.403364
5.577894
2.863036
-2.035543
-1.795116
-0.671081
0.283205
2.853443
3.295627
-0.320621
-0.560765
-1.341683
-4.771959
-2.005813
-0.932280
0.175267
-2.037677
-4.192220
-10.428444
-10.058423
-5.656628
-2.687564
-3.751272
1.316598
3.934587
9.484699
3.225650
-5.107805
0.898788
2.929965
4.868916
1.687579
-1.321025
-0.513499
4.457234
-1.558113
-5.336510
-5.722174
-3.007172
0.384107
0.371205
-0.255730
-0.643943
-0.775120
-0.396458
-1.464078
-0.751240
1.257042
-2.986403
-1.516109
-1.984299
-4.726507
1.261371
3.454243
-2.221091
8.197291
0.861109
-6.690283
-0.890954
1.375764
-1.208385
2.664383
-2.604568
-1.317451
-3.467773
0.274367
-5.147590
3.833937
4.396369
0.283797
-2.415903
3.870924
-4.569908
-4.987718
-2.946458
-0.840368
0.500361
1.782534
-1.698551
-0.927316
-2.367569
-0.651434
0.616952
1.072065
-1.645850
5.146777
8.332970
-8.346124
-6.912216
-1.237682
1.639275
9.732856
1.638244
-0.866600
6.198697
1.270148
-1.355862
3.145590
11.836084
3.832010
-4.293125
-1.415863
-1.708723
3.494982
6.488377
-0.132250
-0.509534
0.987971
-1.280543
-1.980096
0.896524
3.146559
0.244303
-1.034769
-0.922460
-1.413021
0.178075
-1.138351
-1.643909
1.210211
-2.003560
-2.739268
-2.278030
-3.125823
3.306275
2.861707
-1.520052
4.680153
0.950038
-4.184198
-0.977183
1.159283
-2.307793
-0.526612
-4.113598
-2.430604
-4.189146
0.520675
-4.958320
-1.028122
-1.484929
-1.106288
-0.540193
3.432878
-2.525412
-3.324425
-3.163900
0.066441
0.800220
1.523053
-0.272085
-1.475891
-0.374214
-0.839945
-0.550140
0.566749
0.073674
6.241150
14.357621
-6.968968
-10.828455
-4.169802
2.697237
5.112687
4.130388
0.526325
4.255915
-0.164948
-0.879729
3.772792
18.699966
9.200075
-1.238621
-1.405500
1.918470
4.083580
6.621952
1.972871
-2.627366
-1.983397
1.430719
-0.302026
3.335466
3.751557
-0.347345
-2.706939
-1.665556
0.328471
-2.160423
-1.999817
-0.559009
2.074596
-4.166845
0.620188
-0.044173
-3.766535
0.907222
2.064103
-0.879240
4.583444
-7.065631
-5.150269
0.793556
1.430969
-1.254668
4.912882
1.797576
0.407242
-3.544067
-0.484449
-5.504591
-1.259325
2.128170
-1.805807
-0.468565
3.505613
-4.023951
-4.450886
-3.221005
0.302398
0.294086
1.347252
0.461918
-1.438625
-0.191680
2.061184
0.173290
-1.660542
2.938332
-1.219439
-4.314011
4.918501
1.578596
-3.677814
-0.663113
-13.317132
1.246429
9.568493
0.594872
-2.686702
1.169228
-9.625962
-7.474652
-2.200069
3.710491
-0.305961
5.240556
-3.119624
-6.491310
1.028387
-0.541854
-3.946789
3.146524
4.096345
3.288413
-0.237372
1.081476
-0.490854
0.396135
0.517388
3.730611
6.721818
4.112766
0.293479
-0.758150
0.634094
-1.345242
-0.447865
6.210935
-4.851072
-3.673457
2.234725
-0.687542
-4.433584
0.566593
0.735122
4.968517
-2.298617
-4.527174
-2.751551
-3.086257
-5.087113
0.280446
0.397653
7.414567
2.895348
0.357069
7.143954
3.027230
1.945484
3.541174
1.504900
-2.338580
-2.710752
-0.229791
-0.103518
0.359161
-0.886426
-4.005206
-6.928589
-2.967781
0.726708
-0.286951
-3.341161
-7.394745
-5.784713
2.376014
0.702984
-5.985347
-7.640378
-10.265707
-3.734744
2.044724
-2.226361
0.667677
-2.077060
-3.950675
4.232660
1.884010
3.666161
8.401043
4.061102
5.180541
-0.815876
-0.565080
0.114666
-0.406055
4.348531
7.755621
4.496079
0.814962
0.247868
1.423970
2.684660
2.719048
-1.336378
-1.873959
0.004126
-0.315029
0.525926
12.869451
2.455371
-0.987526
1.989206
1.800994
-4.814848
5.561586
2.132712
3.218582
-0.501689
-2.515678
-3.222761
-3.156469
-3.923306
-0.637883
0.092843
5.736633
4.063986
0.730661
3.891413
1.770458
1.445880
1.852069
1.240736
-0.851822
-1.585171
0.221508
0.168884
-0.515730
-0.476845
-1.631022
-2.830731
-1.751262
1.326669
-0.523504
-7.933986
-14.602001
-8.199574
0.986745
-0.888929
-4.986684
-11.772018
-12.583288
-8.785983
-0.219326
0.274686
1.402359
3.555902
-1.813482
8.288577
2.459262
2.569870
3.417920
0.669033
5.649735
-1.433696
-0.768508
-0.931085
-1.198878
3.732832
9.483800
5.118030
0.525852
0.566137
1.248442
3.827419
-0.919932
-4.179871
-2.903903
0.484558
-0.093247
1.775086
1.723058
-6.782297
-1.576326
1.684708
-3.154476
-1.320276
0.068357
-0.372718
3.286285
-2.346619
-1.661241
-2.774144
-3.175999
-4.139533
-0.435910
1.452116
5.960173
5.354762
2.899945
6.350545
2.387921
1.662788
2.222857
2.761040
-0.222449
-1.566093
-0.216964
0.607557
-2.504710
-6.156671
-4.142768
0.603642
2.132368
0.718387
-0.299286
-8.375985
-13.995426
1.348069
3.654966
-0.864822
3.773478
4.999355
0.501231
-3.771937
-1.932054
3.611823
5.935575
5.012910
10.818053
3.257739
-0.920896
-2.183297
-8.769716
-7.967020
-6.878112
-6.795058
-1.394634
-0.278207
-0.991311
-4.349351
-3.416402
-0.751583
0.070364
-2.205056
-0.458806
0.226735
0.755307
1.938267
1.969988
-0.434758
1.446397
-1.383945
0.839751
4.221524
-0.121883
-5.004300
-0.973800
-3.565064
-6.043836
-0.988459
5.549675
3.049217
2.683235
2.283218
0.043338
1.387008
0.503873
2.901602
-1.823035
-1.499301
0.424042
2.105217
-0.035816
-2.415583
0.959004
-2.840985
-2.223475
1.245811
-0.215191
-2.182125
-0.065832
-0.568648
0.727876
3.826315
0.395628
-2.135800
-0.750859
-7.840657
-3.762224
12.812005
14.633677
0.633964
-0.566336
-2.144141
-2.925072
8.642477
6.071927
7.895946
0.556200
7.044381
11.002472
1.590110
-5.091305
-4.336223
1.128610
1.657444
5.134189
2.211060
-1.297950
-3.312685
-1.055547
0.677273
2.218080
1.320024
1.567030
0.230829
-1.047238
0.738800
-0.800875
-0.151470
0.926820
-0.300344
0.697710
0.356396
1.635568
0.208211
-2.914122
-5.987633
-0.561366
-2.213466
-5.055872
-6.321107
-3.481794
0.113018
0.171207
-2.884120
-2.437650
-1.724057
-1.062625
0.836530
-1.525375
-4.885158
-4.781425
0.833683
0.771561
-2.031333
0.964053
-1.255375
-2.294833
1.146672
0.639552
-1.105187
-1.004928
-0.856284
-0.666141
1.182992
-0.133577
-2.351593
-2.937670
-9.156886
-6.108944
12.125732
15.688375
7.068425
-1.547184
-0.655020
2.989248
13.255989
9.297950
10.799938
0.980838
10.774113
15.096959
2.470368
-2.295974
-4.409024
1.431567
6.126406
6.132736
1.781501
-4.272934
-2.897719
-3.234724
0.988894
3.535350
0.163431
0.826791
-0.032323
-0.524225
-0.496859
0.188068
2.606359
2.095930
-0.666237
0.970872
0.011566
1.185466
3.373929
1.609473
-5.378575
0.988218
2.163660
-4.989281
-1.342483
5.678296
4.873883
0.229620
2.631795
2.300612
2.796911
-0.214547
0.402781
-1.350521
-7.147652
-3.123799
0.997750
0.457130
-2.478692
0.832322
-0.738956
-1.304126
1.318462
0.496214
-1.427932
-1.609408
-1.866965
-1.270376
-4.928227
-6.113082
-0.781671
-3.209830
1.131734
0.004290
-8.787393
-8.116046
3.976532
-1.652305
-3.307069
5.744685
-2.645443
-8.901987
-8.211650
-5.380157
-10.113464
-8.674945
-10.460046
-1.346427
-3.164129
-2.896763
0.193899
-2.637793
-2.320750
-2.598481
1.832821
-2.763363
-4.426789
0.576958
-0.223505
-1.430368
-1.052321
0.097561
0.297585
-0.824828
-0.991157
-2.719988
-4.911408
-0.842126
0.610103
1.532150
6.387773
7.357796
9.333138
3.813824
-0.729820
-1.671747
-1.414410
2.848116
3.748376
-2.287883
0.332285
-4.500468
-3.741136
-3.518121
-4.016632
-2.859787
4.651690
-4.529417
-8.140977
-4.011774
-4.831938
1.623790
1.850110
4.832415
2.376566
2.628215
2.774354
1.384976
0.398067
-0.509819
0.547223
0.374717
1.232078
0.652487
-0.387038
-1.602890
-1.499701
6.502158
12.903874
2.762379
-1.265737
-4.989790
-5.370270
1.498946
-0.166971
-4.534752
1.844294
-8.520390
-7.607029
0.596073
-3.732249
-0.188651
1.979472
-1.419155
-6.270250
-3.876033
0.837449
1.268888
-0.383024
1.553789
4.979119
3.498548
1.030626
-0.279844
0.066621
-0.076205
1.565206
1.963194
-1.674290
-0.224825
0.271542
1.139407
6.647433
6.593657
6.048506
2.804499
-0.025339
0.497277
0.768364
1.391851
-0.764202
-2.659122
-0.384319
-0.323333
-2.091123
-2.431252
-2.032775
-0.684174
2.525976
-1.329578
-6.581132
-3.111413
-1.833899
1.848621
1.254520
2.596238
1.753217
1.981079
1.536860
0.712211
-0.242382
-0.473674
-0.767332
-0.399727
1.151234
0.206743
-0.438922
-4.179987
-6.136167
-0.595414
9.687984
2.569163
-1.588281
-6.399400
-6.944779
0.234459
3.014505
-3.241666
1.292525
-7.331039
-8.754733
0.804149
-2.070647
-1.693712
-0.298692
1.696416
0.217699
-1.209978
1.250419
-0.464452
-1.722137
-1.190633
3.101971
2.440839
-0.169563
-0.579563
-0.394727
-0.523468
0.990021
-2.094172
-3.137821
-0.271147
0.449916
1.878840
1.173187
5.044243
9.523934
4.457203
-1.296445
-2.509797
-3.339894
-0.046210
2.108501
-2.513290
2.193887
-3.267957
-3.656059
-2.240972
-3.621151
-1.666351
3.645172
-0.838225
-6.308030
-5.019591
-2.582921
2.126606
0.885629
3.605668
4.101484
4.096202
2.950784
0.741820
-0.592842
0.515039
-1.448869
0.457512
3.171527
-0.145135
-0.824442
-0.494678
-4.456888
-7.708217
-11.617770
-4.308431
0.829333
2.070645
4.199516
-1.578462
-0.013401
3.665353
-2.078235
2.628559
6.228571
0.834471
2.743333
0.196816
-3.971265
-0.228327
11.956094
8.525880
1.809372
-1.695041
-0.657052
-4.533752
-6.790677
-5.812804
-2.065718
-0.699104
-1.077682
-0.290581
-0.112606
2.824703
4.744446
2.649551
-0.099424
-1.856263
-5.622087
-1.379379
3.085381
-1.140770
-0.325259
-2.507747
2.801855
1.706174
-5.718775
-3.678756
-0.360151
0.240774
2.213095
10.405687
0.764615
-5.759975
-0.926180
1.931593
4.781031
-0.139639
2.410116
5.493073
3.914835
0.217348
0.245380
0.598098
-0.244721
3.664188
0.985710
-0.128763
-0.171870
2.755629
5.191661
2.652769
0.170723
-1.759695
-0.782558
0.215865
-5.362456
-4.446166
-1.398547
0.403872
4.807521
12.549876
0.967078
-0.227045
0.134440
0.842647
3.522455
-0.876294
-3.627637
2.219713
0.829960
0.951137
3.004014
-1.616198
2.861434
3.670497
-0.070216
-1.813103
-5.785230
-5.495835
-5.467239
-2.756704
-1.038665
-0.863525
-0.307975
0.553079
4.048071
2.736421
0.466930
-2.167485
-5.307287
-4.303393
-1.551575
-2.144315
-0.595832
-2.411740
1.629064
1.293898
-1.771867
-3.384388
-0.822677
0.490733
2.740421
8.658956
2.052386
-3.767456
-0.390216
1.235767
3.664525
1.498459
2.869612
4.220279
3.116019
0.002149
0.748790
0.654074
-1.196594
2.338826
1.311802
-0.278501
-0.413661
1.350812
2.895746
1.771851
0.176717
-1.570191
1.630534
1.941822
-4.884674
-4.251849
-1.474508
1.069429
5.362378
12.394641
7.106975
0.223603
0.351769
0.513648
3.143457
-8.703813
-7.275731
3.716440
0.563809
-0.414778
0.125210
-2.779146
0.137533
0.457474
-0.784831
-1.231813
-5.720889
-6.685820
-6.455155
-5.150724
-1.882922
-0.164451
-0.178228
2.776466
6.245981
3.251012
0.129594
-1.719471
-3.543207
-2.293756
-0.664765
-2.974846
-1.474479
-0.845936
0.598400
2.233033
-3.694989
-4.154001
-0.315856
0.362544
-1.506729
5.159278
-0.612354
-3.518860
-0.746035
1.607895
3.985370
1.767612
3.016154
6.586082
2.713698
-1.993534
-1.520963
-1.101974
-3.120065
1.488398
0.204695
-0.592798
-1.952832
-4.184241
-6.797554
-4.325965
-1.266145
1.386786
1.951430
2.313600
3.253625
2.071184
-0.823677
0.420235
-4.335209
-7.348209
4.576088
1.914891
-1.560237
-1.645932
-4.226207
-10.513543
1.699502
2.965807
-1.604772
-2.439796
-6.846351
-0.761214
-5.090970
-8.980956
-3.481469
0.443968
3.200084
-0.527005
2.453590
-2.948564
-1.233053
2.154593
1.537184
2.975668
0.575581
0.354553
2.015511
1.606618
2.483164
0.213430
-4.372699
-4.095473
-2.889684
-0.614708
-1.888368
-5.426727
-11.209513
-2.031791
-4.120290
-4.635692
2.089414
7.698804
-8.573342
-5.857080
4.174746
1.647086
1.847761
-6.326939
-8.327987
2.052363
0.111383
2.169090
2.659806
2.136681
-5.625086
-7.925619
-0.488723
2.555233
1.541905
2.793436
-1.402268
-3.947617
-0.840790
0.857775
-0.030913
-5.985482
-2.211852
5.025232
-1.640325
-2.771193
-0.372348
-0.391407
-11.496022
-6.978102
5.634838
2.743851
3.845691
-0.839070
-11.772843
1.665729
2.021239
1.637733
1.515859
-8.570645
-1.808129
-3.798764
-5.486502
0.508142
1.507661
1.576268
-1.602571
-2.173338
-2.043534
0.338912
1.681162
2.715788
1.141585
-1.107852
0.894389
1.040047
2.800034
0.289017
-1.101651
-1.411995
-1.289212
-0.172439
-0.392722
-5.261124
-10.241156
-2.351348
-0.380160
-2.712544
2.339830
6.384910
-4.478973
-4.205348
0.097610
1.180207
1.768903
0.019823
-4.057309
2.371123
1.511653
2.919267
1.823724
0.901641
-3.913728
-3.602209
-0.144853
1.511779
1.069083
0.999189
-0.540908
-1.491812
-0.432339
0.870150
-0.810325
-8.477501
-1.435165
6.003025
0.507810
-2.535777
1.727896
4.356243
-2.899786
-6.895659
7.403417
4.749587
2.630306
-4.590720
-5.943041
5.994587
5.160892
3.063009
0.118006
-9.709000
-1.470974
-4.004236
-6.723508
-0.359275
0.408157
-0.041247
2.745943
1.349989
-1.049348
0.079621
2.416170
2.682927
-0.818371
-2.547507
0.668402
0.818825
1.318651
0.323844
-1.851396
-0.398943
-2.867579
-1.661177
-1.710144
1.620480
-6.088256
-3.568676
-2.049808
-2.972631
1.880534
2.474794
-7.379393
-2.966917
5.116953
2.314612
2.273915
-1.549845
-3.027690
1.327129
-0.515171
2.616065
2.731108
4.732453
-1.498017
-4.742253
-0.712858
1.413792
0.917816
-0.531739
2.072900
3.769728
1.620920
0.682986
0.869901
4.205150
1.467646
-1.742752
0.117596
3.183154
3.539930
2.529159
13.216227
9.106505
3.901923
5.785447
-0.245609
-1.546294
16.496258
6.321584
-5.029833
0.801123
-0.075129
7.570951
1.535644
-5.564636
-0.631017
-0.563496
-0.221294
-3.060315
3.972209
10.025075
4.859354
1.029037
-0.562534
-0.123299
1.744720
3.034062
4.376245
4.927616
1.620735
2.653945
6.964842
-4.196968
-17.280510
1.200175
5.412102
-2.958881
-8.604291
-3.466768
0.120552
-6.654878
-1.076036
-2.288444
-4.375196
-6.772400
-3.058039
2.201683
4.342689
2.423861
3.916216
2.895618
-0.118099
4.689656
2.248596
0.676557
2.614016
1.668725
3.491797
-0.831727
-1.782564
0.419067
2.594381
1.936778
0.889305
4.971396
2.649955
0.639390
0.169364
-1.098856
3.558769
-1.246357
-0.396218
-3.722179
-10.004612
-0.906910
-3.412789
-7.794943
-2.222463
1.564540
-3.949834
5.160729
-0.352424
1.493666
1.225866
0.879361
6.592291
5.557737
3.837035
0.369591
-2.265087
-0.555940
-2.819265
-4.168779
-6.786820
-8.067724
-1.174606
0.222065
1.765494
2.484364
-0.451218
3.813281
2.552370
2.226264
5.712364
0.594931
-14.259079
-2.569000
2.940881
-1.745049
-4.402192
-1.315496
-1.195154
-4.320650
0.088613
-2.035337
-3.257859
-9.676063
-2.083669
4.230803
4.890175
1.204486
1.411365
1.397990
1.669930
4.413655
1.768282
0.517668
1.162519
2.478585
2.796335
-2.095430
-2.201841
-0.224863
1.768113
1.848013
0.245403
1.796945
1.308889
0.138011
-3.612158
4.339134
13.388593
0.744843
-2.079585
-3.862822
-8.985823
-0.531781
-4.955960
-6.453589
-2.820443
1.100591
-2.839084
12.131852
4.283909
-5.371975
-1.846868
-0.120177
5.659668
5.476530
0.903678
-2.607671
-2.431606
-0.882308
-2.878764
-6.315134
-10.932230
-6.200156
-0.499721
0.734089
2.898732
1.992354
2.248953
5.945208
2.475190
1.471846
3.660295
-7.947935
-9.043999
2.348200
4.586908
-3.137474
-5.007228
0.016049
-0.012174
-6.644671
-1.208547
1.322552
1.775214
-4.109657
-2.573209
3.669397
4.518784
2.440701
2.037083
-0.733859
1.133998
3.906354
0.641542
-0.022875
-1.236887
-1.224828
0.818995
-3.562126
-2.358053
-0.821313
-2.205579
-1.867658
-2.894897
-4.463582
-2.058209
-2.528914
-3.528672
11.320184
17.056908
-1.272822
-5.210615
4.756546
6.577285
2.981766
4.215244
7.654286
-0.898481
0.036735
-1.052610
-0.022477
2.043163
-5.899773
-4.343601
-1.887890
-6.149858
-2.892651
-2.310116
-3.101895
-0.815933
-0.030874
1.979430
1.603171
-1.556739
5.199526
1.333295
