-0.924823
0.283622
0.234241
0.382060
0.920608
0.905760
0.082391
0.217553
0.302098
0.227316
0.760392
-0.639257
0.155750
0.187715
-0.066632
-0.226623
-0.838912
-0.844154
-0.713713
-0.394466
-0.442000
-0.067172
-0.667525
-0.799701
-0.843423
-0.544687
1.211127
-0.783237
-0.196199
-0.452640
0.103629
-0.154983
-0.177401
-0.681332
-0.798546
-0.166231
-0.819819
-0.445232
-0.578696
-0.084193
-0.758708
-0.610960
-0.119762
-0.893281
-0.678456
-0.537823
-0.671838
-0.586785
-0.424745
-0.507996
-0.236498
-0.104078
-2.021939
-0.321073
0.562585
0.112227
-0.097127
-0.005783
0.260729
0.839172
0.809441
0.085817
0.129384
0.698665
0.612415
0.648917
0.319443
0.329704
0.226655
0.857208
0.449895
0.203053
-0.209009
0.244180
0.321045
0.203431
0.420274
0.189246
-0.319632
-0.549009
-0.671058
-0.358794
0.256646
-0.115425
-0.462146
-0.047310
0.075857
-0.050073
-0.282632
-0.564537
-0.204391
-0.508910
-0.088587
-0.401669
-0.779622
-0.545905
0.137875
-0.137829
-0.600465
-0.584742
-0.323053
-0.200009
0.017223
0.134631
-0.187719
-0.929342
-0.845288
-0.150389
0.080270
0.286531
-0.969694
-0.919375
-0.564347
-0.685654
0.015500
-0.188607
0.001197
-0.293832
-0.114142
-0.140690
0.061264
-0.530350
0.043476
0.091372
0.147986
0.211861
0.384123
0.073064
0.116598
0.708140
0.449917
0.771287
0.186964
-0.053515
-0.003482
-0.209546
0.250518
0.195012
-0.443133
-0.304179
-0.223660
-0.183924
-0.183519
-0.831538
-0.461751
-0.849698
0.143067
-0.474685
-0.230921
-0.584432
-0.339039
-0.170632
-0.310922
-0.568862
-0.846501
-0.951155
-0.320898
-0.470951
0.048455
0.074614
0.449376
-0.224896
-0.029333
-0.049135
0.217010
-0.406481
0.449312
-0.155951
0.382895
-0.244199
0.386701
0.087599
0.148402
0.372536
0.420155
-0.031712
0.091471
-0.705209
-0.508947
-0.060641
0.600508
-0.602086
-0.145345
0.537945
-0.533319
-1.062445
-0.267157
-1.212599
0.240371
2.124849
0.091854
-1.429799
-0.525958
-1.111448
-0.159100
-0.030105
0.444458
-0.394176
0.590742
-0.690090
-1.510056
-0.641758
0.062738
-0.005085
0.999266
1.485253
1.514701
0.839494
0.273432
-0.258318
0.628745
0.418049
0.056109
-0.292219
-0.397027
0.345450
0.907421
0.391086
-0.404728
-1.302460
-1.739211
-1.493646
-0.403123
-1.512799
-0.679485
2.612001
-1.636885
-1.724020
-1.555369
-2.964020
2.112403
4.031100
-1.029989
-1.733508
-1.250971
-2.843491
-0.665709
0.198193
-1.630127
0.243909
0.370940
-0.342651
-1.200925
-0.924469
0.124351
-0.001559
0.667090
0.196811
0.237084
0.746429
0.735087
-0.010188
0.513151
0.169608
0.111676
1.473413
1.487420
0.485800
0.583966
1.153029
0.965392
-1.334102
0.388522
1.442333
0.859698
2.437996
-0.346295
-2.723098
0.704979
1.446233
-0.121036
1.848469
1.232635
0.331665
0.595428
0.205164
0.312355
0.026215
0.402548
0.238706
0.462445
0.385450
0.219436
0.463195
0.281216
-0.025354
-0.417040
0.197603
0.518131
0.239960
-0.430647
-0.666596
-1.148884
-0.937993
0.214848
-0.158454
-0.954828
1.109228
0.269542
-1.714323
-0.271696
-1.323002
-0.023674
2.047201
0.746596
-1.130936
0.269203
-1.265067
-0.785890
-0.270493
-0.278265
-0.363462
0.585427
-0.413520
-0.130878
-0.410214
0.293897
0.160412
-0.156971
0.196584
0.625441
0.515720
0.899564
0.608246
0.698201
0.450083
0.598357
-1.180467
-0.640262
0.310822
0.267370
0.157172
-1.075760
0.234326
0.339293
-1.664929
0.087666
-0.861435
-0.329386
3.087909
1.306205
-1.653056
-0.124178
-1.482835
0.159789
1.971428
-0.708840
-0.612262
0.238172
-0.540754
-0.972680
-1.015447
-0.042763
0.275441
0.702722
0.578041
0.359070
-0.780977
-0.517927
0.491704
0.450243
-0.502362
-0.783097
-0.157927
-1.412924
-0.447554
-0.035370
-1.186980
0.940869
2.644911
-1.868452
0.242207
-1.273058
-1.183488
3.606505
1.939777
-1.753262
0.892532
-1.168941
-2.362789
-0.622029
-0.671691
-0.635114
0.969597
-0.014269
-0.689703
0.211429
0.158990
0.532110
0.004451
-1.063332
-0.749754
-0.281152
0.153207
-0.195736
-0.005538
-0.076741
-0.163464
0.955034
0.397628
-1.472440
0.616512
0.342922
-0.619578
-0.051835
-0.459701
-1.364802
0.012362
-0.012402
-0.473977
-0.897123
-1.094862
-1.206632
0.693193
0.258823
-0.466592
-1.174200
-0.513863
-0.717539
0.667936
-0.124646
-1.254716
-0.693960
0.156487
-0.901921
-0.106922
-0.082123
-0.724707
0.023577
0.763833
0.290957
-0.601266
-0.176137
0.106542
2.229371
3.525437
-0.645468
1.845188
0.316260
0.285409
2.625427
1.362626
-1.336084
2.921653
0.760168
0.027902
3.183057
-0.124290
0.520198
4.000035
0.853021
0.328888
1.570802
-1.462627
1.422050
2.534094
-0.199105
-0.621471
0.202587
0.054965
1.024359
0.588830
-0.674786
-0.525740
-0.932285
-0.612850
-0.832213
-0.426514
-0.237736
-0.556136
-1.590689
-3.089591
-0.324996
-1.056376
-1.128206
-0.610091
-1.791509
-2.689573
1.353726
-3.189003
-1.018466
-0.702622
-1.761529
-1.728467
-0.499176
-2.662493
-0.818055
-0.740640
-1.441868
0.459690
-1.125514
-1.920626
-0.865054
-0.947978
-0.308496
-0.663644
-0.555592
-0.899430
-0.016522
-0.365421
0.018006
-0.295627
-0.054090
-0.411299
-0.740624
-0.765358
0.953137
1.194118
0.053518
-0.026454
0.407457
-0.099669
0.876937
1.412594
-0.734654
1.601016
0.511393
-0.626610
0.561056
0.203369
-1.634292
2.067629
0.537520
-0.189005
0.110036
0.138471
0.326080
1.349749
-0.280000
0.078244
0.172685
0.189032
-0.324719
0.082596
-0.276384
-0.817284
-0.799692
-0.736932
-0.513904
-0.227263
-0.298371
-0.181114
-0.496049
0.703378
0.221981
-0.954351
-0.382797
-0.002848
-0.378184
2.159159
-2.187709
0.056296
0.884256
-0.215288
0.292985
1.431857
-1.756510
1.704146
0.055414
-0.322223
0.576711
-0.636552
-1.007863
1.805718
0.075337
-0.004165
0.279402
-0.110767
-0.142957
0.223438
-0.148075
-0.812907
-0.249549
0.896240
-0.534678
-0.326534
-0.742050
0.129333
2.051689
1.208632
-0.692315
1.869079
-0.102557
-0.225493
2.447620
-1.139084
0.398146
1.600101
-0.377671
-0.186192
2.057574
-2.204621
2.756145
0.679045
0.034278
0.671486
0.158964
-0.508555
2.791813
0.167229
-0.907579
-0.553384
-0.025610
-0.364429
-0.233533
-0.015207
-0.407306
-0.316544
-0.003751
-0.900732
-0.854903
-0.203440
0.133209
0.446555
-0.142045
1.444054
3.314928
1.295096
-0.492005
0.232751
0.638031
0.588268
1.141612
-0.157145
-0.316956
0.534422
-0.399486
-2.354183
-2.082230
-0.601698
-0.647139
-0.250625
0.440289
0.163663
1.455236
1.827378
0.681738
-0.371087
0.982861
0.348397
-0.174628
0.303450
0.448281
-0.119729
-0.498069
-1.266108
-1.903058
-1.894250
0.090428
-0.387082
-0.051126
-0.278528
0.334653
0.080659
-0.103718
0.367432
0.513977
3.135099
4.164968
0.262581
-0.415495
-0.031176
0.134412
-1.377042
-1.355136
-0.508082
0.208709
-0.982920
-1.127204
-2.591365
-1.492654
-0.227202
-1.261131
-1.777260
0.058124
0.685791
2.217008
1.656732
-0.853573
-0.438937
-0.125674
0.719579
0.981617
0.984322
0.265429
-0.344548
0.482470
-0.024318
0.085580
0.159822
0.323274
-0.417474
0.310012
-1.357759
-3.045777
-0.629412
-0.111704
-0.773936
0.461848
1.028233
1.751620
0.562549
-0.123272
0.401799
0.630075
1.496336
1.520094
-0.183023
0.732881
1.254665
0.360362
0.025953
-1.479231
-1.635419
-0.224011
0.651323
-0.235372
0.020028
-1.359473
-1.218542
-0.058972
0.051645
-0.110759
-0.108455
0.718155
0.463573
-0.660567
0.591138
0.551081
1.482494
2.400637
0.725652
0.420129
0.055484
-0.385271
-0.498150
-0.904559
-0.355348
0.258873
-0.279227
-0.576973
-1.214313
-1.278760
0.243318
-0.374746
-1.522321
0.422835
0.478725
0.316277
1.661342
-0.318355
-0.030178
0.131754
0.329747
-0.207392
-0.307150
0.000511
0.104061
-0.113070
-0.968918
-1.180081
-0.728879
-0.068479
-0.093174
0.077222
0.950359
2.839462
1.679361
-0.192676
0.316218
0.177338
0.451217
0.663507
0.107477
-0.012184
0.073010
0.144352
-2.075320
-2.668858
-0.611083
-0.616466
-1.144340
0.411751
-0.320853
0.912816
1.270794
-0.531155
-0.735412
0.148805
-1.094360
-1.513252
-1.175678
0.134662
0.028574
-0.152298
0.233707
1.370627
-0.105386
-0.463894
0.016124
0.047183
2.495821
1.467166
-0.250593
0.131492
0.385545
-0.685080
-1.772065
-1.969738
-0.277259
-0.784914
-0.517649
-0.941311
-1.088442
-0.014767
0.459482
-2.054707
-0.557703
-0.493436
0.302595
2.147244
0.478199
-0.640141
0.274000
-0.293349
0.235836
-0.211795
-1.186922
-0.983287
-0.735375
0.216262
0.234520
2.084430
3.136757
0.096412
-0.852464
0.253115
0.269237
0.492312
-0.830995
-1.480665
-0.196577
0.806315
0.083630
0.562945
3.879490
1.696557
-1.207597
0.166099
-0.415832
-1.873098
-1.352126
-0.271942
-0.445016
0.379252
1.108338
1.028945
1.127604
1.293825
0.340917
0.459947
-0.097396
-1.101797
-1.740105
-1.469843
-0.906444
0.389018
0.160971
-0.724589
0.028715
-1.447880
-0.572255
0.387857
0.079051
2.274465
-0.435255
-2.211631
-0.346336
1.434654
0.589242
2.371353
1.792935
-0.901459
-1.490789
1.078974
-2.150416
-0.701426
1.210261
-0.381037
-1.770649
-0.320635
-0.689125
-1.926385
-2.039441
-0.790025
-0.543087
-0.254052
-0.264317
0.065799
1.205880
0.476805
0.113195
-0.257305
-0.014802
0.221608
0.714486
1.053323
0.958897
0.024430
0.168187
-1.526963
-0.354296
3.213670
-0.104582
-0.393176
0.552998
-1.216666
-1.503502
-0.431577
0.897405
0.015483
0.637039
0.548776
-0.796418
0.331480
1.222192
0.420303
0.440842
1.285974
0.855106
0.229754
0.075903
-0.027607
0.051257
0.134603
-0.608835
-1.189632
-0.222800
-0.098659
0.418026
-0.372746
0.116819
-0.386704
-0.752607
-0.075407
0.086774
0.669467
0.378065
-0.888992
-0.473891
1.165416
0.176103
1.039114
1.814015
-0.238637
-1.240499
0.166227
-0.002347
-0.448592
0.730076
-0.369060
-1.640067
-0.089747
-0.249995
-1.043403
-1.215119
-0.773720
-0.009259
0.449451
0.179972
0.524589
0.080962
0.095400
0.076683
0.218311
-0.181110
-0.783718
-1.168786
-0.543589
-1.252090
-0.279298
0.438383
0.751709
0.919230
-0.498789
-0.345303
0.320827
-0.194473
1.018807
1.014270
-0.211735
-0.192625
1.141567
-0.257966
-0.002467
2.371681
1.749157
-1.523124
-0.219234
-0.064638
-1.122279
-0.917838
-0.585364
-0.929352
-0.344763
-0.418370
-1.125104
-1.671918
-0.567531
-0.376491
0.366423
-0.389428
-0.088264
0.044320
-1.388014
-0.246043
1.003469
0.543946
1.488123
-1.631170
-1.828267
0.983740
0.064496
-0.002929
1.879051
1.567809
-0.389145
-0.756208
0.187551
-2.011170
-0.599353
-0.107930
-2.374674
-0.224556
0.061802
-1.039033
-0.958261
-0.185825
0.425612
0.363683
-0.262915
-0.260410
0.157629
-0.216162
0.714683
1.828097
-0.131004
-0.412093
-0.248245
-0.378288
-1.038326
0.157802
-0.854247
-0.460290
-0.725304
-1.883322
-1.675227
-1.183615
-1.180454
-0.596657
0.407470
1.242589
-0.268619
-0.487745
-0.226052
0.430079
0.242733
2.046348
1.987173
0.053746
-0.731277
0.164178
-0.448075
-0.960708
-0.945382
-0.238185
0.227311
0.042943
0.174940
-0.226131
0.692594
2.889863
0.110065
-0.531424
-0.669112
-0.274510
1.710068
3.697705
-0.362694
-0.821930
-0.537130
-2.786515
-0.815520
1.002331
-1.032736
-0.515580
-0.496355
-2.631745
-1.827941
-1.378896
-1.355862
0.384009
0.474954
2.573680
2.280533
0.207318
1.028654
0.442674
0.645203
1.874263
2.404322
-0.169194
-0.459932
-0.451494
-0.584129
-0.085167
-0.368249
-1.719078
-0.969565
0.016613
0.147097
-0.020298
-1.297074
-3.114617
0.031249
0.596204
0.339779
0.938943
0.759670
-0.949050
0.912216
0.081462
-0.302694
2.147708
1.672660
0.791293
0.388357
-0.246717
-0.160671
-1.952896
-2.612388
-0.471272
-0.808546
-0.172674
0.261341
-0.525702
-1.599210
0.011994
-0.260716
-0.410982
0.326631
0.133628
0.362925
1.011137
0.633060
-0.655729
-0.430879
-0.408027
0.637161
2.440348
0.685901
-0.575873
0.015523
-0.432389
-0.911981
0.507793
-0.881596
0.038080
-0.144002
-0.962895
-1.097424
-0.223081
-0.914061
0.109997
0.278890
0.777333
0.886269
0.700602
0.574886
0.054140
0.277669
0.856726
0.765060
0.337243
-0.674378
-0.159783
0.175635
-0.322392
-0.129631
-0.260540
-0.232450
-0.178148
0.184511
-0.552773
-0.007832
1.997460
0.364584
-0.801097
0.359971
-0.572276
-0.690106
1.918193
-0.918814
0.018956
-0.275677
-1.843184
-1.643836
-0.208707
-1.600389
-0.020356
-0.389954
0.858763
0.198080
-0.675398
0.191292
0.443519
-0.088523
0.179403
1.920707
0.128937
-0.246705
-0.552606
0.020333
-0.211726
0.874224
2.584355
-0.443259
-0.475527
-0.289882
-0.384229
2.345875
1.737400
-1.398705
0.074605
-1.102600
-2.173851
-0.081994
-1.248370
-0.755683
-0.320131
-0.257492
-2.141716
-1.403499
-1.663803
0.096703
0.103060
1.073158
2.737448
2.250799
0.627225
0.174626
-0.331712
0.495707
1.371296
0.488120
-0.272435
0.048777
-0.344330
-0.180337
-0.340230
0.040707
0.467186
0.528718
-0.061759
-0.617895
0.343707
-0.488424
-0.715214
1.265147
2.386914
0.453767
0.184870
0.067416
-0.306875
1.068752
1.186682
0.792382
0.171796
2.089096
2.839576
0.932274
-1.043438
-0.030322
-0.066986
-0.482710
-0.882621
-0.477742
-0.381754
-0.180706
0.446140
1.387829
0.448381
0.912819
0.263306
0.329821
-0.218652
0.043108
-0.202406
1.041909
-0.191885
-0.760789
0.202664
-0.399615
-0.341013
0.234112
-0.720420
-2.066892
0.629419
-0.285404
-2.169013
0.104404
2.903592
0.805958
0.422645
0.016303
1.070773
0.224516
0.374708
0.258094
-0.520090
-1.799809
0.274084
-0.001355
-1.502345
0.283655
-0.034827
-0.632176
-0.316361
-0.354404
-0.778559
-0.606762
-0.206796
0.372329
-0.464651
-0.152808
-0.038610
0.189725
-0.327044
0.029936
-0.098517
0.041924
-0.057220
1.500929
-0.205813
-0.012745
2.237720
-0.408662
-2.719358
-0.886422
-0.142985
-0.361328
-0.942340
-1.071283
-0.048878
-0.052615
0.134151
0.657515
-0.814008
-0.339400
0.995787
-0.095456
-0.317296
-0.237919
-0.063025
0.180788
0.524963
0.198562
0.182280
-0.350150
-0.263901
0.704173
0.577816
-0.205821
0.226159
-0.093151
-0.294094
-0.072747
0.154909
-0.722791
0.372817
0.106405
-0.821427
-0.435681
1.502504
0.318073
-0.257581
0.144173
0.240269
0.139458
0.337492
-0.211748
-0.195471
-0.252984
-0.408007
0.450339
-0.824860
-0.616737
0.009897
-0.654849
-0.621824
-0.019978
-0.831261
-0.419786
0.100841
0.269942
0.124808
0.586198
0.160289
-0.279207
0.160764
-0.287472
-0.363623
-0.065391
-0.072817
-1.071122
0.050077
0.318977
-1.349290
-0.079676
1.593286
0.712337
0.480013
0.541300
-0.316736
-0.164399
0.764750
0.110236
-0.318097
0.140919
1.184935
1.182897
-0.247070
-0.450860
0.176719
-0.429467
-1.154188
-0.665882
-0.677955
-0.222176
-0.171718
-0.463662
0.319884
0.385157
-0.779609
-0.815943
-0.309214
-0.584307
-0.892081
0.410243
0.481108
-1.024246
-0.247511
-0.483237
-1.474355
1.569872
1.019708
-0.120062
0.359325
0.275431
1.508696
-0.128174
-0.329548
-0.549077
-0.718372
-1.522005
0.062944
-1.323828
-0.386183
0.453283
0.197704
0.158702
-0.372341
-0.288346
-0.124185
0.037120
0.193073
-0.100872
0.208963
-0.670775
-0.531097
-0.001981
0.031896
0.292971
-0.149620
-1.011206
0.881480
1.885389
0.847198
-0.097098
-0.979016
-1.538921
-0.846171
-0.795010
-0.365279
0.580917
-0.777702
-2.064251
-1.035389
-1.075065
0.034932
-0.601216
2.230295
1.449536
0.534335
0.190352
-0.037640
-0.741693
-1.086766
0.573269
0.772046
0.191418
0.064756
0.290184
0.200491
-0.928203
-3.287919
-1.570582
0.287914
-0.259760
1.344545
-0.204920
0.862425
3.959372
1.520046
0.253088
-0.456070
-1.525864
1.118999
1.483907
0.512214
0.431444
-1.615261
-2.488031
-0.993966
-2.660972
-0.439813
1.376168
-0.518205
-2.101297
-1.829749
-1.346513
-0.004060
0.555816
2.222097
2.134022
1.640984
0.719314
-0.117970
-0.145060
0.281460
-0.514958
1.657451
0.820278
-0.232457
-0.169959
-0.316268
-0.389153
-0.224771
-3.565000
-1.091450
0.151857
-0.002437
1.589426
-0.524067
-1.448303
0.311638
-0.172321
-0.128070
1.477825
0.344569
1.205148
-0.272392
0.020103
-1.334526
2.353736
0.671367
1.329543
-0.232669
-0.280989
-1.119458
-1.741222
-1.414107
-0.880210
0.196166
0.270880
0.085686
-0.090966
-1.286857
-1.050137
-0.383769
0.379559
0.329028
0.552742
0.273516
1.933756
1.640396
0.121805
0.384243
-0.943695
0.498117
0.818255
-0.034430
0.502387
-0.515277
-1.398701
-0.435870
-1.243931
-0.847693
0.001918
0.290954
-0.850306
-0.537442
-1.610642
0.272138
0.253952
1.241815
1.205182
0.552058
0.111364
-0.352331
-0.231416
-0.344009
-0.239474
-1.719350
-2.249961
0.007782
-0.453622
0.338501
0.912555
-0.845693
0.853660
0.382253
0.133607
0.367210
-0.421059
-0.289005
2.355207
1.222885
-0.010960
0.046007
-1.502028
-0.157764
-0.904984
-0.642488
-0.235865
0.593879
-2.962136
-1.037992
-1.786568
0.113525
0.256136
1.224588
1.227716
0.498299
0.435322
-0.084044
-0.164836
-0.219619
-1.030388
-1.955783
0.262376
0.240988
0.254566
0.414792
-0.885566
2.412300
3.173304
-0.276877
0.653582
-0.308961
-0.973229
0.928806
-0.946524
-0.338497
1.027232
-1.762813
-1.321754
-1.381266
-2.110396
0.574464
0.671921
-0.412625
-1.267454
-1.130053
0.257828
0.252442
0.668500
0.834981
1.450438
1.159778
0.113769
0.312083
-0.274977
-0.659162
-0.475836
0.930060
1.124453
0.971737
0.364393
-1.031799
-1.685851
-1.877461
-1.990187
-1.348106
0.284273
0.454209
2.647656
3.615177
1.724611
-0.648117
-0.379455
-0.051030
0.039725
-1.251011
-0.095783
0.824231
0.281735
0.013338
-0.493697
-0.901135
0.270895
0.526100
-0.233985
-1.017869
-2.242818
-2.554963
-1.804426
-0.287089
0.055652
-0.179903
0.386874
0.948678
2.723440
1.631554
0.685729
-0.871942
-2.117030
-1.680269
-1.356331
-0.297605
0.154547
-1.018960
-0.384487
1.121100
-0.601599
-1.954922
-0.561856
0.139407
2.855497
3.511795
-0.457749
-0.541975
0.527305
1.171698
3.083148
0.659978
-0.260186
1.751206
0.145001
0.250438
-0.246732
-2.105136
0.242887
0.782734
0.031298
0.146798
0.282164
-0.868035
-2.011740
-0.697757
-0.613904
-0.332439
0.961152
0.623346
0.315140
-0.304655
-1.099838
0.102812
0.138107
-1.366523
-0.149247
1.939568
0.174975
-0.050229
-1.409818
-2.958065
-0.474753
0.138310
-0.193592
-0.369556
-1.772550
-1.077118
0.173586
-1.715443
0.027745
-0.458196
-0.078310
1.439672
0.136691
-0.548981
0.260753
0.237114
0.089901
0.345491
0.904083
0.580895
0.259695
-0.759687
-1.105668
-0.966897
-0.251385
-0.803400
0.306774
-0.326700
-0.749744
0.041675
0.641693
-1.492236
-0.684823
0.164388
0.469511
2.099008
0.159487
-0.437080
0.072633
-0.212130
1.542369
1.227190
-0.616199
1.033057
0.220356
-0.670295
-0.402273
-1.197066
-0.538338
0.525878
-0.438749
0.213542
0.107546
-0.131478
-0.107198
-0.185245
-0.705781
-0.289961
-0.446276
0.205607
1.730200
1.223529
0.970009
-0.107618
-1.156038
-1.088606
-0.897619
-1.648947
-0.418418
-0.747651
-0.365865
1.964653
1.647849
-1.710755
0.230890
-0.379217
0.565415
1.057814
-1.040030
0.666598
0.716381
-0.299127
0.348918
0.343400
-0.494589
0.428992
-0.102410
-0.483781
-0.041277
1.537693
2.053901
0.640309
0.330636
-1.222599
-2.119568
-1.317255
-2.375016
-1.004412
-0.029623
-0.559775
0.313277
2.798476
-0.732635
-0.913685
0.194887
0.848286
2.691346
1.980282
-1.666781
1.565523
-0.143640
0.426101
1.917479
-0.085544
1.709392
1.110360
-0.713445
-0.379088
-0.822673
-1.734575
0.354841
-0.488271
-0.303413
0.444797
0.314844
0.085546
-0.483250
-0.348652
-0.122909
0.441907
-0.071997
-0.589111
-0.469628
0.669607
-0.632322
-1.013334
-0.051188
1.202378
-1.160557
-0.935456
0.939780
0.417710
0.258740
-0.796724
-1.132214
-0.166877
0.636744
0.447315
0.046261
-0.564814
-0.297529
-0.711316
-0.726310
0.039966
-0.071808
1.475161
0.585474
0.200701
-0.057447
-0.052508
0.229026
0.756060
-0.072397
-1.111125
-0.736255
0.416042
0.066085
-0.325200
-1.087446
-0.773248
-1.604201
-1.848597
0.637523
0.475866
-1.310627
-1.423035
-1.065716
-0.576162
0.998072
0.850391
-2.232344
-0.707572
2.254118
0.930085
1.008290
-2.049001
-1.716363
-0.111358
1.275514
0.906506
0.371472
-1.399148
-2.079692
-1.626029
-0.200156
0.370125
-0.354474
0.052359
0.405062
0.016605
0.573555
-0.119510
-0.325732
0.221336
1.264535
0.852147
1.738033
1.385032
-0.053247
-0.468133
1.823128
1.325060
0.706305
0.754734
-0.116320
-0.488942
2.304462
1.486633
-1.768649
-0.137164
-0.151576
0.237407
2.125102
0.353692
-0.466578
-0.323784
0.140718
0.367520
1.983088
1.153051
0.031655
0.248897
0.270388
0.103121
-0.002970
0.162654
0.266325
-0.271144
0.325163
-0.196754
-0.193628
-0.358147
-0.998272
-0.682954
-0.071806
0.394800
0.184456
-1.273559
-0.845742
-0.883607
0.619644
0.708641
-1.021470
-0.726130
0.942633
0.586742
0.671301
-0.549645
-0.804088
0.048601
0.526203
0.854602
-0.081737
-0.626609
-1.351879
-0.686951
0.425210
-0.116751
0.444328
0.286969
0.416823
0.768164
0.387340
0.369594
0.137726
0.262510
-1.022980
-1.277310
-0.858010
-0.572875
-0.149769
-0.122332
-0.355979
0.034032
-0.683578
-1.141243
0.391592
1.549878
0.160526
-1.736993
0.602819
0.140957
0.022118
0.558757
-1.909633
-0.184023
0.597161
0.226174
0.207377
-0.706066
-1.216062
-0.461461
-0.027942
0.719280
0.227671
-0.033130
-0.680989
-0.768056
-0.555153
0.260236
0.481633
-0.084810
-0.790574
-0.126028
-2.194152
-0.456473
0.897219
1.328516
-2.066781
-1.037520
-0.359062
0.507023
1.010055
-0.079183
-2.755242
1.173482
2.098950
0.068932
0.034937
-1.755360
-0.566720
0.519684
0.139800
-0.365479
0.433540
-0.472809
-1.552891
-0.720851
0.234150
-0.007392
-0.012230
-0.513352
0.770148
0.592506
0.648971
0.556974
-0.154412
-0.046946
-0.594577
-1.371999
-0.789488
-1.096991
0.699071
-0.037997
-0.924573
-0.888584
-0.908538
-1.097798
-0.131312
0.551359
2.139865
1.327970
0.118834
0.215225
0.540083
-0.384353
0.815903
1.314591
-0.178806
-0.002071
-0.362707
-1.127777
-1.657345
-2.214344
-1.409085
-0.751991
-0.470261
0.197107
-0.124493
0.983796
1.172673
1.277830
0.211102
-0.231688
1.022610
-2.074988
-1.912804
0.565766
1.436626
-0.163093
-2.702631
-1.106358
-1.302094
-1.178545
0.573199
0.557010
-0.625264
-0.976918
-1.259672
0.419951
1.047758
1.409178
3.743423
1.808284
-0.552977
1.418269
0.918574
-0.111839
0.389700
0.453167
-1.135284
-0.488109
-0.566480
-0.004934
-0.469671
-1.213222
-1.028380
-1.400189
-0.210687
-0.363470
-0.300274
-0.117505
1.021260
-0.012921
-0.579788
-0.120162
1.040203
0.774571
-0.563448
1.230195
-0.288915
-0.662881
-0.613845
0.632605
1.287051
-0.834685
-0.417545
-0.336175
-2.180565
-2.651423
-0.267738
-1.104626
-0.477277
-0.086972
-0.443306
0.074195
0.585306
-0.050076
-0.370912
-0.319149
0.193235
0.172619
0.598367
1.239348
0.815395
-0.233593
0.161668
-0.523935
-0.939422
0.158724
0.445271
-0.428680
-1.302897
-1.224169
-0.108729
-1.178228
0.595954
0.041051
-0.254584
-1.004074
-0.377975
-0.227948
0.341756
-0.204993
1.350194
1.405789
0.472294
0.202035
0.847487
0.392070
0.010980
0.337043
0.139573
-0.113303
-0.185707
0.259817
0.139207
0.439456
0.438279
-0.138796
0.171959
0.168578
0.558190
0.763320
-0.847551
0.714129
0.826481
0.388356
0.106161
-1.065896
0.161753
-1.084798
0.387548
-0.375952
-0.610106
-1.070511
-1.393443
-1.597909
0.850528
-0.601173
0.899005
0.827948
-0.425240
0.386586
0.982789
-0.553509
0.242531
1.499782
-0.391108
0.497222
-0.289952
-0.521640
0.771974
1.280581
0.577908
1.659239
-0.171446
0.363593
0.091376
-2.207204
-1.206675
-0.078492
0.291393
-0.441197
-2.233529
-0.519751
-1.928614
-0.122304
0.017028
0.116160
0.128385
-0.474619
-1.266894
1.890252
-0.365868
0.921248
2.473448
0.744826
0.366344
0.894845
-0.646677
0.231127
0.080491
-0.526500
-1.033756
-0.438701
0.179230
