-0.189524
0.562937
-0.465124
-0.451532
-0.119688
0.545510
-0.263938
0.315458
-0.239439
0.250940
-0.240525
0.056395
-0.282924
0.322412
0.492536
-0.200010
-0.036668
0.265088
-0.310795
0.239053
-0.130759
0.215556
0.191000
0.183022
-0.380072
-0.363211
-0.467886
-0.131237
-0.084440
-0.552550
-0.471315
0.328837
-0.230132
-0.215165
0.366102
-0.093900
-0.342900
-0.335649
-0.305412
-0.388248
0.067034
-0.203594
0.055706
-0.008439
-0.735358
0.207744
-0.236787
-0.099631
-0.159457
-0.224866
-0.224495
-0.328560
-0.283154
0.627580
0.394008
-0.132756
-0.315141
0.360906
0.197758
0.135043
0.490095
0.302036
-0.036467
0.380379
0.344169
-0.103804
0.119191
-0.262718
-0.086543
0.316604
0.030607
0.006019
-0.165085
-0.175447
-0.078830
0.035996
-0.123570
-0.003398
0.138082
0.245126
-0.612913
-0.551788
0.150639
-0.662872
-0.121823
0.312876
-0.070391
-0.225797
0.048830
-0.000678
0.696990
0.240700
0.479293
-0.011387
0.271240
0.406476
0.443425
-0.271738
0.375231
-0.354217
0.254032
-0.301009
0.013802
0.352334
0.004303
0.175591
-0.147131
0.420490
0.067536
-0.309906
0.015056
-0.054017
-0.121780
-0.068030
-0.191897
-0.185062
-0.306814
-0.533957
-0.001486
0.053608
-0.446402
0.179907
-0.167789
0.251268
-0.411067
0.745006
0.332847
0.303454
0.394518
0.030490
-0.682483
0.119826
0.072472
0.138200
0.380600
-0.215186
-0.059137
-0.238890
0.514318
0.439937
0.025806
0.171324
-0.091262
0.162906
0.470461
0.298637
0.765768
-0.151615
0.244475
0.138057
0.382155
0.485033
0.095627
0.012789
0.359766
0.159250
0.185116
-4.169696
-5.028407
-5.546045
-4.559423
-3.916883
-2.539134
-1.310277
0.263476
-2.105654
0.498588
0.014675
0.973511
3.848116
4.741167
4.528898
6.117879
-4.189703
0.541701
-0.532413
0.061197
-0.321465
-0.092718
1.027732
-0.052176
1.272291
-0.204690
-0.559452
-1.456194
-0.201887
0.705050
0.111533
-0.321880
-2.502201
-0.485312
0.047632
-0.465856
1.259366
-0.132454
-0.211501
1.061726
1.640691
0.534719
0.550987
1.271761
0.733631
1.525047
2.090889
0.734213
-1.487279
-0.458354
1.433241
1.142734
0.618243
0.411147
0.188649
0.706850
-0.571916
0.191054
0.721337
-0.138285
-2.633536
1.074597
0.708941
-3.279080
-1.883756
-1.245444
-1.655844
0.844278
-0.403932
0.732144
0.826682
-0.423064
-1.646125
-0.619574
-7.027335
3.181301
3.453893
0.562254
0.613151
-0.009754
-1.382210
0.622409
2.945433
0.553405
2.107373
4.012915
-3.893939
-3.975443
0.035197
0.741036
-1.471837
-1.263007
-0.604511
0.484255
0.896036
-0.144571
-0.133058
-0.074328
1.551527
0.264941
0.157495
-0.506510
0.774086
0.279280
-2.648984
-2.457008
-1.180451
-1.110365
-1.915094
-0.426726
-1.720557
0.222548
-3.111753
-0.445455
-3.364766
0.085823
1.602724
1.665292
-0.595801
0.548982
-1.826007
-2.929216
-0.693860
0.512940
0.523169
0.326632
-0.087555
0.638374
2.033111
0.708893
0.378278
0.285893
0.296139
-0.801496
-0.089159
-1.466086
-0.502798
-0.741595
-0.933779
-1.487512
-1.279044
-2.180204
-0.979409
-1.138688
-3.110459
-0.545087
-0.865696
-1.361613
-1.179843
-0.623170
-1.566840
-2.334281
0.438138
0.385299
1.296583
0.113258
-1.271161
-0.115490
1.749036
1.239922
-0.128661
0.000371
0.803943
-0.103872
-0.316021
-0.883514
0.011439
0.840976
0.309009
-1.660105
-1.397800
-1.864010
-1.050523
-0.184491
-1.767644
-1.254990
-1.255093
-1.990219
-2.122456
-0.490001
-1.775695
-0.258043
-0.936784
-0.139824
0.574911
-0.761944
-0.824796
1.249349
1.547156
-0.410205
2.187227
-0.285479
0.885713
0.885392
2.759648
1.018031
0.563181
0.794665
-0.714757
0.061077
1.039211
0.200989
1.610746
2.728029
0.486412
1.408039
1.218279
0.097759
-0.118720
2.212354
2.255739
-0.538970
-2.866713
-1.735033
-2.085250
-1.005043
-2.003083
0.018612
1.003324
-0.227768
-2.957111
0.219305
-4.266125
-0.731444
2.568802
0.739696
0.023818
0.157116
-0.834603
-1.946665
0.914704
1.587898
0.655724
0.565917
1.654017
-1.153082
-0.213668
0.893166
1.327237
1.036793
0.308987
0.428373
-0.916036
0.272185
0.636309
1.304488
1.787271
1.683083
-0.556018
-2.193970
-1.145275
1.411598
1.012185
0.209378
-1.393421
-1.176931
1.375710
0.632716
1.214883
0.643735
-1.679129
-1.256968
-0.335062
0.837208
1.098280
-0.569619
-0.261088
-0.878597
0.867771
0.810598
1.853708
0.951218
-0.341315
0.546793
1.001217
1.799407
1.298045
-1.278806
-5.730642
-0.052044
-1.547747
-0.113058
0.987906
-0.078774
0.970882
1.556803
-2.826803
-0.108224
1.133956
-1.857119
-3.719783
3.003124
-2.196895
-0.684284
0.874255
-1.142320
-0.593437
1.363185
-4.765229
-1.049244
1.112368
-0.516412
-2.207070
-0.797185
1.142015
-1.071369
1.856225
-0.798033
0.087330
-0.170183
0.457344
-0.251567
0.371448
-1.894004
-1.558397
-0.262278
-0.875568
-0.949364
1.427313
0.374546
0.364500
-0.322275
-0.150290
0.867403
1.102242
-0.516618
-0.183186
-3.196610
0.527029
0.468519
0.481703
1.361339
1.804435
-0.222775
-0.002267
0.320515
0.855783
0.995957
-0.648594
-0.357179
0.610942
1.164092
0.321010
-0.386640
1.066388
-0.783153
0.276776
0.515004
0.666914
-0.120207
-2.130455
-3.092379
-1.801870
-0.228454
0.158341
0.084579
-2.006476
-4.180949
-3.622132
-0.311271
0.125935
0.505120
-2.281072
-3.461230
1.099596
0.034449
1.871100
0.805382
-1.295827
-2.098795
0.801151
-0.256644
0.441373
1.318969
-0.524808
0.140888
0.740539
0.630991
0.228832
-0.046003
-0.966810
-2.785989
-0.503478
0.610230
1.039329
-1.502318
-2.150797
-4.221217
-3.790974
-0.714146
0.250441
0.819348
-0.676712
-5.122811
-1.593249
-0.427224
0.713852
1.875491
-2.608981
-2.167253
-0.587562
-0.286845
0.906811
0.234583
-1.613523
-2.655135
1.688235
-0.904287
1.390788
0.593288
0.241295
2.066312
0.188896
-0.069342
-0.019968
-0.362686
1.912161
0.959305
0.849123
0.498240
0.552215
-1.895510
0.481443
2.191688
0.333494
1.678075
0.203320
-0.119036
2.879365
-0.336341
0.311438
1.189618
-1.017423
0.253239
0.915506
0.941038
2.017244
1.380365
3.058201
1.287812
1.928417
-2.690882
0.550382
0.494600
1.839740
0.801321
0.482366
0.511153
1.260710
2.558160
-0.985162
-0.386490
-1.034891
0.171553
-0.612841
-2.734947
-0.597065
-0.753327
-0.082503
1.112581
-0.215380
-1.175505
-1.484365
0.359668
1.190584
0.805815
-1.286505
0.418129
-0.098082
2.557083
1.320508
0.782031
0.666335
0.768747
-0.379568
-0.801561
0.526283
1.873566
0.154175
-2.779018
-1.211350
-1.929575
-3.061638
-1.507447
-0.222287
-2.144700
-0.705798
-0.689341
-0.060352
0.147613
-1.478440
-2.198056
-1.053161
0.013229
1.624926
3.530436
0.116190
-2.098428
-1.133874
1.006723
1.229887
-2.332982
-2.903815
1.074390
0.874064
-1.208839
-1.684216
-1.467805
-3.889308
0.363444
1.366004
0.377735
-1.374191
1.441326
-0.598971
-0.733623
-1.883134
0.513721
0.907609
0.067054
-2.238294
1.594604
0.030473
-0.819289
0.189458
-0.948220
-1.111754
-1.341116
-0.194770
-0.056994
-1.936354
-0.271910
-0.419997
-1.908109
-2.133169
0.883970
0.518157
0.302857
-0.599616
-1.787973
-0.180088
1.717421
2.813345
1.366860
0.777347
1.266115
2.798965
0.711186
-0.380314
0.434377
-1.003839
1.551516
3.388145
-1.793816
-2.643049
-2.899596
-1.743577
0.278665
-0.806826
0.001350
-1.060009
1.075694
1.493347
0.905469
-0.400812
-0.519296
-0.420039
0.429692
0.843154
-0.422431
-1.389592
0.967223
2.816326
1.905740
0.224278
-2.429999
0.081285
0.053350
2.035766
-0.563045
-1.719678
-1.271972
1.424919
-1.869408
-3.030857
-2.282132
0.311061
2.335820
2.634326
0.194727
0.113929
0.412670
1.049927
1.460330
0.026259
-0.305324
-0.396435
0.433454
-0.368798
-0.123083
-0.944575
0.025014
1.835518
0.264544
0.123177
-0.438542
-1.892590
0.302427
3.668103
3.113043
-0.596522
-3.337265
-0.404959
-0.226254
0.003298
-0.392916
-1.321133
-0.094257
3.577973
-0.239684
-0.706598
-0.256057
0.405324
3.012790
2.556431
1.237873
0.089710
1.557542
0.825884
-0.391064
0.354386
-2.305704
-2.386038
-0.944030
-0.580623
-2.665942
-1.214391
-2.076956
-0.121215
-1.260110
-0.401312
-1.386802
-2.072136
0.232506
1.935826
1.123971
0.519705
-1.140774
0.521077
0.608014
2.443024
2.207250
-0.018680
1.206089
3.216825
0.898761
-0.068618
-0.441859
-0.162695
4.358597
0.315787
-1.820776
-1.517620
-0.201029
0.882332
-1.779931
-1.785905
-3.030981
-0.190384
-2.681260
-2.634251
-2.470461
-2.486843
-1.386713
1.063193
1.685920
1.348603
-0.125732
-0.349496
-1.217888
0.133648
1.773275
3.296756
3.099320
0.556781
-0.387934
-2.706989
-2.141243
-1.704147
0.247355
-0.836505
-1.359661
-0.398166
-1.373748
-0.258556
1.127594
2.820517
-0.586973
-0.154380
-0.093537
1.248512
3.532927
0.842983
-0.302397
-0.613554
-0.679679
-0.503185
-0.100100
-0.040016
-0.619510
1.187238
2.578225
-0.918218
-3.864598
-1.557432
-2.185039
-0.075569
-1.707315
-1.500052
0.641430
1.326405
2.481286
-1.675297
-5.242647
-3.266480
0.662582
-1.488727
-3.054280
2.603044
-1.732519
-1.653789
-0.582265
1.196534
0.902202
1.395270
-0.553842
-2.257745
-0.095159
-0.026349
-1.588602
-1.193157
-1.013761
-0.637537
0.441131
-0.809847
-0.986253
-0.492383
-0.838960
0.369150
-1.686293
-3.922017
-3.380155
1.157753
1.528211
3.236096
-0.417776
-1.433722
0.072802
1.655937
-1.109724
-0.359621
-3.103514
-0.485086
-0.948592
1.088778
0.986255
1.705230
0.167380
-1.157256
-3.773728
1.855556
2.126564
3.422662
3.916770
0.483307
-0.419508
0.407411
-1.213381
1.425363
0.565366
-0.718346
-0.046138
-0.166256
1.888858
2.816363
-0.406738
-1.661006
-1.787217
0.992725
2.064163
1.259053
-0.410666
-0.990942
-1.987909
2.766988
1.431484
2.567588
2.055505
1.339162
-2.533031
1.283839
2.464103
2.917272
1.390436
-2.566327
-3.224067
-0.230489
1.491059
2.092276
0.336144
-1.766154
-0.968679
0.350543
0.453340
0.547480
0.105754
-0.049205
-2.338498
-0.201090
1.313403
2.500482
-0.541284
-2.006985
-3.214055
1.157349
3.304799
1.549216
1.631322
1.092523
-0.020368
0.518845
0.777823
2.085381
2.063436
1.450806
-3.383900
0.687950
1.257936
0.484132
-0.011469
-1.641929
-2.021402
-0.624885
0.170603
1.759814
1.698189
1.387657
-0.422996
0.451250
-0.999527
0.887061
-0.072966
-0.357532
-1.059816
-0.298697
-3.193418
-2.600556
-1.285232
-3.933888
-2.597527
-1.408422
-0.756267
1.660933
-0.461078
1.273248
1.112788
0.230551
0.033303
-0.381686
-1.585810
-1.853079
-3.139126
0.575850
1.858477
0.912562
-0.465404
-1.274811
-0.943757
-1.083551
1.742002
1.148891
1.191272
-0.972383
-1.249459
-5.769406
0.935578
0.766656
1.816088
-0.161741
1.577030
1.027917
0.151074
-1.448330
-0.629392
-0.606637
2.576552
1.531622
0.365142
-0.128474
-1.116343
-0.430426
1.417847
1.862215
0.276734
1.762784
-0.834053
-1.833795
-0.992910
0.721821
1.524054
1.542952
-1.199925
-1.876707
-0.898010
0.692937
0.672225
-0.087988
-0.103084
-0.479944
0.931428
0.735022
1.712236
0.137676
0.334574
-1.918779
-0.402438
0.958282
0.376802
-3.740692
-4.800081
-6.438864
-1.073784
1.167067
-0.873966
-1.625741
-2.077696
-6.503289
-1.689751
-2.060035
2.367168
1.880568
3.566089
0.692043
0.071645
-1.474522
-0.457854
0.371715
0.918580
2.741990
1.266135
-1.027585
0.220504
-2.538045
-0.845794
1.827524
0.997658
0.923787
1.433838
-1.703284
-0.753601
0.596698
1.332420
0.527340
0.147756
-0.267211
-0.846675
0.311839
1.468871
0.393456
-0.296736
-1.057921
0.228154
0.664829
0.667093
-0.418244
0.253554
-0.003637
-1.384797
2.056118
0.411826
0.916896
0.977954
-0.177122
-0.215758
-1.814163
-1.677292
-0.469999
1.226974
0.396905
-1.728410
-1.829483
0.002615
1.785144
1.070603
0.975486
-3.170596
-0.114230
-1.259714
0.362024
1.036581
-0.244232
-3.713404
-3.707893
-3.187028
0.360212
0.158140
-3.541945
-2.204095
-1.887826
-1.977768
0.511276
-1.122771
-0.714677
1.771839
0.925547
1.584564
1.257369
1.147906
1.338748
-0.036731
0.357807
1.555916
-0.690390
0.711531
0.612622
-3.567548
-3.397744
0.164987
-0.266273
0.776359
0.035572
-2.872560
-6.722740
-3.511698
0.097488
0.252603
-0.850133
-3.411508
-5.201859
-4.612163
-0.869652
0.656005
-1.616625
-0.751315
-0.418538
-0.769338
0.860373
0.235732
1.449897
1.456066
0.847204
3.408100
0.117604
0.679537
1.444917
-0.358058
-0.779248
-0.074114
-1.146088
0.864370
-1.579926
-1.184769
-1.031485
0.135401
0.782333
0.868737
3.620484
1.442621
2.583797
3.654954
1.764819
-0.996108
2.373331
0.648311
0.986158
1.764112
1.295089
1.673934
1.120716
-0.795651
0.325654
-1.588851
1.755554
0.200653
-1.535996
-1.479409
1.532371
-0.510426
0.643770
-0.108426
0.958928
-1.016764
-2.579493
-0.238464
1.281473
1.535918
-0.983026
-1.497881
-1.036777
0.338313
1.758769
-1.523548
-0.068480
-0.017653
0.987822
1.817077
1.429284
0.449893
-1.465246
-2.325953
-1.600626
-1.652570
-0.427063
0.567401
0.320867
-1.896120
-2.112468
-5.349842
-4.012881
-0.471472
-0.304302
-0.294931
-1.822590
-0.861348
-1.580580
-0.300430
1.118173
1.106533
-0.095628
0.196307
-0.418766
-0.455114
-1.678338
-2.187871
0.574291
2.445941
0.670508
0.023730
0.121375
-0.336951
-0.039536
0.227727
-0.728858
-0.317128
-1.064372
-4.084943
0.033225
2.944070
3.248278
2.307154
-1.220634
-0.592543
1.072520
-0.175860
-2.737971
-1.409341
1.301617
1.031778
2.042795
-3.375621
-6.594916
-6.504232
-0.402745
-0.771954
0.395995
-2.095778
-1.430496
-0.963973
-3.221787
-2.759747
-0.284843
-1.754342
-0.910259
1.972074
-0.413079
-1.023524
-1.245485
-0.917439
-1.816989
-0.724137
-2.333344
-2.795771
-1.901446
1.375801
3.012275
2.534210
-1.285636
-3.574850
-1.132835
0.471876
2.480068
4.576623
0.331352
0.401299
-2.240829
-0.462271
0.869752
0.910635
0.227360
1.793344
1.682124
0.813611
1.181069
0.189900
-0.805727
-0.534073
0.857655
1.387717
1.807995
-0.049609
-0.234102
-0.000267
-0.626181
-0.268516
0.422818
0.481290
-0.411179
-2.075248
-1.375608
2.070915
2.218841
3.278291
-1.458815
-1.485611
-0.966593
2.098645
4.008556
5.812599
0.092416
3.738781
1.117700
1.259938
-0.228426
1.126526
1.038464
3.042130
1.607976
-0.300414
-0.303192
-1.214583
-0.401445
1.405386
0.025292
0.080324
-0.962508
0.576962
-0.644206
-1.248058
0.256206
0.413163
1.213515
1.549079
-0.021868
-3.518866
-1.967666
1.394047
2.964305
2.911818
-0.883948
0.457163
1.111889
1.493544
-0.049123
1.809121
0.654054
3.675505
1.709069
0.050611
-2.503670
-1.329113
0.476356
1.266780
0.822689
-0.251507
-1.617036
-1.737933
-0.535287
-0.479479
0.857079
0.961093
-0.028683
1.149405
-1.082209
0.511367
-0.386215
-0.781118
-1.449835
-0.400704
-2.022093
-2.052089
0.874598
1.160464
0.882962
1.645954
-1.661414
-1.933399
-0.234849
0.597273
0.016175
2.537966
1.408053
-0.086102
0.227511
-0.259638
-1.657215
1.052249
-0.721625
1.071257
1.261803
1.245934
0.469664
0.063933
-0.045637
-0.976294
-0.271557
0.790904
1.449187
0.095129
-4.877385
0.445994
1.916152
0.321474
1.941610
2.083699
0.546061
-0.027580
0.265720
1.126764
1.830675
1.207116
0.567037
0.341446
-0.861917
1.477450
1.628580
-1.149587
0.017459
-0.347804
0.372855
-1.126991
1.078339
0.037353
0.807736
-0.311770
1.473745
0.475096
0.108079
2.046638
1.194695
-0.041083
-0.060368
-0.055417
1.272097
-0.284071
0.858036
0.818305
-0.361923
-0.803854
1.207623
1.563253
0.549193
-0.092051
-1.482595
-0.935192
0.524759
2.322663
0.900689
-0.829117
-1.289672
-1.930399
-2.930302
-3.624831
-3.593325
-0.740473
-2.520532
-1.705838
-1.672334
-2.828138
0.433768
-0.339033
2.526403
3.128698
-0.375534
0.288131
-0.691068
-0.771880
-0.314492
1.853455
1.653241
0.610204
0.330746
0.662163
0.982618
-0.173174
-0.431893
-0.820426
-0.571818
-0.480541
1.019357
0.247315
0.289242
-0.300809
0.360194
-0.990090
0.348761
3.041840
1.345191
2.657493
2.086015
-1.163201
-1.832923
-0.572326
0.764966
0.941913
0.172998
0.018258
-3.882490
-1.960533
-0.361306
-0.301333
-0.640336
-0.106849
-0.897836
-3.638908
-2.225708
-0.632367
0.372326
0.343899
-0.573766
-1.697611
-0.986405
0.016889
-0.231428
-0.106254
-1.203512
-4.056845
-1.771373
1.364720
1.094317
0.016056
-2.800358
-2.690629
1.764188
2.833146
-0.625924
-1.068163
-4.868255
-3.222867
2.378829
0.531514
-1.161002
0.455925
-5.226451
-1.857397
0.516992
-0.420548
0.988596
0.213833
-0.596704
0.412259
2.035706
0.663315
0.755925
0.381367
-0.716597
-1.900512
-0.964181
0.183707
0.086954
0.048887
-1.803623
-2.404380
-0.355687
1.654266
1.116142
-0.773945
-2.627049
-2.886242
1.337800
1.821514
-1.925148
-1.108586
-2.061786
-1.807267
0.276754
-1.082287
-0.789408
0.201208
-2.333460
-1.360102
1.281477
0.325173
1.526274
0.406211
-0.329484
0.705250
0.714792
0.531964
0.277704
0.693346
0.722821
0.090836
-2.217959
-1.864087
-1.221732
1.036125
1.452411
1.816163
1.521795
1.763753
0.240487
-0.420893
-0.031468
-0.011522
1.650013
1.709934
0.953392
-1.320141
-2.528261
1.166415
-1.924695
0.657786
-1.291526
-1.228698
-3.480247
-1.472332
0.555865
-0.834596
0.354797
0.596415
1.375644
0.990352
-0.399185
-0.246155
0.499424
-3.241076
0.342994
-0.326181
0.320995
-0.076376
0.281455
0.082750
-1.105849
-1.600974
-1.546334
-0.983576
0.657011
-0.001371
-0.729370
1.734125
-2.938409
0.037749
-0.576786
0.521962
1.489130
3.677899
0.581862
-1.101649
-0.188495
-0.917040
-0.191098
2.065285
0.402392
-1.784763
-0.584204
0.665263
3.043905
-0.481623
-1.658362
-2.534762
-0.922551
0.623615
0.051128
-0.680508
-0.194116
0.422653
0.967838
0.550383
0.035348
1.232339
2.746498
-0.261492
0.198568
-1.648987
2.166558
-0.108258
3.141853
2.482894
1.477871
-0.101962
0.201233
-0.341685
-2.134768
-2.165024
1.334242
-0.717615
-1.313818
-2.477700
-4.534780
0.165021
2.451472
0.014143
0.921428
-3.976710
-2.073760
-0.766081
-1.765673
-2.552577
0.185605
-0.814992
-1.061102
-0.899889
-1.796770
-0.585097
-0.393121
0.605728
1.334776
0.778958
0.183445
-0.311258
0.393439
0.905854
1.678637
-1.091436
1.637927
0.059675
1.352540
3.777645
1.498545
0.394621
0.013462
-1.065832
-0.275305
-0.067461
0.364279
1.693702
-0.645062
-1.346883
2.954267
1.412726
-1.065264
-1.589262
-2.860851
0.055623
0.516415
0.480608
-0.250303
0.222141
-1.701849
0.106602
1.240129
2.045152
2.056621
1.218279
0.937043
-1.103370
-0.108547
0.837499
2.034580
-0.034699
-0.122772
-0.996985
1.784400
1.525830
-1.504913
-0.200106
0.181098
-0.744740
0.656760
-1.219987
-2.588160
-1.601555
1.462812
-1.288441
0.402370
-3.872934
-5.735935
-4.864081
-0.915757
0.158828
0.380784
-0.564526
0.496598
0.754685
1.022120
-0.331138
0.506583
-0.151942
1.511158
1.071360
0.020723
-1.291342
0.849065
1.110227
-0.216264
-1.087247
0.355836
-0.290115
1.794465
1.409108
-1.931238
-2.343594
2.370932
-0.968364
1.290944
-1.169600
-3.080984
-2.467210
-0.649346
-1.726487
0.619958
-1.490317
-3.001052
-3.926351
-2.140808
0.115049
0.725708
-0.254685
0.268087
-1.147019
-0.108764
-0.860238
-1.051434
-1.203635
0.294094
1.817307
-0.138703
-0.150055
0.080597
0.541026
1.993190
-2.428637
2.076423
1.479253
-2.787877
1.339782
2.935346
0.631616
-0.070987
-1.441485
1.877475
0.028181
0.048800
2.169057
-1.412507
0.465187
0.084199
0.017393
-0.443967
-0.261594
1.032998
1.943253
-7.291415
0.591547
2.606015
2.833297
1.077325
0.996440
1.279127
-0.139318
-0.613660
-0.444438
0.925421
1.081594
0.549172
-0.462220
0.074902
1.916664
1.302859
4.796834
1.878495
1.290637
3.318161
2.377538
0.884816
0.274596
1.227714
-0.607125
0.505310
-0.736304
1.044944
1.721897
0.416438
-1.661355
-1.643542
0.676390
4.607253
1.159051
1.867781
0.148115
-0.225136
0.305865
-1.244080
-0.533878
0.828747
-0.729353
-5.401400
-4.860541
-1.209128
-1.800028
-0.699920
0.173271
0.819960
-1.496148
-2.234436
1.625694
2.070578
2.211728
1.301588
0.795865
1.655252
-0.386036
-1.454083
-0.923948
-4.072538
0.269015
-1.604952
-3.034562
-1.090391
0.526245
2.338889
5.490562
3.015716
0.595088
1.097856
0.668842
1.726401
1.158354
-0.682336
-0.104332
1.071559
-1.601201
0.441729
1.077914
-0.273684
-0.951771
-0.002886
0.753675
-2.499549
-2.436188
-0.992943
1.027932
-0.518277
-0.071067
1.926770
-1.637414
-0.689758
-1.982946
1.123846
-2.566895
-1.061328
-1.889945
-1.885522
-2.414355
-2.835191
-2.029857
-3.681331
-2.874631
-0.293571
0.849611
0.598792
0.009774
-0.480890
1.667250
0.623875
0.440460
-0.571727
0.142683
-0.886579
0.665352
0.534982
0.815612
-0.729752
-0.766694
-1.172809
-0.146781
0.691574
-0.210197
-0.513427
-1.770557
-1.124610
-0.363838
0.253746
3.176499
1.704543
-0.134205
-2.640302
-0.133233
0.159063
-0.735914
-1.246246
-0.721097
-1.943766
-1.609823
-0.737538
-0.780853
0.063312
0.542338
-0.921487
0.347306
0.764623
0.683093
0.419137
0.876871
-0.055433
1.137787
1.260435
1.503866
0.517835
-0.958659
-2.463051
-0.247848
-0.347828
1.593446
1.732126
-0.640375
-1.739044
-1.035460
1.548071
1.406722
-0.579984
0.402556
-1.987197
2.183050
1.896258
-0.998631
-0.114708
-0.842096
-2.163100
-0.616690
0.095600
-0.065478
1.949349
0.647669
0.590628
0.153467
0.599602
0.274115
0.882295
0.937879
-0.135757
0.230088
-2.191563
-1.487805
0.743559
0.132247
-3.326273
-3.038865
-0.945799
-1.339388
0.828682
0.946714
-0.102289
-3.024021
-3.978784
-1.418513
-2.363111
0.415826
-2.434378
-4.465218
-2.581662
-3.269711
-0.210848
-0.876091
-2.058562
-3.658782
-0.828773
0.480711
0.228143
-5.933897
1.157177
1.161927
1.579997
1.161698
-0.737080
1.126090
2.242172
2.396980
1.548464
0.362941
-2.462360
-0.451034
0.884554
-1.178558
0.467297
0.862977
1.731876
-0.492727
-1.772523
-2.489383
-0.100346
2.015495
0.959130
0.115202
1.447156
1.664686
2.257782
0.644803
0.289648
0.778647
1.017408
0.643399
-0.228646
-0.847806
1.440209
-0.114665
0.929497
2.574652
-0.240714
1.709280
2.378069
0.660005
0.669965
-4.623253
1.714390
-1.220208
-5.629467
-2.695946
-1.739200
-2.548832
0.147449
-1.895498
-1.395861
-0.668612
1.219161
2.076831
1.683923
3.260531
1.233580
1.758093
2.552583
2.111187
1.321698
0.307382
-1.888583
0.131525
-0.927593
-1.130014
-2.185473
-2.456281
-2.203124
-0.769386
0.850918
0.936586
0.302199
-0.304359
-0.729433
-0.881414
-0.736419
-0.226196
0.262212
2.449699
-1.183534
-0.922574
-0.183757
-0.729168
-2.363585
-1.376325
-1.377222
-1.778763
-3.479997
-5.076907
-0.281482
-0.642265
-1.262752
-2.419084
-0.268216
-0.882157
-0.814186
-0.394696
-0.568653
1.108609
-0.138160
0.554117
0.330345
-1.684402
0.309546
1.767706
0.436592
1.428369
2.066170
1.973723
2.031395
0.610238
-1.320855
-3.667738
0.020136
0.953918
0.656155
-0.575178
-0.755818
-1.571105
-0.194593
0.843196
0.017987
-1.404981
-2.250713
-1.439521
3.252424
-0.120647
-3.921226
-0.265018
-0.986415
0.366665
2.868882
-0.032711
-3.632643
-0.017912
0.408939
1.798903
-1.136229
-2.610991
-0.528975
0.150887
0.641868
1.916954
-0.029749
2.733573
1.199514
0.448136
0.447611
-0.383218
2.957347
3.264381
1.481789
-0.588037
-1.238863
-1.795027
0.915645
0.786991
-1.079067
-2.367454
-1.975449
-1.942168
3.473364
0.801430
-3.463912
-1.661918
-1.371718
1.736408
1.639173
0.090890
-1.172697
-0.766848
0.887940
0.557847
-0.381733
-1.720810
-1.369447
0.312954
-0.580767
-4.092916
0.900273
1.926496
-1.632828
-0.848287
3.783532
0.218611
2.520604
-0.197967
-0.355051
-1.497235
-0.532477
-1.604466
-3.202470
0.461441
-2.159417
-1.985708
-1.893593
-4.383253
-1.498357
0.206367
-2.849704
0.369935
-1.459193
-0.397008
-0.564494
-0.972242
0.406052
0.933765
2.202830
0.025727
1.455865
-0.317815
-0.156664
0.913922
